{"learner":{"attributes":{"best_iteration":"51","best_score":"1.052697096260635","scikit_learn":"{\"_estimator_type\": \"classifier\"}"},"feature_names":["weight_class","title_fight","scheduled_rounds","career_fights_diff","career_wins_diff","career_win_rate_diff","career_finish_rate_diff","kd_pf_diff","sub_att_pf_diff","td_landed_pf_diff","td_acc_diff","td_def_diff","sig_pm_diff","sig_absorbed_pm_diff","ctrl_share_diff","streak_diff","days_since_last_diff","last5_win_rate_diff","last5_avg_opp_elo_diff","elo_diff","striking_elo_diff","grappling_elo_diff","elo_fights_diff","height_diff","reach_diff","age_diff","age_a","career_fights_a","reach_missing_a","dob_missing_a","southpaw_a","debut_a","age_b","career_fights_b","reach_missing_b","dob_missing_b","southpaw_b","debut_b","debut_matchup","stance_mismatch"],"feature_types":["c","int","float","int","float","float","float","float","float","float","float","float","float","float","float","int","float","float","float","float","float","float","int","float","float","float","float","int","int","int","int","int","float","int","int","int","int","int","int","int"],"gradient_booster":{"model":{"cats":{"enc":[{"offsets":[0,12,24,37,46,57,74,85,97,108,120,140,161,178,197],"values":[66,97,110,116,97,109,119,101,105,103,104,116,67,97,116,99,104,32,87,101,105,103,104,116,70,101,97,116,104,101,114,119,101,105,103,104,116,70,108,121,119,101,105,103,104,116,72,101,97,118,121,119,101,105,103,104,116,76,105,103,104,116,32,72,101,97,118,121,119,101,105,103,104,116,76,105,103,104,116,119,101,105,103,104,116,77,105,100,100,108,101,119,101,105,103,104,116,79,112,101,110,32,87,101,105,103,104,116,87,101,108,116,101,114,119,101,105,103,104,116,87,111,109,101,110,39,115,32,66,97,110,116,97,109,119,101,105,103,104,116,87,111,109,101,110,39,115,32,70,101,97,116,104,101,114,119,101,105,103,104,116,87,111,109,101,110,39,115,32,70,108,121,119,101,105,103,104,116,87,111,109,101,110,39,115,32,83,116,114,97,119,119,101,105,103,104,116]},{"offsets":[],"values":[]},{"offsets":[],"values":[]},{"offsets":[],"values":[]},{"offsets":[],"values":[]},{"offsets":[],"values":[]},{"offsets":[],"values":[]},{"offsets":[],"values":[]},{"offsets":[],"values":[]},{"offsets":[],"values":[]},{"offsets":[],"values":[]},{"offsets":[],"values":[]},{"offsets":[],"values":[]},{"offsets":[],"values":[]},{"offsets":[],"values":[]},{"offsets":[],"values":[]},{"offsets":[],"values":[]},{"offsets":[],"values":[]},{"offsets":[],"values":[]},{"offsets":[],"values":[]},{"offsets":[],"values":[]},{"offsets":[],"values":[]},{"offsets":[],"values":[]},{"offsets":[],"values":[]},{"offsets":[],"values":[]},{"offsets":[],"values":[]},{"offsets":[],"values":[]},{"offsets":[],"values":[]},{"offsets":[],"values":[]},{"offsets":[],"values":[]},{"offsets":[],"values":[]},{"offsets":[],"values":[]},{"offsets":[],"values":[]},{"offsets":[],"values":[]},{"offsets":[],"values":[]},{"offsets":[],"values":[]},{"offsets":[],"values":[]},{"offsets":[],"values":[]},{"offsets":[],"values":[]},{"offsets":[],"values":[]}],"feature_segments":[0,14,14,14,14,14,14,14,14,14,14,14,14,14,14,14,14,14,14,14,14,14,14,14,14,14,14,14,14,14,14,14,14,14,14,14,14,14,14,14,14],"sorted_idx":[0,1,2,3,4,5,6,7,8,9,10,11,12,13]},"gbtree_model_param":{"num_parallel_tree":"1","num_trees":"408"},"iteration_indptr":[0,4,8,12,16,20,24,28,32,36,40,44,48,52,56,60,64,68,72,76,80,84,88,92,96,100,104,108,112,116,120,124,128,132,136,140,144,148,152,156,160,164,168,172,176,180,184,188,192,196,200,204,208,212,216,220,224,228,232,236,240,244,248,252,256,260,264,268,272,276,280,284,288,292,296,300,304,308,312,316,320,324,328,332,336,340,344,348,352,356,360,364,368,372,376,380,384,388,392,396,400,404,408],"tree_info":[0,1,2,3,0,1,2,3,0,1,2,3,0,1,2,3,0,1,2,3,0,1,2,3,0,1,2,3,0,1,2,3,0,1,2,3,0,1,2,3,0,1,2,3,0,1,2,3,0,1,2,3,0,1,2,3,0,1,2,3,0,1,2,3,0,1,2,3,0,1,2,3,0,1,2,3,0,1,2,3,0,1,2,3,0,1,2,3,0,1,2,3,0,1,2,3,0,1,2,3,0,1,2,3,0,1,2,3,0,1,2,3,0,1,2,3,0,1,2,3,0,1,2,3,0,1,2,3,0,1,2,3,0,1,2,3,0,1,2,3,0,1,2,3,0,1,2,3,0,1,2,3,0,1,2,3,0,1,2,3,0,1,2,3,0,1,2,3,0,1,2,3,0,1,2,3,0,1,2,3,0,1,2,3,0,1,2,3,0,1,2,3,0,1,2,3,0,1,2,3,0,1,2,3,0,1,2,3,0,1,2,3,0,1,2,3,0,1,2,3,0,1,2,3,0,1,2,3,0,1,2,3,0,1,2,3,0,1,2,3,0,1,2,3,0,1,2,3,0,1,2,3,0,1,2,3,0,1,2,3,0,1,2,3,0,1,2,3,0,1,2,3,0,1,2,3,0,1,2,3,0,1,2,3,0,1,2,3,0,1,2,3,0,1,2,3,0,1,2,3,0,1,2,3,0,1,2,3,0,1,2,3,0,1,2,3,0,1,2,3,0,1,2,3,0,1,2,3,0,1,2,3,0,1,2,3,0,1,2,3,0,1,2,3,0,1,2,3,0,1,2,3,0,1,2,3,0,1,2,3,0,1,2,3,0,1,2,3,0,1,2,3,0,1,2,3,0,1,2,3,0,1,2,3,0,1,2,3,0,1,2,3,0,1,2,3,0,1,2,3,0,1,2,3,0,1,2,3],"trees":[{"base_weights":[-8.263E-4,8.7113875E-1,-5.0774556E-2,1.8123467E-1,4.5019444E-2,-1.5640733E-1,3.3890773E-2,-1.2865046E-2,2.7344806E-2,4.6788022E-2,-2.0647259E-1,8.4836826E-2,-1.2892559E-1,-8.5696665E-4,2.5917277E-2,-4.2683217E-3,-1.498385E-2,2.0436726E-3,1.769804E-2,-1.6449912E-2,4.709648E-4],"categories":[0,1,2,3,10,12,13],"categories_nodes":[6],"categories_segments":[0],"categories_sizes":[7],"default_left":[1,0,0,0,0,1,1,0,0,0,0,0,0,0,0,0,0,0,0,0,0],"id":0,"left_children":[1,3,5,7,-1,9,11,-1,-1,13,15,17,19,-1,-1,-1,-1,-1,-1,-1,-1],"loss_changes":[5.3796616E1,1.1872787E0,1.0453537E1,7.779547E-1,0E0,5.2990904E0,5.396879E0,0E0,0E0,3.1319423E0,4.685272E0,5.8441133E0,4.297428E0,0E0,0E0,0E0,0E0,0E0,0E0,0E0,0E0],"parents":[2147483647,0,0,1,1,2,2,3,3,5,5,6,6,9,9,10,10,11,11,12,12],"right_children":[2,4,6,8,-1,10,12,-1,-1,14,16,18,20,-1,-1,-1,-1,-1,-1,-1,-1],"split_conditions":[2E0,-9.178514E1,2.612403E-1,2E0,4.5019444E-2,-5.3846157E-1,1E-45,-1.2865046E-2,2.7344806E-2,1E0,0E0,3.4351814E1,-1.3629125E-1,-8.5696665E-4,2.5917277E-2,-4.2683217E-3,-1.498385E-2,2.0436726E-3,1.769804E-2,-1.6449912E-2,4.709648E-4],"split_indices":[2,21,10,2,0,6,0,0,0,34,22,32,20,0,0,0,0,0,0,0,0],"split_type":[0,0,0,0,0,0,1,0,0,0,0,0,0,0,0,0,0,0,0,0,0],"sum_hessian":[1.2331796E3,6.592158E1,1.1672579E3,2.9739056E0,6.294767E1,5.1894653E2,6.4831146E2,1.4869528E0,1.4869528E0,1.0259975E2,4.163468E2,4.94164E2,1.5414745E2,9.1199776E1,1.1399972E1,1.819039E2,2.344429E2,4.2576416E2,6.839983E1,6.245202E1,9.169543E1],"tree_param":{"num_deleted":"0","num_feature":"40","num_nodes":"21","size_leaf_vector":"1"}},{"base_weights":[6.0568266E-3,-6.2011504E-1,4.0203936E-2,7.0437685E-2,-6.5450865E-1,-6.356715E-2,1.007646E-1,2.5042553E-2,-1.9569986E-2,-3.4599494E-2,-1.3376752E-1,-1.715975E-2,-2.6345602E-1,-3.186853E-2,1.754349E-1,-2.3820814E-2,1.5632985E-2,4.810515E-3,-7.882987E-3,3.085849E-2,-1.585017E-2,-3.4978967E-3,3.6503933E-2,1.4949192E-2,3.6392498E-3],"categories":[0,1,2,3,4,5,10,11,12,13],"categories_nodes":[11],"categories_segments":[0],"categories_sizes":[10],"default_left":[1,0,0,0,1,0,1,0,0,0,0,1,0,1,0,0,0,0,0,0,0,0,0,0,0],"id":1,"left_children":[1,3,5,7,9,11,13,-1,-1,-1,15,17,19,21,23,-1,-1,-1,-1,-1,-1,-1,-1,-1,-1],"loss_changes":[2.2486683E1,1.3377876E0,6.2727194E0,8.8839597E-1,9.204674E-1,3.4098778E0,6.2453322E0,0E0,0E0,0E0,8.7166244E-1,4.7904186E0,3.4627328E0,6.6618695E0,5.092412E0,0E0,0E0,0E0,0E0,0E0,0E0,0E0,0E0,0E0,0E0],"parents":[2147483647,0,0,1,1,2,2,3,3,4,4,5,5,6,6,10,10,11,11,12,12,13,13,14,14],"right_children":[2,4,6,8,10,12,14,-1,-1,-1,16,18,20,22,24,-1,-1,-1,-1,-1,-1,-1,-1,-1,-1],"split_conditions":[2E0,-9.178514E1,-7.825721E0,2E0,2.7104723E0,3.444216E1,-5.08E0,2.5042553E-2,-1.9569986E-2,-3.4599494E-2,1E0,1E-45,2.4605064E1,1.173913E0,1.7324561E-1,-2.3820814E-2,1.5632985E-2,4.810515E-3,-7.882987E-3,3.085849E-2,-1.585017E-2,-3.4978967E-3,3.6503933E-2,1.4949192E-2,3.6392498E-3],"split_indices":[2,21,21,2,25,32,24,0,0,0,38,0,26,8,10,0,0,0,0,0,0,0,0,0,0],"split_type":[0,0,0,0,0,0,0,0,0,0,0,1,0,0,0,0,0,0,0,0,0,0,0,0,0],"sum_hessian":[1.0495002E3,5.338546E1,9.9611475E2,2.4830446E0,5.0902416E1,3.6707675E2,6.2903796E2,1.2415223E0,1.2415223E0,4.717785E1,3.724567E0,2.9879303E2,6.828373E1,2.2678474E2,4.0225323E2,2.0692039E0,1.6553631E0,1.6553632E2,1.3325673E2,3.3107262E0,6.4973E1,2.1685257E2,9.9321785E0,1.816761E2,2.2057713E2],"tree_param":{"num_deleted":"0","num_feature":"40","num_nodes":"25","size_leaf_vector":"1"}},{"base_weights":[-4.338047E-3,-2.8336028E-2,2.9350478E-2,3.78648E-1,-1.27443485E-2,5.285443E-1,-3.5451412E-1,9.3795943E-1,-2.673052E-2,-5.9493585E-3,3.5136133E-2,1.4474048E-2,-2.6041513E-2,7.2524594E-3,8.699292E-2,2.0129962E-2,-2.1903769E-3],"categories":[1,2,3,4,6,7,0,1,2,3,4,5,6,7,8,9,11,12],"categories_nodes":[7,8],"categories_segments":[0,6],"categories_sizes":[6,12],"default_left":[1,0,0,0,0,0,0,1,1,0,0,0,0,0,0,0,0],"id":2,"left_children":[1,-1,3,5,7,9,11,13,15,-1,-1,-1,-1,-1,-1,-1,-1],"loss_changes":[1.1749539E1,0E0,8.609928E0,7.1082916E0,6.982724E0,6.0259933E0,1.3598402E0,4.588876E0,3.805525E0,0E0,0E0,0E0,0E0,0E0,0E0,0E0,0E0],"parents":[2147483647,0,0,2,2,3,3,4,4,5,5,6,6,7,7,8,8],"right_children":[2,-1,4,6,8,10,12,14,16,-1,-1,-1,-1,-1,-1,-1,-1],"split_conditions":[3E0,-2.8336028E-2,-1.4047619E0,1.9628399E1,-1.2533881E1,-4.1509923E-1,-2.54E0,1E-45,1E-45,-5.9493585E-3,3.5136133E-2,1.4474048E-2,-2.6041513E-2,7.2524594E-3,8.699292E-2,2.0129962E-2,-2.1903769E-3],"split_indices":[2,0,9,21,25,14,24,0,0,0,0,0,0,0,0,0,0],"split_type":[0,0,0,0,0,0,0,1,1,0,0,0,0,0,0,0,0],"sum_hessian":[6.182868E2,3.404987E1,5.8423694E2,6.197566E1,5.222613E2,5.168721E1,1.0288449E1,6.614003E0,5.156473E2,1.1023338E1,4.066387E1,1.9597046E0,8.328745E0,3.9194093E0,2.694594E0,1.8862158E1,4.9678513E2],"tree_param":{"num_deleted":"0","num_feature":"40","num_nodes":"17","size_leaf_vector":"1"}},{"base_weights":[2.5931912E-2,-2.5429282E-1,3.2774942E0,-3.8252175E-1,7.0429075E-1,-7.95756E-2,5.0696297E0,-4.8316482E-1,-3.8012512E-2,-1.6378519E-1,2.089606E0,-1.5220198E-2,1.177857E-2,6.4599915E0,6.394006E-2,-6.466371E-3,-2.4996316E-2,3.121371E-2,-1.6037943E-2,3.645255E-2,-2.137777E-2,1.5597565E-1,2.1026138E-2,3.9455587E-1,8.5800506E-2],"categories":[0,1,2,3,4,5,1,3,5,6,7,8,9,10,11,12,13],"categories_nodes":[5,8],"categories_segments":[0,6],"categories_sizes":[6,11],"default_left":[0,0,0,1,1,0,0,0,1,0,0,0,0,0,0,0,0,0,0,0,0,0,0,0,0],"id":3,"left_children":[1,3,5,7,9,11,13,15,17,19,21,-1,-1,23,-1,-1,-1,-1,-1,-1,-1,-1,-1,-1,-1],"loss_changes":[8.34336E1,1.064226E1,4.4110466E1,2.5848303E0,1.2738974E1,3.206171E-1,1.6783722E1,2.7945232E-1,3.5821254E0,2.0225825E0,5.639616E0,0E0,0E0,8.38678E0,0E0,0E0,0E0,0E0,0E0,0E0,0E0,0E0,0E0,0E0,0E0],"parents":[2147483647,0,0,1,1,2,2,3,3,4,4,5,5,6,6,7,7,8,8,9,9,10,10,13,13],"right_children":[2,4,6,8,10,12,14,16,18,20,22,-1,-1,24,-1,-1,-1,-1,-1,-1,-1,-1,-1,-1,-1],"split_conditions":[1E0,1.2E1,4E0,6.25E-2,8.7050945E-2,1E-45,2E0,-6.25E-1,1E-45,-1.6666667E-1,-5.8648324E-1,-1.5220198E-2,1.177857E-2,3.2473648E1,6.394006E-2,-6.466371E-3,-2.4996316E-2,3.121371E-2,-1.6037943E-2,3.645255E-2,-2.137777E-2,1.5597565E-1,2.1026138E-2,3.9455587E-1,8.5800506E-2],"split_indices":[1,27,27,7,14,0,4,6,0,5,13,0,0,32,0,0,0,0,0,0,0,0,0,0,0],"split_type":[0,0,0,0,0,1,0,0,1,0,0,0,0,0,0,0,0,0,0,0,0,0,0,0,0],"sum_hessian":[8.965304E1,8.33883E1,6.2647405E0,7.4079666E1,9.308625E0,2.512975E0,3.7517653E0,5.7019756E1,1.7059914E1,6.2647405E0,3.0438852E0,1.4865485E0,1.0264263E0,2.2298229E0,1.5219426E0,2.973097E0,5.4046658E1,4.742798E0,1.2317117E1,1.0264263E0,5.2383137E0,1.3449725E0,1.6989126E0,1.2033964E0,1.0264263E0],"tree_param":{"num_deleted":"0","num_feature":"40","num_nodes":"25","size_leaf_vector":"1"}},{"base_weights":[-1.6976243E-2,8.164232E-1,-6.623369E-2,2.588775E-1,8.414478E-1,-3.0754345E-2,-3.6014166E-1,2.9932512E-2,-1.2561698E-2,4.3480225E-2,4.4078344E-1,-3.729691E-1,-1.1848448E-2,-4.16007E-1,1.289865E-1,3.311211E-2,3.0631914E-3,1.1150655E-2,-2.459144E-2,3.996964E-3,-3.969039E-3,3.265481E-2,-2.2266489E-2,2.098783E-2,-2.3905385E-2],"categories":[0,2,3,6,7,8,10,12,13],"categories_nodes":[12],"categories_segments":[0],"categories_sizes":[9],"default_left":[1,0,0,0,1,0,0,0,0,0,0,0,1,0,0,0,0,0,0,0,0,0,0,0,0],"id":4,"left_children":[1,3,5,7,9,11,13,-1,-1,-1,15,17,19,21,23,-1,-1,-1,-1,-1,-1,-1,-1,-1,-1],"loss_changes":[5.172954E1,7.6335526E-1,1.2392456E1,9.2431355E-1,3.709526E-1,6.869528E0,3.5521107E0,0E0,0E0,0E0,4.9883878E-1,4.0476027E0,6.2537293E0,3.9004498E0,2.6521218E0,0E0,0E0,0E0,0E0,0E0,0E0,0E0,0E0,0E0,0E0],"parents":[2147483647,0,0,1,1,2,2,3,3,4,4,5,5,6,6,10,10,11,11,12,12,13,13,14,14],"right_children":[2,4,6,8,10,12,14,-1,-1,-1,16,18,20,22,24,-1,-1,-1,-1,-1,-1,-1,-1,-1,-1],"split_conditions":[2E0,-9.178514E1,5E0,-2.54E0,2.7104723E0,-2E0,5.882353E-1,2.9932512E-2,-1.2561698E-2,4.3480225E-2,1E0,-7.1666664E-1,1E-45,-1.1E1,1.4538461E0,3.311211E-2,3.0631914E-3,1.1150655E-2,-2.459144E-2,3.996964E-3,-3.969039E-3,3.265481E-2,-2.2266489E-2,2.098783E-2,-2.3905385E-2],"split_indices":[2,21,2,23,25,9,10,0,0,0,38,8,0,4,9,0,0,0,0,0,0,0,0,0,0],"split_type":[0,0,0,0,0,0,0,0,0,0,0,0,1,0,0,0,0,0,0,0,0,0,0,0,0],"sum_hessian":[1.2578076E3,6.9323906E1,1.1884838E3,3.4651718E0,6.5858734E1,1.0614541E3,1.2702965E2,1.9756634E0,1.4895084E0,6.0440845E1,5.41789E0,5.4590282E1,1.0068638E3,1.14142456E2,1.2887186E1,2.9509766E0,2.4669132E0,8.931252E0,4.5659035E1,4.267099E2,5.801539E2,2.4791818E0,1.1166328E2,8.922366E0,3.9648201E0],"tree_param":{"num_deleted":"0","num_feature":"40","num_nodes":"25","size_leaf_vector":"1"}},{"base_weights":[1.4363708E-2,-6.1177325E-1,4.9923323E-2,-1.5415976E-2,-6.439435E-1,1.4492291E-3,1.6559455E-1,-2.1877555E-2,2.4238108E-2,3.182629E-3,-6.617797E-1,-5.54686E-2,1.5959148E-1,8.26902E-1,1.2171089E-1,-3.4003597E-2,-1.0256524E-2,9.954932E-3,-4.0794816E-3,3.861389E-3,2.635243E-2,-1.1036301E-2,5.0470173E-2,2.4056055E-3,1.7884543E-2],"categories":[0,1,2,3,4,6,7,8,9,10,11,12,13],"categories_nodes":[4],"categories_segments":[0],"categories_sizes":[13],"default_left":[1,0,0,0,0,1,0,0,0,0,1,1,1,0,1,0,0,0,0,0,0,0,0,0,0],"id":5,"left_children":[1,3,5,7,9,11,13,-1,-1,-1,15,17,19,21,23,-1,-1,-1,-1,-1,-1,-1,-1,-1,-1],"loss_changes":[2.3330956E1,1.0704594E0,5.557369E0,1.0370177E0,7.1616936E-1,6.304971E0,8.393651E0,0E0,0E0,0E0,2.963791E-1,3.441426E0,5.5699368E0,3.6722965E0,4.7703576E0,0E0,0E0,0E0,0E0,0E0,0E0,0E0,0E0,0E0,0E0],"parents":[2147483647,0,0,1,1,2,2,3,3,4,4,5,5,6,6,10,10,11,11,12,12,13,13,14,14],"right_children":[2,4,6,8,10,12,14,-1,-1,-1,16,18,20,22,24,-1,-1,-1,-1,-1,-1,-1,-1,-1,-1],"split_conditions":[2E0,-9.178514E1,3.270327E1,-2.54E0,1E-45,5.08E0,-5.3333336E-1,-2.1877555E-2,2.4238108E-2,3.182629E-3,5.026694E0,2.4605064E1,4.9E1,-7.1153775E-2,4.1389883E-1,-3.4003597E-2,-1.0256524E-2,9.954932E-3,-4.0794816E-3,3.861389E-3,2.635243E-2,-1.1036301E-2,5.0470173E-2,2.4056055E-3,1.7884543E-2],"split_indices":[2,21,19,23,0,23,7,0,0,0,25,26,16,14,13,0,0,0,0,0,0,0,0,0,0],"split_type":[0,0,0,0,1,0,0,0,0,0,0,0,0,0,0,0,0,0,0,0,0,0,0,0,0],"sum_hessian":[1.0454952E3,5.5314167E1,9.90181E2,2.9068806E0,5.2407284E1,6.984821E2,2.916989E2,1.6443276E0,1.2625531E0,1.225383E0,5.11819E1,5.140992E2,1.8438295E2,1.7041899E1,2.74657E2,4.8740227E1,2.4416752E0,4.7226135E1,4.6687305E2,1.516104E2,3.2772556E1,2.4972556E0,1.4544644E1,2.1027815E2,6.437886E1],"tree_param":{"num_deleted":"0","num_feature":"40","num_nodes":"25","size_leaf_vector":"1"}},{"base_weights":[-1.0346559E-2,-2.8124182E-2,2.1629835E-2,1.02381244E-1,-8.0584124E-2,3.6016312E-1,5.1525302E-2,2.7331626E-2,-2.5411353E-1,2.7705789E-2,2.312232E-3,1.8912457E-2,-4.040064E-4,-2.2082662E-3,2.1374464E-2,-1.646756E-2,5.297744E-4],"categories":[3,4,5,6,8,11],"categories_nodes":[2],"categories_segments":[0],"categories_sizes":[6],"default_left":[1,0,1,0,1,0,1,0,0,0,0,0,0,0,0,0,0],"id":6,"left_children":[1,-1,3,5,7,9,11,13,15,-1,-1,-1,-1,-1,-1,-1,-1],"loss_changes":[1.0875446E1,0E0,4.816788E0,4.2538776E0,4.832375E0,3.2337494E0,5.326702E0,4.5901527E0,1.9731889E0,0E0,0E0,0E0,0E0,0E0,0E0,0E0,0E0],"parents":[2147483647,0,0,2,2,3,3,4,4,5,5,6,6,7,7,8,8],"right_children":[2,-1,4,6,8,10,12,14,16,-1,-1,-1,-1,-1,-1,-1,-1],"split_conditions":[3E0,-2.8124182E-2,1E-45,-9.8245615E-1,-2.6524112E-1,9.644939E-2,2.530048E1,9E0,3.181818E-1,2.7705789E-2,2.312232E-3,1.8912457E-2,-4.040064E-4,-2.2082662E-3,2.1374464E-2,-1.646756E-2,5.297744E-4],"split_indices":[2,0,0,9,12,10,26,33,7,0,0,0,0,0,0,0,0],"split_type":[0,0,1,0,0,0,0,0,0,0,0,0,0,0,0,0,0],"sum_hessian":[6.142967E2,3.27205E1,5.815762E2,3.2489777E2,2.5667844E2,5.2533012E1,2.7236475E2,1.5877855E2,9.7899895E1,3.1998053E1,2.0534958E1,4.1197433E1,2.3116731E2,1.3546448E2,2.3314072E1,7.6042336E1,2.1857553E1],"tree_param":{"num_deleted":"0","num_feature":"40","num_nodes":"17","size_leaf_vector":"1"}},{"base_weights":[-5.0195333E-2,-2.8762117E-1,2.4840202E0,-3.9454585E-1,5.161273E-1,5.259322E-4,3.2729409E0,6.870734E-2,-4.4223192E-1,-2.0802308E-2,1.3080993E0,4.098345E-2,4.01663E0,4.2581238E-2,-1.3333495E-2,-2.280951E-2,1.0761039E-2,1.6511979E-2,1.1878484E-1,7.0636116E-2,2.3606546E-1],"categories":[0,1,3,4,5,6,7,8,9,10,11,12],"categories_nodes":[3],"categories_segments":[0],"categories_sizes":[12],"default_left":[0,0,1,0,1,0,0,0,1,0,1,0,0,0,0,0,0,0,0,0,0],"id":7,"left_children":[1,3,5,7,9,-1,11,13,15,-1,17,-1,19,-1,-1,-1,-1,-1,-1,-1,-1],"loss_changes":[5.5131653E1,7.3873796E0,1.5286308E1,1.6726513E0,8.109682E0,0E0,7.5621414E0,2.2761865E0,7.179699E-1,0E0,5.251458E0,0E0,1.2368011E0,0E0,0E0,0E0,0E0,0E0,0E0,0E0,0E0],"parents":[2147483647,0,0,1,1,2,2,3,3,4,4,6,6,7,7,8,8,10,10,12,12],"right_children":[2,4,6,8,10,-1,12,14,16,-1,18,-1,20,-1,-1,-1,-1,-1,-1,-1,-1],"split_conditions":[1E0,1.2E1,-3.7097878E0,1E-45,1.25E-1,5.259322E-4,5E0,-3.3646323E-2,3.936482E1,-2.0802308E-2,5.08E0,4.098345E-2,-1.826923E-1,4.2581238E-2,-1.3333495E-2,-2.280951E-2,1.0761039E-2,1.6511979E-2,1.1878484E-1,7.0636116E-2,2.3606546E-1],"split_indices":[1,27,25,0,9,0,33,10,32,0,24,0,7,0,0,0,0,0,0,0,0],"split_type":[0,0,0,1,0,0,0,0,0,0,0,0,0,0,0,0,0,0,0,0,0],"sum_hessian":[8.944085E1,8.258968E1,6.8511653E0,7.3341934E1,9.247746E0,1.901797E0,4.949368E0,6.8038735E0,6.653806E1,4.4659123E0,4.781834E0,1.6403544E0,3.3090136E0,1.5788476E0,5.225026E0,6.545454E1,1.0835274E0,3.1791968E0,1.6026374E0,1.3447418E0,1.9642718E0],"tree_param":{"num_deleted":"0","num_feature":"40","num_nodes":"21","size_leaf_vector":"1"}},{"base_weights":[-8.3173085E-3,7.860423E-1,-5.170892E-2,3.7659064E-3,8.1267124E-1,-2.2161705E-2,-2.9595274E-1,1.1792887E-2,8.2720566E-1,9.469017E-2,-7.434034E-2,3.487394E-2,-3.2866654E-1,4.2122316E-2,1.949782E-2,-2.6740596E-2,6.1414884E-3,2.8452761E-3,-6.126784E-3,-1.9208996E-2,5.645902E-3],"categories":[0,2,6,7,9,10,12],"categories_nodes":[10],"categories_segments":[0],"categories_sizes":[7],"default_left":[1,0,0,0,0,1,0,0,1,0,1,0,0,0,0,0,0,0,0,0,0],"id":8,"left_children":[1,3,5,-1,7,9,11,-1,13,15,17,-1,19,-1,-1,-1,-1,-1,-1,-1,-1],"loss_changes":[4.3729702E1,1.1824608E0,8.673664E0,0E0,3.350563E-1,6.555826E0,4.445099E0,0E0,7.987976E-2,5.9466844E0,4.707226E0,0E0,3.1386776E0,0E0,0E0,0E0,0E0,0E0,0E0,0E0,0E0],"parents":[2147483647,0,0,1,1,2,2,4,4,5,5,6,6,8,8,9,9,10,10,12,12],"right_children":[2,4,6,-1,8,10,12,-1,14,16,18,-1,20,-1,-1,-1,-1,-1,-1,-1,-1],"split_conditions":[2E0,-9.178514E1,5E0,3.7659064E-3,2.2811773E1,-7.62E0,-1.1E1,1.1792887E-2,3.380972E1,-4.5E-1,1E-45,3.487394E-2,7.5E-1,4.2122316E-2,1.949782E-2,-2.6740596E-2,6.1414884E-3,2.8452761E-3,-6.126784E-3,-1.9208996E-2,5.645902E-3],"split_indices":[2,21,2,0,32,24,4,0,26,11,0,0,10,0,0,0,0,0,0,0,0],"split_type":[0,0,0,0,0,0,0,0,0,0,1,0,0,0,0,0,0,0,0,0,0],"sum_hessian":[1.2665054E3,6.47126E1,1.2017927E3,2.4753094E0,6.2237293E1,1.0730697E3,1.2872307E2,1.9531268E0,6.0284164E1,3.3099823E2,7.420715E2,3.455901E0,1.2526717E2,5.735821E1,2.9259546E0,1.3392527E1,3.176057E2,1.9926122E2,5.4281024E2,1.1139345E2,1.3873727E1],"tree_param":{"num_deleted":"0","num_feature":"40","num_nodes":"21","size_leaf_vector":"1"}},{"base_weights":[-2.6953912E-3,-6.1500466E-1,3.0634696E-2,-6.4900845E-1,-1.6059603E-1,-1.0031196E-1,8.380382E-2,-3.3420004E-2,-6.291505E-3,-2.4332568E-2,1.5920958E-2,5.297686E-1,-1.3532463E-1,8.658238E-3,1.868744E-1,4.897025E-2,-8.146525E-3,-3.5646204E-3,-2.4543513E-2,-8.329957E-3,4.514992E-3,3.3629615E-2,7.1209753E-3],"categories":[0,1,2,3,4,5],"categories_nodes":[4],"categories_segments":[0],"categories_sizes":[6],"default_left":[1,1,1,1,1,0,0,0,0,0,0,1,0,0,0,0,0,0,0,0,0,0,0],"id":9,"left_children":[1,3,5,7,9,11,13,-1,-1,-1,-1,15,17,19,21,-1,-1,-1,-1,-1,-1,-1,-1],"loss_changes":[2.1067274E1,7.191868E-1,6.82504E0,4.1556168E-1,9.419645E-1,6.3191643E0,5.3959403E0,0E0,0E0,0E0,0E0,4.8663025E0,6.09102E0,5.7968435E0,6.247981E0,0E0,0E0,0E0,0E0,0E0,0E0,0E0,0E0],"parents":[2147483647,0,0,1,1,2,2,3,3,4,4,5,5,6,6,11,11,12,12,13,13,14,14],"right_children":[2,4,6,8,10,12,14,-1,-1,-1,-1,16,18,20,22,-1,-1,-1,-1,-1,-1,-1,-1],"split_conditions":[2E0,2.7104723E0,-7.62E0,9.025305E0,1E-45,-3.9259258E-1,1.1879489E1,-3.3420004E-2,-6.291505E-3,-2.4332568E-2,1.5920958E-2,0E0,3.3979465E1,-1.904762E-1,-3.9849624E-1,4.897025E-2,-8.146525E-3,-3.5646204E-3,-2.4543513E-2,-8.329957E-3,4.514992E-3,3.3629615E-2,7.1209753E-3],"split_indices":[2,25,24,12,0,11,19,0,0,0,0,6,32,8,6,0,0,0,0,0,0,0,0],"split_type":[0,0,0,0,1,0,0,0,0,0,0,0,0,0,0,0,0,0,0,0,0,0,0],"sum_hessian":[1.0303652E3,5.229001E1,9.780752E2,4.825109E1,4.0389166E0,2.821934E2,6.9588184E2,4.6258926E1,1.9921653E0,2.3936613E0,1.6452552E0,1.41116905E1,2.6808173E2,4.0308734E2,2.927945E2,8.306185E0,5.8055058E0,2.2818678E2,3.989493E1,1.2776905E2,2.7531827E2,2.3365993E1,2.694285E2],"tree_param":{"num_deleted":"0","num_feature":"40","num_nodes":"23","size_leaf_vector":"1"}},{"base_weights":[6.632613E-3,-2.7975067E-2,3.995403E-2,1.719673E-1,-1.2241422E-2,1.2370234E-1,8.5048026E-1,8.333328E-2,-1.3015573E-1,1.3842508E-2,-5.895885E-3,-2.4357729E-4,8.162792E-2,2.4160601E-2,1.6308212E-4,1.4651497E-2,-1.0133994E-2],"categories":[],"categories_nodes":[],"categories_segments":[],"categories_sizes":[],"default_left":[1,0,0,0,1,0,0,0,0,0,0,0,0,0,0,0,0],"id":10,"left_children":[1,-1,3,5,7,9,11,13,15,-1,-1,-1,-1,-1,-1,-1,-1],"loss_changes":[1.1710563E1,0E0,4.0405107E0,5.3353853E0,4.7548046E0,5.8152127E0,7.274514E0,7.46234E0,5.8551598E0,0E0,0E0,0E0,0E0,0E0,0E0,0E0,0E0],"parents":[2147483647,0,0,2,2,3,3,4,4,5,5,6,6,7,7,8,8],"right_children":[2,-1,4,6,8,10,12,14,16,-1,-1,-1,-1,-1,-1,-1,-1],"split_conditions":[3E0,-2.7975067E-2,-2.631579E-2,2.1901932E0,-9.8245615E-1,2.2727273E-1,-2.4E-1,3.3333335E-2,2.6045174E1,1.3842508E-2,-5.895885E-3,-2.4357729E-4,8.162792E-2,2.4160601E-2,1.6308212E-4,1.4651497E-2,-1.0133994E-2],"split_indices":[2,0,11,12,9,6,11,17,26,0,0,0,0,0,0,0,0],"split_type":[0,0,0,0,0,0,0,0,0,0,0,0,0,0,0,0,0],"sum_hessian":[6.1859125E2,3.3507343E1,5.8508386E2,1.6513306E2,4.1995084E2,1.5527045E2,9.862605E0,2.3210934E2,1.8784149E2,9.494496E1,6.032548E1,5.1852803E0,4.6773243E0,3.788357E1,1.9422577E2,2.7037062E1,1.6080443E2],"tree_param":{"num_deleted":"0","num_feature":"40","num_nodes":"17","size_leaf_vector":"1"}},{"base_weights":[-4.226783E-2,-2.5126794E-2,3.0303056E0,3.9615574E0,9.726898E-1,5.6777865E-2,4.5713034E0,1.7040205E0,-1.5954264E-2,2.6781115E-1,7.717953E-2,9.290768E-3,1.2102922E-1],"categories":[],"categories_nodes":[],"categories_segments":[],"categories_sizes":[],"default_left":[1,0,0,1,0,0,0,0,0,0,0,0,0],"id":11,"left_children":[1,-1,3,5,7,-1,9,11,-1,-1,-1,-1,-1],"loss_changes":[1.302742E2,0E0,1.9146973E1,8.487305E0,5.329055E0,0E0,6.463501E0,3.2403574E0,0E0,0E0,0E0,0E0,0E0],"parents":[2147483647,0,0,2,2,3,3,4,4,6,6,7,7],"right_children":[2,-1,4,6,8,-1,10,12,-1,-1,-1,-1,-1],"split_conditions":[5E0,-2.5126794E-2,3.2785763E1,-2.7240142E-1,2.8766024E-1,5.6777865E-2,5.76492E-1,-1.3453139E1,-1.5954264E-2,2.6781115E-1,7.717953E-2,9.290768E-3,1.2102922E-1],"split_indices":[2,0,32,11,13,0,13,18,0,0,0,0,0],"split_type":[0,0,0,0,0,0,0,0,0,0,0,0,0],"sum_hessian":[9.0041374E1,7.903801E1,1.100336E1,6.937994E0,4.065366E0,1.7392778E0,5.198716E0,2.392012E0,1.6733541E0,3.5177035E0,1.6810126E0,1.1707737E0,1.2212381E0],"tree_param":{"num_deleted":"0","num_feature":"40","num_nodes":"13","size_leaf_vector":"1"}},{"base_weights":[1.94891E-2,-6.546177E-3,7.5819653E-1,1.4720885E-1,-7.523202E-2,8.0019873E-1,2.6485848E-1,5.753099E-1,1.0846373E-1,2.7676266E-2,-1.5126464E-1,4.1227616E-2,1.0912198E-2,-1.4555066E-2,2.9494584E-2,1.5431642E-2,3.765376E-2,-1.8773856E-2,7.302496E-3,1.262146E-2,-6.659986E-4,1.9737845E-2,-8.527999E-3],"categories":[],"categories_nodes":[],"categories_segments":[],"categories_sizes":[],"default_left":[0,1,1,1,1,1,0,0,0,0,0,0,0,0,0,0,0,0,0,0,0,0,0],"id":12,"left_children":[1,3,5,7,9,11,13,15,17,19,21,-1,-1,-1,-1,-1,-1,-1,-1,-1,-1,-1,-1],"loss_changes":[2.4292864E1,1.2904308E1,6.791191E-1,6.196107E0,6.6121984E0,3.7467384E-1,1.051507E0,1.2410736E0,6.3708725E0,3.3175874E0,5.1860495E0,0E0,0E0,0E0,0E0,0E0,0E0,0E0,0E0,0E0,0E0,0E0,0E0],"parents":[2147483647,0,0,1,1,2,2,3,3,4,4,5,5,6,6,7,7,8,8,9,9,10,10],"right_children":[2,4,6,8,10,12,14,16,18,20,22,-1,-1,-1,-1,-1,-1,-1,-1,-1,-1,-1,-1],"split_conditions":[9.325668E1,-7.62E0,3.2810406E1,2.0514715E1,-3.809524E-1,1.524E1,-2.54E0,0E0,-3.3766234E-1,-5.416526E1,-7.62E0,4.1227616E-2,1.0912198E-2,-1.4555066E-2,2.9494584E-2,1.5431642E-2,3.765376E-2,-1.8773856E-2,7.302496E-3,1.262146E-2,-6.659986E-4,1.9737845E-2,-8.527999E-3],"split_indices":[32,24,26,26,8,23,23,23,11,20,23,0,0,0,0,0,0,0,0,0,0,0,0],"split_type":[0,0,0,0,0,0,0,0,0,0,0,0,0,0,0,0,0,0,0,0,0,0,0],"sum_hessian":[1.2618604E3,1.2198584E3,4.2002003E1,3.7631787E2,8.4354047E2,3.8133366E1,3.8686364E0,3.0082548E1,3.4623532E2,3.5869354E2,4.8484692E2,3.6201538E1,1.9318259E0,1.4658086E0,2.4028277E0,1.3126634E1,1.6955914E1,2.430512E1,3.219302E2,5.4538845E1,3.041547E2,1.5884577E1,4.6896234E2],"tree_param":{"num_deleted":"0","num_feature":"40","num_nodes":"23","size_leaf_vector":"1"}},{"base_weights":[-1.5540016E-2,-5.841846E-1,1.3830544E-2,7.203044E-2,-6.1873543E-1,-9.357046E-2,8.023007E-2,2.4383368E-2,-1.9182762E-2,-3.2844733E-2,-1.0666913E-1,-2.9737106E-1,-4.6225436E-2,2.907194E-3,1.9703066E-1,-1.8896993E-2,5.02881E-3,2.0246511E-2,-1.7802995E-2,-2.856435E-3,4.6811678E-2,-1.4769624E-3,2.2103839E-2,-3.641155E-3,1.7835094E-2],"categories":[],"categories_nodes":[],"categories_segments":[],"categories_sizes":[],"default_left":[1,0,1,0,1,0,0,0,0,0,0,0,1,0,0,0,0,0,0,0,0,0,0,0,0],"id":13,"left_children":[1,3,5,7,9,11,13,-1,-1,-1,15,17,19,21,23,-1,-1,-1,-1,-1,-1,-1,-1,-1,-1],"loss_changes":[1.7545218E1,1.2143497E0,7.1349273E0,8.4551895E-1,8.896923E-1,3.674989E0,5.5821714E0,0E0,0E0,0E0,2.9663736E-1,3.1070652E0,3.3893065E0,5.32734E0,1.06344595E1,0E0,0E0,0E0,0E0,0E0,0E0,0E0,0E0,0E0,0E0],"parents":[2147483647,0,0,1,1,2,2,3,3,4,4,5,5,6,6,10,10,11,11,12,12,13,13,14,14],"right_children":[2,4,6,8,10,12,14,-1,-1,-1,16,18,20,22,24,-1,-1,-1,-1,-1,-1,-1,-1,-1,-1],"split_conditions":[2E0,-9.178514E1,-1.48E2,-9.117043E-1,2.7104723E0,1.3917326E0,2.54E0,2.4383368E-2,-1.9182762E-2,-3.2844733E-2,-4.1915634E1,-5.104895E-1,1.778E1,8.033125E1,-1.1852382E1,-1.8896993E-2,5.02881E-3,2.0246511E-2,-1.7802995E-2,-2.856435E-3,4.6811678E-2,-1.4769624E-3,2.2103839E-2,-3.641155E-3,1.7835094E-2],"split_indices":[2,21,16,25,25,12,23,0,0,0,21,6,23,20,21,0,0,0,0,0,0,0,0,0,0],"split_type":[0,0,0,0,0,0,0,0,0,0,0,0,0,0,0,0,0,0,0,0,0,0,0,0,0],"sum_hessian":[1.0490394E3,5.0594135E1,9.9844525E2,2.4763656E0,4.811777E1,3.8129413E2,6.171511E2,1.2583889E0,1.2179768E0,4.4517494E1,3.600276E0,7.08846E1,3.1040952E2,3.7194537E2,2.4520576E2,1.2025634E0,2.3977125E0,5.0117517E0,6.587284E1,3.0793396E2,2.4755783E0,3.4722467E2,2.4720688E1,9.135475E1,1.5385101E2],"tree_param":{"num_deleted":"0","num_feature":"40","num_nodes":"25","size_leaf_vector":"1"}},{"base_weights":[1.5544527E-2,-2.7787924E-2,4.7725614E-2,3.0103105E-1,9.787681E-3,4.9337152E-1,-1.2140323E-1,-2.6444545E-2,3.2368004E-1,5.0166514E-2,9.983136E-3,-1.6151203E-2,1.5372723E-2,7.098744E-3,-4.840209E-3,3.4717903E-2,2.0083217E-3],"categories":[0,1,5,6,8,9,10,11,12,13,2,3,4,5,6,7,8,11,12,0,1,5,6,8,9,11,12,13],"categories_nodes":[5,7,8],"categories_segments":[0,10,19],"categories_sizes":[10,9,9],"default_left":[1,0,0,0,1,1,1,1,1,0,0,0,0,0,0,0,0],"id":14,"left_children":[1,-1,3,5,7,9,11,13,15,-1,-1,-1,-1,-1,-1,-1,-1],"loss_changes":[1.1522833E1,0E0,5.694565E0,6.332175E0,5.884818E0,7.774189E0,2.257035E0,5.5137715E0,5.5991673E0,0E0,0E0,0E0,0E0,0E0,0E0,0E0,0E0],"parents":[2147483647,0,0,2,2,3,3,4,4,5,5,6,6,7,7,8,8],"right_children":[2,-1,4,6,8,10,12,14,16,-1,-1,-1,-1,-1,-1,-1,-1],"split_conditions":[3E0,-2.7787924E-2,-1.1666666E0,6.4576364E-1,1.26E2,1E-45,7.636364E-2,1E-45,1E-45,5.0166514E-2,9.983136E-3,-1.6151203E-2,1.5372723E-2,7.098744E-3,-4.840209E-3,3.4717903E-2,2.0083217E-3],"split_indices":[2,0,9,21,16,0,11,0,0,0,0,0,0,0,0,0,0],"split_type":[0,0,0,0,0,1,0,1,1,0,0,0,0,0,0,0,0],"sum_hessian":[6.2430396E2,3.242372E1,5.918802E2,7.619613E1,5.156841E2,5.224177E1,2.395436E1,4.631401E2,5.2543964E1,1.820933E1,3.403244E1,1.6461853E1,7.4925065E0,1.3617087E2,3.2696924E2,2.2143488E1,3.0400478E1],"tree_param":{"num_deleted":"0","num_feature":"40","num_nodes":"17","size_leaf_vector":"1"}},{"base_weights":[-1.0211388E-2,-2.5105E-2,2.9749422E0,1.6348685E0,4.182076E0,2.538461E0,-1.7786533E-2,7.510944E-2,2.4538882E-1,2.1806084E-2,1.6728744E-1],"categories":[],"categories_nodes":[],"categories_segments":[],"categories_sizes":[],"default_left":[1,0,0,0,0,0,0,0,0,0,0],"id":15,"left_children":[1,-1,3,5,7,9,-1,-1,-1,-1,-1],"loss_changes":[1.3246196E2,0E0,1.3807884E1,1.4734898E1,4.437149E0,7.726063E0,0E0,0E0,0E0,0E0,0E0],"parents":[2147483647,0,0,2,2,3,3,4,4,5,5],"right_children":[2,-1,4,6,8,10,-1,-1,-1,-1,-1],"split_conditions":[5E0,-2.5105E-2,8E0,1.21212125E-1,-5.241574E-2,-1.7828764E1,-1.7786533E-2,7.510944E-2,2.4538882E-1,2.1806084E-2,1.6728744E-1],"split_indices":[2,0,16,6,14,18,0,0,0,0,0],"split_type":[0,0,0,0,0,0,0,0,0,0,0],"sum_hessian":[8.819337E1,7.6431E1,1.1762371E1,6.6899757E0,5.0723953E0,4.4120083E0,2.2779672E0,1.7350681E0,3.337327E0,1.6514727E0,2.7605357E0],"tree_param":{"num_deleted":"0","num_feature":"40","num_nodes":"11","size_leaf_vector":"1"}},{"base_weights":[-2.764043E-3,-3.9349534E-2,6.8151164E-1,1.1064635E-1,-8.888023E-2,7.327008E-1,9.5258154E-2,-3.3968378E-2,2.3863675E-1,-2.0584854E-1,-3.1259827E-2,4.2131306E-3,7.473574E-1,2.9485283E-2,-3.5480246E-1,4.4207433E-3,-1.511695E-2,2.1133073E-2,4.2802147E-3,-1.3609E-2,-9.480586E-4,4.203453E-3,-4.3208343E-3,3.950301E-2,2.414786E-2,5.504492E-3,-3.3647142E-2],"categories":[0,1,2,3,6,7,9,10,12,13,0,1,2,3,7,10,11,12,13,0,1,2,3,6,7,10,11,12,13],"categories_nodes":[1,2,12],"categories_segments":[0,10,19],"categories_sizes":[10,9,10],"default_left":[0,1,1,0,0,0,0,0,0,0,1,0,1,0,0,0,0,0,0,0,0,0,0,0,0,0,0],"id":16,"left_children":[1,3,5,7,9,11,13,15,17,19,21,-1,23,-1,25,-1,-1,-1,-1,-1,-1,-1,-1,-1,-1,-1,-1],"loss_changes":[3.1864365E1,8.985626E0,1.8688011E0,5.5674973E0,6.118582E0,5.0024414E-1,1.619404E0,4.6871524E0,4.454528E0,3.7107296E0,3.8878088E0,0E0,2.713127E-1,0E0,6.5707135E-1,0E0,0E0,0E0,0E0,0E0,0E0,0E0,0E0,0E0,0E0,0E0,0E0],"parents":[2147483647,0,0,1,1,2,2,3,3,4,4,5,5,6,6,7,7,8,8,9,9,10,10,12,12,14,14],"right_children":[2,4,6,8,10,12,14,16,18,20,22,-1,24,-1,26,-1,-1,-1,-1,-1,-1,-1,-1,-1,-1,-1,-1],"split_conditions":[4.775908E1,1E-45,1E-45,4.4117647E-1,1.4413178E-2,-4.4444445E-1,2.82026E1,4.248756E1,2.8982942E0,4E0,-7.62E0,4.2131306E-3,1E-45,2.9485283E-2,1E0,4.4207433E-3,-1.511695E-2,2.1133073E-2,4.2802147E-3,-1.3609E-2,-9.480586E-4,4.203453E-3,-4.3208343E-3,3.950301E-2,2.414786E-2,5.504492E-3,-3.3647142E-2],"split_indices":[25,0,0,10,11,5,26,19,13,3,24,0,0,0,35,0,0,0,0,0,0,0,0,0,0,0,0],"split_type":[0,1,1,0,0,0,0,0,0,0,0,0,1,0,0,0,0,0,0,0,0,0,0,0,0,0,0],"sum_hessian":[1.2707438E3,1.207145E3,6.3598732E1,2.993567E2,9.077883E2,5.826176E1,5.3369718E0,1.4089539E2,1.584613E2,2.98753E2,6.0903534E2,1.4369587E0,5.6824802E1,2.3952317E0,2.94174E0,9.722779E1,4.3667587E1,7.114548E1,8.731583E1,2.2015689E2,7.859609E1,1.968702E2,4.1216513E2,4.721162E1,9.613183E0,1.4609054E0,1.4808345E0],"tree_param":{"num_deleted":"0","num_feature":"40","num_nodes":"27","size_leaf_vector":"1"}},{"base_weights":[-1.6156355E-3,-5.98236E-1,3.0209692E-2,-3.8534869E-3,-6.3185406E-1,8.23641E-2,-5.7870947E-2,2.3911877E-2,-2.121199E-2,-3.2507416E-2,-6.121501E-3,2.0359403E-2,2.2257805E-1,1.6289942E-1,-9.9379055E-2,-1.775546E-3,9.522053E-3,3.3930668E-3,2.0061035E-2,-7.0620836E-3,2.24361E-2,-1.1757642E-2,-1.0443645E-3],"categories":[2,4,5,10,11,12,13],"categories_nodes":[2],"categories_segments":[0],"categories_sizes":[7],"default_left":[1,0,1,0,1,1,0,0,0,0,0,0,0,1,0,0,0,0,0,0,0,0,0],"id":17,"left_children":[1,3,5,7,9,11,13,-1,-1,-1,-1,15,17,19,21,-1,-1,-1,-1,-1,-1,-1,-1],"loss_changes":[2.0026165E1,1.0648232E0,4.604679E0,9.862521E-1,3.9146614E-1,5.4669213E0,3.4341779E0,0E0,0E0,0E0,0E0,4.1638546E0,5.3034925E0,5.2277517E0,3.3476233E0,0E0,0E0,0E0,0E0,0E0,0E0,0E0,0E0],"parents":[2147483647,0,0,1,1,2,2,3,3,4,4,5,5,6,6,11,11,12,12,13,13,14,14],"right_children":[2,4,6,8,10,12,14,-1,-1,-1,-1,16,18,20,22,-1,-1,-1,-1,-1,-1,-1,-1],"split_conditions":[2E0,-9.178514E1,1E-45,-9.117043E-1,5.026694E0,3.3333335E-2,-4E0,2.3911877E-2,-2.121199E-2,-3.2507416E-2,-6.121501E-3,2.7768595E1,2.739891E0,-3.5E1,6.666667E-2,-1.775546E-3,9.522053E-3,3.3930668E-3,2.0061035E-2,-7.0620836E-3,2.24361E-2,-1.1757642E-2,-1.0443645E-3],"split_indices":[2,21,0,25,25,8,3,0,0,0,0,20,18,16,6,0,0,0,0,0,0,0,0],"split_type":[0,0,1,0,0,0,0,0,0,0,0,0,0,0,0,0,0,0,0,0,0,0,0],"sum_hessian":[1.052743E3,5.2411026E1,1.0003321E3,2.8653286E0,4.9545696E1,6.283423E2,3.719898E2,1.2706065E0,1.5947219E0,4.7561443E1,1.9842515E0,4.3647275E2,1.9186952E2,5.8408157E1,3.1358163E2,3.2914328E2,1.0732945E2,1.0355966E2,8.830987E1,2.854235E1,2.9865805E1,1.1414302E2,1.9943863E2],"tree_param":{"num_deleted":"0","num_feature":"40","num_nodes":"23","size_leaf_vector":"1"}},{"base_weights":[-1.5735272E-2,-2.760659E-2,1.2870129E-2,9.6780874E-2,-8.963159E-2,9.939632E-1,7.585614E-2,8.052192E-2,-2.1193425E-1,-2.0628723E-3,1.04486726E-1,6.782576E-3,-5.8291233E-3,9.726067E-3,-1.6131349E-2,-3.4736716E-3,-1.8916978E-2],"categories":[3,4,5,8,9],"categories_nodes":[2],"categories_segments":[0],"categories_sizes":[5],"default_left":[1,0,1,0,0,1,0,0,0,0,0,0,0,0,0,0,0],"id":18,"left_children":[1,-1,3,5,7,9,11,13,15,-1,-1,-1,-1,-1,-1,-1,-1],"loss_changes":[9.533544E0,0E0,5.086768E0,6.0282784E0,5.5584583E0,8.398125E0,3.684204E0,5.213888E0,3.6529388E0,0E0,0E0,0E0,0E0,0E0,0E0,0E0,0E0],"parents":[2147483647,0,0,2,2,3,3,4,4,5,5,6,6,7,7,8,8],"right_children":[2,-1,4,6,8,10,12,14,16,-1,-1,-1,-1,-1,-1,-1,-1],"split_conditions":[3E0,-2.760659E-2,1E-45,-1.1739904E1,2.0903955E-1,-9.855072E-2,3.2878906E1,4.5454547E-1,9.144422E-1,-2.0628723E-3,1.04486726E-1,6.782576E-3,-5.8291233E-3,9.726067E-3,-1.6131349E-2,-3.4736716E-3,-1.8916978E-2],"split_indices":[2,0,0,25,10,10,20,6,25,0,0,0,0,0,0,0,0],"split_type":[0,0,1,0,0,0,0,0,0,0,0,0,0,0,0,0,0],"sum_hessian":[6.198641E2,3.0456419E1,5.8940765E2,3.2412546E2,2.6528223E2,6.3273654E0,3.1779807E2,1.1108162E2,1.5420062E2,3.748423E0,2.5789423E0,2.4268501E2,7.511307E1,8.699837E1,2.4083252E1,8.38411E1,7.035951E1],"tree_param":{"num_deleted":"0","num_feature":"40","num_nodes":"17","size_leaf_vector":"1"}},{"base_weights":[1.6451752E-2,-2.5083283E-2,2.695634E0,2.7086797E-1,3.1076474E0,3.7036635E-2,-1.4015426E-2,3.6885862E0,1.4526482E0,2.148962E-1,2.4856068E-2,1.1949954E-1,1.3009158E-2],"categories":[],"categories_nodes":[],"categories_segments":[],"categories_sizes":[],"default_left":[1,0,0,0,0,0,0,1,0,0,0,0,0],"id":19,"left_children":[1,-1,3,5,7,-1,-1,9,11,-1,-1,-1,-1],"loss_changes":[1.2409588E2,0E0,1.3630096E1,1.0362096E0,6.45459E0,0E0,0E0,1.4285233E1,4.7902155E0,0E0,0E0,0E0,0E0],"parents":[2147483647,0,0,2,2,3,3,4,4,7,7,8,8],"right_children":[2,-1,4,6,8,-1,-1,10,12,-1,-1,-1,-1],"split_conditions":[5E0,-2.5083283E-2,-1.6921006E0,2.961807E1,3.2785763E1,3.7036635E-2,-1.4015426E-2,1.6364156E0,-1.12219095E1,2.148962E-1,2.4856068E-2,1.1949954E-1,1.3009158E-2],"split_indices":[2,0,12,32,32,0,0,12,19,0,0,0,0],"split_type":[0,0,0,0,0,0,0,0,0,0,0,0,0],"sum_hessian":[8.742362E1,7.393781E1,1.3485813E1,2.1994023E0,1.1286411E1,1.0016273E0,1.1977751E0,7.444489E0,3.8419218E0,5.9598904E0,1.4845988E0,1.588797E0,2.253125E0],"tree_param":{"num_deleted":"0","num_feature":"40","num_nodes":"13","size_leaf_vector":"1"}},{"base_weights":[8.889071E-3,-1.5507389E-2,7.395E-1,1.3152325E-1,-7.9060525E-2,7.615181E-1,4.082324E-3,-4.4539735E-1,1.7651019E-1,2.0292725E-2,-1.6367745E-1,3.9259236E-2,9.753177E-3,-3.0725688E-2,8.984107E-3,2.6872892E-2,7.0291697E-3,1.7271822E-2,-1.1073924E-3,-9.055922E-3,2.1291418E-2],"categories":[],"categories_nodes":[],"categories_segments":[],"categories_sizes":[],"default_left":[0,1,1,0,1,1,0,0,1,0,0,0,0,0,0,0,0,0,0,0,0],"id":20,"left_children":[1,3,5,7,9,11,-1,13,15,17,19,-1,-1,-1,-1,-1,-1,-1,-1,-1,-1],"loss_changes":[2.2324001E1,1.133875E1,5.240154E-1,9.584265E0,7.1247077E0,3.702011E-1,0E0,2.941082E0,4.3396063E0,5.396328E0,4.7817316E0,0E0,0E0,0E0,0E0,0E0,0E0,0E0,0E0,0E0,0E0],"parents":[2147483647,0,0,1,1,2,2,3,3,4,4,5,5,7,7,8,8,9,9,10,10],"right_children":[2,4,6,8,10,12,-1,14,16,18,20,-1,-1,-1,-1,-1,-1,-1,-1,-1,-1],"split_conditions":[9.325668E1,-7.62E0,3.396578E1,-3.3766234E-1,-2.777778E-1,1.524E1,4.082324E-3,1.714502E1,2.0514715E1,-5.9090906E-1,8.5E0,3.9259236E-2,9.753177E-3,-3.0725688E-2,8.984107E-3,2.6872892E-2,7.0291697E-3,1.7271822E-2,-1.1073924E-3,-9.055922E-3,2.1291418E-2],"split_indices":[32,24,26,11,10,23,0,21,26,8,4,0,0,0,0,0,0,0,0,0,0],"split_type":[0,0,0,0,0,0,0,0,0,0,0,0,0,0,0,0,0,0,0,0,0],"sum_hessian":[1.2508027E3,1.2113329E3,3.9469887E1,3.6525146E2,8.460814E2,3.803915E1,1.4307356E0,2.5777353E1,3.3947412E2,3.895041E2,4.5657733E2,3.614295E1,1.8962018E0,2.0301617E1,5.4757366E0,2.9466959E1,3.1000714E2,4.41471E1,3.45357E2,4.4413016E2,1.2447161E1],"tree_param":{"num_deleted":"0","num_feature":"40","num_nodes":"21","size_leaf_vector":"1"}},{"base_weights":[7.840927E-3,-5.641846E-1,3.642479E-2,1.5033575E-2,-6.0123205E-1,5.33102E-1,2.6109798E-2,-3.4073886E-4,-6.207885E-1,8.1931406E-1,-6.982474E-2,-5.61076E-2,9.5730096E-2,-3.2035876E-2,-1.2742748E-2,5.0321825E-2,-7.4301152E-3,-2.1583213E-2,4.6464186E-2,-4.4261865E-4,-1.799572E-2,4.483127E-4,1.2248769E-2],"categories":[],"categories_nodes":[],"categories_segments":[],"categories_sizes":[],"default_left":[1,0,0,0,0,0,1,0,1,0,0,1,0,0,0,0,0,0,0,0,0,0,0],"id":21,"left_children":[1,3,5,-1,7,9,11,-1,13,15,17,19,21,-1,-1,-1,-1,-1,-1,-1,-1,-1,-1],"loss_changes":[1.678389E1,1.7460594E0,4.9934335E0,0E0,5.4422E-1,3.4798317E0,5.49211E0,0E0,1.6973877E-1,2.5997133E0,3.04236E0,6.3157043E0,6.723655E0,0E0,0E0,0E0,0E0,0E0,0E0,0E0,0E0,0E0,0E0],"parents":[2147483647,0,0,1,1,2,2,4,4,5,5,6,6,8,8,9,9,10,10,11,11,12,12],"right_children":[2,4,6,-1,8,10,12,-1,14,16,18,20,22,-1,-1,-1,-1,-1,-1,-1,-1,-1,-1],"split_conditions":[2E0,-9.178514E1,-3E0,1.5033575E-2,2.2811773E1,3.1394936E1,-8E-1,-3.4073886E-4,3.380972E1,7.222222E-1,6E0,1.754386E-2,2.7979563E1,-3.2035876E-2,-1.2742748E-2,5.0321825E-2,-7.4301152E-3,-2.1583213E-2,4.6464186E-2,-4.4261865E-4,-1.799572E-2,4.483127E-4,1.2248769E-2],"split_indices":[2,21,9,0,32,26,9,0,26,7,33,11,19,0,0,0,0,0,0,0,0,0,0],"split_type":[0,0,0,0,0,0,0,0,0,0,0,0,0,0,0,0,0,0,0,0,0,0,0],"sum_hessian":[1.0242368E3,4.7853138E1,9.763836E2,1.6733627E0,4.6179775E1,1.883383E1,9.575498E2,1.5138831E0,4.4665894E1,1.2527888E1,6.3059416E0,4.391427E2,5.184071E2,4.1646862E1,3.0190294E0,1.0464954E1,2.062934E0,5.046309E0,1.2596326E0,3.8092184E2,5.8220844E1,3.284959E2,1.899112E2],"tree_param":{"num_deleted":"0","num_feature":"40","num_nodes":"23","size_leaf_vector":"1"}},{"base_weights":[3.148317E-2,-2.7355293E-2,5.8955986E-2,1.6695967E-1,-1.935717E-2,1.4486703E0,1.4368175E-1,5.569141E-1,-4.5210104E-2,6.347914E-3,9.7432815E-2,4.689822E-3,2.6221916E-2,-1.0510357E-2,5.5038836E-2,9.1869227E-4,-1.0678698E-2],"categories":[0,1,2,3,4,5,6,7,8,9,11,12,3,4,5],"categories_nodes":[4,8],"categories_segments":[0,12],"categories_sizes":[12,3],"default_left":[1,0,0,0,1,0,1,0,1,0,0,0,0,0,0,0,0],"id":22,"left_children":[1,-1,3,5,7,9,11,13,15,-1,-1,-1,-1,-1,-1,-1,-1],"loss_changes":[9.633126E0,0E0,4.887992E0,7.037424E0,5.0261464E0,2.542509E0,4.5023484E0,6.2757597E0,3.4530027E0,0E0,0E0,0E0,0E0,0E0,0E0,0E0,0E0],"parents":[2147483647,0,0,2,2,3,3,4,4,5,5,6,6,7,7,8,8],"right_children":[2,-1,4,6,8,10,12,14,16,-1,-1,-1,-1,-1,-1,-1,-1],"split_conditions":[3E0,-2.7355293E-2,-1.1471595E0,2.5212868E1,1E-45,0E0,1.02E2,1.0347518E0,1E-45,6.347914E-3,9.7432815E-2,4.689822E-3,2.6221916E-2,-1.0510357E-2,5.5038836E-2,9.1869227E-4,-1.0678698E-2],"split_indices":[2,0,25,32,0,23,16,13,0,0,0,0,0,0,0,0,0],"split_type":[0,0,0,0,1,0,0,0,1,0,0,0,0,0,0,0,0],"sum_hessian":[6.030005E2,2.6476648E1,5.765238E2,2.4185013E2,3.346737E2,3.2217743E0,2.3862836E2,1.3487641E1,3.2118607E2,1.228407E0,1.9933672E0,2.1208775E2,2.6540604E1,5.8498654E0,7.637776E0,2.3378584E2,8.740021E1],"tree_param":{"num_deleted":"0","num_feature":"40","num_nodes":"17","size_leaf_vector":"1"}},{"base_weights":[3.6198173E-2,-2.5067994E-2,2.5063305E0,3.057067E0,1.0737344E0,3.3427708E0,1.0706966E-2,-1.1626519E-1,2.1669252E0,1.0690243E-2,1.84806E-1,1.2155696E-2,-1.650737E-2,1.1430593E-2,1.5025726E-1],"categories":[],"categories_nodes":[],"categories_segments":[],"categories_sizes":[],"default_left":[1,0,0,1,1,0,0,0,0,0,0,0,0,0,0],"id":23,"left_children":[1,-1,3,5,7,9,-1,11,13,-1,-1,-1,-1,-1,-1],"loss_changes":[1.192082E2,0E0,9.375214E0,8.256783E0,8.052438E0,1.0232285E1,0E0,3.7389308E-1,4.4734135E0,0E0,0E0,0E0,0E0,0E0,0E0],"parents":[2147483647,0,0,2,2,3,3,4,4,5,5,7,7,8,8],"right_children":[2,-1,4,6,8,10,-1,12,14,-1,-1,-1,-1,-1,-1],"split_conditions":[5E0,-2.5067994E-2,3.236961E1,1.7318702E0,-1.4732543E0,-2.4986353E0,1.0706966E-2,-7.582412E1,1.3915015E-2,1.0690243E-2,1.84806E-1,1.2155696E-2,-1.650737E-2,1.1430593E-2,1.5025726E-1],"split_indices":[2,0,32,12,18,12,0,19,14,0,0,0,0,0,0],"split_type":[0,0,0,0,0,0,0,0,0,0,0,0,0,0,0],"sum_hessian":[8.782974E1,7.2786705E1,1.5043042E1,1.0046793E1,4.996249E0,8.969564E0,1.0772289E0,2.8200798E0,2.1761694E0,1.0730053E0,7.896559E0,1.0011722E0,1.8189076E0,1.041205E0,1.1349643E0],"tree_param":{"num_deleted":"0","num_feature":"40","num_nodes":"15","size_leaf_vector":"1"}},{"base_weights":[8.206651E-3,7.298862E-1,-3.2239273E-2,2.163659E-1,7.541388E-1,-1.0842568E-1,3.2162275E-2,-1.3504957E-2,2.77265E-2,3.838144E-2,1.0750644E-2,-3.8147006E-2,-2.3812407E-1,-1.3065027E-2,1.8563391E-1,-9.126595E-3,2.7846731E-3,-1.3859651E-2,2.3202073E-2,-1.5304798E-2,1.2355782E-3,1.2674627E-2,-1.437842E-2],"categories":[0,2,3,8,10,11,12],"categories_nodes":[14],"categories_segments":[0],"categories_sizes":[7],"default_left":[1,0,0,0,1,0,0,0,0,0,0,0,0,0,1,0,0,0,0,0,0,0,0],"id":24,"left_children":[1,3,5,7,9,11,13,-1,-1,-1,-1,15,17,19,21,-1,-1,-1,-1,-1,-1,-1,-1],"loss_changes":[3.6619743E1,6.660309E-1,5.833358E0,8.7441766E-1,2.944069E-1,4.954256E0,4.4771175E0,0E0,0E0,0E0,0E0,4.811302E0,5.373045E0,5.529829E0,4.7868576E0,0E0,0E0,0E0,0E0,0E0,0E0,0E0,0E0],"parents":[2147483647,0,0,1,1,2,2,3,3,4,4,5,5,6,6,11,11,12,12,13,13,14,14],"right_children":[2,4,6,8,10,12,14,-1,-1,-1,-1,16,18,20,22,-1,-1,-1,-1,-1,-1,-1,-1],"split_conditions":[2E0,-9.178514E1,2.612403E-1,1E0,5.026694E0,9E0,3.2473648E1,-1.3504957E-2,2.77265E-2,3.838144E-2,1.0750644E-2,0E0,2.4E1,2.440794E1,1E-45,-9.126595E-3,2.7846731E-3,-1.3859651E-2,2.3202073E-2,-1.5304798E-2,1.2355782E-3,1.2674627E-2,-1.437842E-2],"split_indices":[2,21,10,36,25,27,32,0,0,0,0,11,27,26,0,0,0,0,0,0,0,0,0],"split_type":[0,0,0,0,0,0,0,0,0,0,0,0,0,0,1,0,0,0,0,0,0,0,0],"sum_hessian":[1.2527676E3,6.557963E1,1.1871879E3,3.40497E0,6.2174656E1,5.435225E2,6.436654E2,1.4788508E0,1.9261191E0,6.024341E1,1.9312451E0,3.5334973E2,1.9017279E2,4.9786267E2,1.458027E2,1.3881735E2,2.145324E2,1.807225E2,9.450283E0,5.6042366E1,4.418203E2,1.2792254E2,1.7880169E1],"tree_param":{"num_deleted":"0","num_feature":"40","num_nodes":"23","size_leaf_vector":"1"}},{"base_weights":[3.2736182E-3,2.6897606E-2,-4.4251102E-1,-3.9406426E-2,1.1357152E-1,2.4712624E-2,-4.7484276E-1,-2.2864096E-1,1.3076947E-2,-4.6428615E-1,1.283642E-1,-4.3610305E-2,-5.512991E-1,-1.82906E-2,5.6761173E-3,-2.881005E-4,2.5710568E-2,-3.1859055E-2,2.4177698E-2,-2.5839707E-2,7.09597E-3,-2.6229758E-2,1.3913355E-2,-2.9371763E-2,-1.00216875E-2],"categories":[],"categories_nodes":[],"categories_segments":[],"categories_sizes":[],"default_left":[0,1,0,0,0,0,0,0,1,0,0,0,1,0,0,0,0,0,0,0,0,0,0,0,0],"id":25,"left_children":[1,3,5,7,9,-1,11,13,15,17,19,21,23,-1,-1,-1,-1,-1,-1,-1,-1,-1,-1,-1,-1],"loss_changes":[1.1038596E1,5.7242756E0,1.8324099E0,5.6109595E0,3.7492957E0,0E0,1.6740112E0,5.7983637E0,4.185256E0,2.1091912E0,3.7607846E0,1.5148771E0,4.3582535E-1,0E0,0E0,0E0,0E0,0E0,0E0,0E0,0E0,0E0,0E0,0E0,0E0],"parents":[2147483647,0,0,1,1,2,2,3,3,4,4,6,6,7,7,8,8,9,9,10,10,11,11,12,12],"right_children":[2,4,6,8,10,-1,12,14,16,18,20,22,24,-1,-1,-1,-1,-1,-1,-1,-1,-1,-1,-1,-1],"split_conditions":[1.4056126E1,-9.615385E-2,-2.9102167E-1,-1.7E1,-5.0342484E0,2.4712624E-2,2.5861738E1,2.2638155E1,3.4545454E-1,3.693235E1,-7.2727275E-1,4.775908E1,3.2810406E1,-1.82906E-2,5.6761173E-3,-2.881005E-4,2.5710568E-2,-3.1859055E-2,2.4177698E-2,-2.5839707E-2,7.09597E-3,-2.6229758E-2,1.3913355E-2,-2.9371763E-2,-1.00216875E-2],"split_indices":[25,8,10,16,13,0,32,19,5,18,10,25,26,0,0,0,0,0,0,0,0,0,0,0,0],"split_type":[0,0,0,0,0,0,0,0,0,0,0,0,0,0,0,0,0,0,0,0,0,0,0,0,0],"sum_hessian":[1.046049E3,9.9429663E2,5.1752266E1,5.6365546E2,4.3064124E2,1.2499499E0,5.0502316E1,1.2165578E2,4.4199966E2,9.990454E0,4.2065076E2,7.8419843E0,4.266033E1,8.679223E1,3.4863552E1,4.2693842E2,1.5061233E1,8.726427E0,1.2640275E0,7.8923016E0,4.1275845E2,2.8914545E0,4.95053E0,3.8065647E1,4.594686E0],"tree_param":{"num_deleted":"0","num_feature":"40","num_nodes":"25","size_leaf_vector":"1"}},{"base_weights":[6.7387614E-3,3.0777525E-2,-4.5152873E-1,2.0683749E-1,-1.3237435E-2,1.5837577E-1,-5.1161015E-1,1.677548E-1,1.2025113E0,5.465364E-1,-3.0160468E-2,-1.6582707E-2,3.112937E-2,8.997773E-3,-2.7310932E-2,5.352452E-3,4.0005222E-2,-1.620581E-2,9.7126275E-2,2.7021181E-3,5.8459014E-2,-2.2456564E-2,-5.9516996E-4],"categories":[3,4,5,6,7,8,9,13,0,1,2,3,4,5,6,8,9,10,11,12,13],"categories_nodes":[1,2],"categories_segments":[0,8],"categories_sizes":[8,13],"default_left":[0,0,0,0,0,0,0,0,1,0,0,0,0,0,0,0,0,0,0,0,0,0,0],"id":26,"left_children":[1,3,5,7,9,11,13,15,17,19,21,-1,-1,-1,-1,-1,-1,-1,-1,-1,-1,-1,-1],"loss_changes":[6.7594233E0,4.518593E0,1.2017102E0,4.33596E0,4.441701E0,1.0040587E0,7.702875E-1,4.2662E0,5.422133E0,4.156391E0,3.4702587E0,0E0,0E0,0E0,0E0,0E0,0E0,0E0,0E0,0E0,0E0,0E0,0E0],"parents":[2147483647,0,0,1,1,2,2,3,3,4,4,5,5,6,6,7,7,8,8,9,9,10,10],"right_children":[2,4,6,8,10,12,14,16,18,20,22,-1,-1,-1,-1,-1,-1,-1,-1,-1,-1,-1,-1],"split_conditions":[4.775908E1,1E-45,1E-45,8.36706E1,-4E0,3.53347E1,-9.8245615E-1,3E0,0E0,4.4444446E-2,-7.5E0,-1.6582707E-2,3.112937E-2,8.997773E-3,-2.7310932E-2,5.352452E-3,4.0005222E-2,-1.620581E-2,9.7126275E-2,2.7021181E-3,5.8459014E-2,-2.2456564E-2,-5.9516996E-4],"split_indices":[25,0,0,20,15,26,9,15,17,7,4,0,0,0,0,0,0,0,0,0,0,0,0],"split_type":[0,1,1,0,0,0,0,0,0,0,0,0,0,0,0,0,0,0,0,0,0,0,0],"sum_hessian":[6.113288E2,5.817457E2,2.9583065E1,1.1560922E2,4.6613647E2,2.5061696E0,2.7076895E1,1.1236702E2,3.2422037E0,1.2760308E1,4.533762E2,1.3580948E0,1.1480747E0,1.0902935E0,2.5986603E1,1.0359149E2,8.775527E0,1.2420026E0,2.0002012E0,7.731612E0,5.028696E0,1.7945896E1,4.3543027E2],"tree_param":{"num_deleted":"0","num_feature":"40","num_nodes":"23","size_leaf_vector":"1"}},{"base_weights":[3.3067815E-2,-2.5042817E-2,2.1877663E0,3.0034807E-1,2.4217255E0,3.6971867E-2,-1.3417591E-2,2.6672866E0,1.8705843E-2,1.6397077E-1,6.8491586E-2],"categories":[],"categories_nodes":[],"categories_segments":[],"categories_sizes":[],"default_left":[1,0,0,0,0,0,0,1,0,0,0],"id":27,"left_children":[1,-1,3,5,7,-1,-1,9,-1,-1,-1],"loss_changes":[1.0165015E2,0E0,7.019554E0,9.6664023E-1,6.7792664E0,0E0,0E0,6.3470078E0,0E0,0E0,0E0],"parents":[2147483647,0,0,2,2,3,3,4,4,7,7],"right_children":[2,-1,4,6,8,-1,-1,10,-1,-1,-1],"split_conditions":[5E0,-2.5042817E-2,-2.857143E-1,-3.615465E-1,8.996118E1,3.6971867E-2,-1.3417591E-2,4.1666666E-1,1.8705843E-2,1.6397077E-1,6.8491586E-2],"split_indices":[2,0,11,11,20,0,0,9,0,0,0],"split_type":[0,0,0,0,0,0,0,0,0,0,0],"sum_hessian":[8.6404724E1,6.986104E1,1.6543686E1,2.076412E0,1.4467275E1,1.0023106E0,1.0741013E0,1.2647837E1,1.8194381E0,7.5555935E0,5.092243E0],"tree_param":{"num_deleted":"0","num_feature":"40","num_nodes":"11","size_leaf_vector":"1"}},{"base_weights":[-9.662298E-3,6.980283E-1,-4.8899245E-2,2.0907488E-1,7.2136736E-1,-1.6969498E-1,2.3237262E-3,2.7226428E-2,-1.3456966E-2,3.7443753E-2,1.8596917E-1,6.2302914E-2,-2.5087693E-1,-1.6889086E-1,4.307387E-2,-6.85342E-3,2.4774658E-2,-4.275005E-3,1.9537024E-2,-1.479601E-2,7.967463E-3,-2.3163337E-2,-2.703367E-3,4.4476367E-3,-4.5670527E-3],"categories":[0,2,3,6,7,9,10,12,0,6,8,10],"categories_nodes":[5,14],"categories_segments":[0,8],"categories_sizes":[8,4],"default_left":[1,0,0,0,1,1,0,0,0,0,0,0,0,0,1,0,0,0,0,0,0,0,0,0,0],"id":28,"left_children":[1,3,5,7,9,11,13,-1,-1,-1,15,17,19,21,23,-1,-1,-1,-1,-1,-1,-1,-1,-1,-1],"loss_changes":[3.4584328E1,5.958233E-1,7.3006372E0,8.5061324E-1,7.744179E-1,6.6327705E0,5.794676E0,0E0,0E0,0E0,5.0406855E-1,4.4933777E0,4.8600025E0,5.372113E0,4.144949E0,0E0,0E0,0E0,0E0,0E0,0E0,0E0,0E0,0E0,0E0],"parents":[2147483647,0,0,1,1,2,2,3,3,4,4,5,5,6,6,10,10,11,11,12,12,13,13,14,14],"right_children":[2,4,6,8,10,12,14,-1,-1,-1,16,18,20,22,24,-1,-1,-1,-1,-1,-1,-1,-1,-1,-1],"split_conditions":[2E0,-9.178514E1,0E0,-2.54E0,2.7104723E0,1E-45,2.5875427E1,2.7226428E-2,-1.3456966E-2,3.7443753E-2,5.1060915E0,2.4285714E-1,5.5E0,0E0,1E-45,-6.85342E-3,2.4774658E-2,-4.275005E-3,1.9537024E-2,-1.479601E-2,7.967463E-3,-2.3163337E-2,-2.703367E-3,4.4476367E-3,-4.5670527E-3],"split_indices":[2,21,11,23,25,0,26,0,0,0,25,10,4,24,0,0,0,0,0,0,0,0,0,0,0],"split_type":[0,0,0,0,0,1,0,0,0,0,0,0,0,0,1,0,0,0,0,0,0,0,0,0,0],"sum_hessian":[1.2432621E3,6.4427956E1,1.1788341E3,3.3888848E0,6.1039074E1,3.5033932E2,8.284948E2,1.9102371E0,1.4786478E0,5.767702E1,3.3620503E0,9.087466E1,2.5946466E2,1.5867328E2,6.6982153E2,1.9177434E0,1.4443069E0,6.318149E1,2.7693167E1,2.3404492E2,2.5419739E1,4.3673042E1,1.1500024E2,4.9962604E2,1.7019548E2],"tree_param":{"num_deleted":"0","num_feature":"40","num_nodes":"25","size_leaf_vector":"1"}},{"base_weights":[-9.2677055E-3,-5.4995114E-1,1.7330436E-2,2.4477601E-2,-5.876078E-1,3.1975403E-2,-3.219591E-1,-3.1312868E-2,-2.4106842E-2,-1.0841866E-2,1.4502057E-1,-4.300511E-1,3.2581586E-1,-1.785362E-2,1.1250614E-2,-1.998268E-3,1.210192E-2,1.2350476E-3,1.5802158E-2,2.4875429E-2,-2.5104403E-2,4.0327247E-2,-2.3670336E-2],"categories":[],"categories_nodes":[],"categories_segments":[],"categories_sizes":[],"default_left":[1,0,0,0,1,1,1,0,0,0,1,0,0,0,0,0,0,0,0,0,0,0,0],"id":29,"left_children":[1,3,5,-1,7,9,11,-1,13,15,17,19,21,-1,-1,-1,-1,-1,-1,-1,-1,-1,-1],"loss_changes":[1.4968721E1,2.1979856E0,4.941368E0,0E0,1.0205078E0,4.610673E0,3.0216274E0,0E0,4.1977784E-1,5.102968E0,5.376478E0,2.6351557E0,2.8615148E0,0E0,0E0,0E0,0E0,0E0,0E0,0E0,0E0,0E0,0E0],"parents":[2147483647,0,0,1,1,2,2,4,4,5,5,6,6,8,8,9,9,10,10,11,11,12,12],"right_children":[2,4,6,-1,8,10,12,-1,14,16,18,20,22,-1,-1,-1,-1,-1,-1,-1,-1,-1,-1],"split_conditions":[2E0,-9.178514E1,3.8453114E1,2.4477601E-2,2.7104723E0,5.08E0,3.6678986E1,-3.1312868E-2,-4.1915634E1,6.796352E1,-1.4080361E1,-1.0226941E2,1.7575757E-1,-1.785362E-2,1.1250614E-2,-1.998268E-3,1.210192E-2,1.2350476E-3,1.5802158E-2,2.4875429E-2,-2.5104403E-2,4.0327247E-2,-2.3670336E-2],"split_indices":[2,21,32,0,25,23,26,0,21,20,18,20,11,0,0,0,0,0,0,0,0,0,0],"split_type":[0,0,0,0,0,0,0,0,0,0,0,0,0,0,0,0,0,0,0,0,0,0,0],"sum_hessian":[1.0391925E3,4.780208E1,9.9139044E2,1.2515998E0,4.655048E1,9.512373E2,4.015309E1,4.3458374E1,3.0921037E0,6.9057684E2,2.606605E2,3.4699085E1,5.4540067E0,1.137891E0,1.9542128E0,6.200136E2,7.0563225E1,1.5368373E2,1.06976776E2,2.074983E0,3.2624104E1,3.3998494E0,2.054157E0],"tree_param":{"num_deleted":"0","num_feature":"40","num_nodes":"23","size_leaf_vector":"1"}},{"base_weights":[-1.56279E-2,-2.7126644E-2,9.603996E-3,9.0705425E-1,-2.3918697E-3,8.8878386E-2,2.408957E-1,7.444356E-2,-9.6883185E-2,3.0807285E-2,-1.852878E-2,4.9536433E-3,-2.3617435E-2,-1.541131E-3,-1.69485E-2],"categories":[3,4,5,6,8,11],"categories_nodes":[4],"categories_segments":[0],"categories_sizes":[6],"default_left":[1,0,0,0,1,0,1,0,1,0,0,0,0,0,0],"id":30,"left_children":[1,-1,3,5,7,-1,9,11,13,-1,-1,-1,-1,-1,-1],"loss_changes":[8.161049E0,0E0,6.3152637E0,4.058787E0,4.215787E0,0E0,1.4995117E0,4.359906E0,4.1539927E0,0E0,0E0,0E0,0E0,0E0,0E0],"parents":[2147483647,0,0,2,2,3,3,4,4,6,6,7,7,8,8],"right_children":[2,-1,4,6,8,-1,10,12,14,-1,-1,-1,-1,-1,-1],"split_conditions":[3E0,-2.7126644E-2,-1.2533881E1,-1.3589615E-1,1E-45,8.8878386E-2,-1.21212125E-1,1.27E1,2.6984128E-1,3.0807285E-2,-1.852878E-2,4.9536433E-3,-2.3617435E-2,-1.541131E-3,-1.69485E-2],"split_indices":[2,0,25,12,0,0,9,23,8,0,0,0,0,0,0],"split_type":[0,0,0,0,1,0,0,0,0,0,0,0,0,0,0],"sum_hessian":[6.1246027E2,2.7051687E1,5.8540857E2,6.737534E0,5.78671E2,2.197513E0,4.540021E0,3.1926968E2,2.5940134E2,2.8087144E0,1.7313066E0,3.062921E2,1.2977587E1,2.0467659E2,5.472476E1],"tree_param":{"num_deleted":"0","num_feature":"40","num_nodes":"15","size_leaf_vector":"1"}},{"base_weights":[7.989918E-3,-2.5027866E-2,1.889577E0,6.3430446E-1,2.3598292E0,-1.648121E-1,1.4969797E0,3.1970317E0,1.13217E0,-1.8088508E-2,1.1987051E-2,1.09141864E-1,8.701995E-3,3.2107227E-2,1.7868167E-1,-5.036838E-3,9.480684E-2],"categories":[],"categories_nodes":[],"categories_segments":[],"categories_sizes":[],"default_left":[1,0,0,0,1,0,0,1,0,0,0,0,0,0,0,0,0],"id":31,"left_children":[1,-1,3,5,7,9,11,13,15,-1,-1,-1,-1,-1,-1,-1,-1],"loss_changes":[8.485908E1,0E0,9.640961E0,4.7343683E0,1.0110306E1,4.2777455E-1,2.5504184E0,4.8195114E0,6.7509165E0,0E0,0E0,0E0,0E0,0E0,0E0,0E0,0E0],"parents":[2147483647,0,0,2,2,3,3,4,4,5,5,6,6,7,7,8,8],"right_children":[2,-1,4,6,8,10,12,14,16,-1,-1,-1,-1,-1,-1,-1,-1],"split_conditions":[5E0,-2.5027866E-2,-7.605659E-2,2.3261648E1,4.1666666E-1,1.8655003E1,4.826507E-2,-1.19E2,7.8637915E0,-1.8088508E-2,1.1987051E-2,1.09141864E-1,8.701995E-3,3.2107227E-2,1.7868167E-1,-5.036838E-3,9.480684E-2],"split_indices":[2,0,14,18,9,20,12,16,19,0,0,0,0,0,0,0,0],"split_type":[0,0,0,0,0,0,0,0,0,0,0,0,0,0,0,0,0],"sum_hessian":[8.669501E1,6.8826775E1,1.7868233E1,5.5097046E0,1.2358527E1,3.2801635E0,2.2295413E0,6.3939815E0,5.9645457E0,2.277237E0,1.0029267E0,1.0402501E0,1.1892911E0,1.1689383E0,5.2250433E0,2.614059E0,3.350487E0],"tree_param":{"num_deleted":"0","num_feature":"40","num_nodes":"17","size_leaf_vector":"1"}},{"base_weights":[-1.1686542E-3,6.838988E-1,-3.7302762E-2,2.0882532E-1,7.071772E-1,3.491393E-2,-1.2296328E-1,2.697878E-2,-1.3102138E-2,3.334745E-3,7.215357E-1,1.01597644E-1,-1.0465068E-1,6.318087E-2,-1.6453178E-1,3.6726724E-2,1.4698247E-2,6.88838E-3,-1.3373074E-2,2.868901E-2,-7.044899E-3,2.7308905E-2,-2.3203015E-3,3.3400126E-3,-1.0456437E-2],"categories":[0,3,6,8,10,12,13,0,1,2,4,6,7,9,12],"categories_nodes":[5,6],"categories_segments":[0,7],"categories_sizes":[7,8],"default_left":[1,0,1,0,0,1,1,0,0,0,1,0,0,0,0,0,0,0,0,0,0,0,0,0,0],"id":32,"left_children":[1,3,5,7,9,11,13,-1,-1,-1,15,17,19,21,23,-1,-1,-1,-1,-1,-1,-1,-1,-1,-1],"loss_changes":[3.1365414E1,5.5438614E-1,7.4496284E0,8.242182E-1,5.045719E-1,6.095345E0,4.2719927E0,0E0,0E0,0E0,1.10206604E-1,5.949353E0,5.2911882E0,5.3851514E0,4.6615753E0,0E0,0E0,0E0,0E0,0E0,0E0,0E0,0E0,0E0,0E0],"parents":[2147483647,0,0,1,1,2,2,3,3,4,4,5,5,6,6,10,10,11,11,12,12,13,13,14,14],"right_children":[2,4,6,8,10,12,14,-1,-1,-1,16,18,20,22,24,-1,-1,-1,-1,-1,-1,-1,-1,-1,-1],"split_conditions":[2E0,-9.178514E1,-3.5E1,-2.54E0,2.2811773E1,1E-45,1E-45,2.697878E-2,-1.3102138E-2,3.334745E-3,5.026694E0,5E0,-2.350902E0,2E0,-5.503565E1,3.6726724E-2,1.4698247E-2,6.88838E-3,-1.3373074E-2,2.868901E-2,-7.044899E-3,2.7308905E-2,-2.3203015E-3,3.3400126E-3,-1.0456437E-2],"split_indices":[2,21,16,23,32,0,0,0,0,0,25,2,13,33,20,0,0,0,0,0,0,0,0,0,0],"split_type":[0,0,0,0,0,1,1,0,0,0,0,0,0,0,0,0,0,0,0,0,0,0,0,0,0],"sum_hessian":[1.2650388E3,6.248362E1,1.2025552E3,3.3844073E0,5.9099213E1,6.5280005E2,5.497552E2,1.9022791E0,1.482128E0,1.4196241E0,5.767959E1,4.419224E2,2.1087766E2,1.00261826E2,4.4949332E2,5.5281044E1,2.398543E0,4.0304803E2,3.8874363E1,9.943234E0,2.0093443E2,1.7804716E1,8.2457115E1,7.256877E1,3.7692456E2],"tree_param":{"num_deleted":"0","num_feature":"40","num_nodes":"25","size_leaf_vector":"1"}},{"base_weights":[1.0068994E-2,-5.3224367E-1,3.3459976E-2,-1.9463992E-1,-5.923143E-1,2.5358096E-1,1.1360246E-2,2.6351511E-2,-4.0015E-1,-3.0850325E-2,-1.938448E-1,7.490095E-2,6.1708343E-1,-5.7529714E-2,8.626319E-2,-2.6137402E-2,6.0586906E-3,6.297603E-3,-1.9463517E-2,-2.5960276E-2,8.387333E-3,1.1139064E-2,4.096235E-2,-1.3599453E-2,-4.4107574E-4,2.6815864E-3,2.3257514E-2],"categories":[],"categories_nodes":[],"categories_segments":[],"categories_sizes":[],"default_left":[1,0,0,0,1,0,1,0,0,0,0,0,0,0,0,0,0,0,0,0,0,0,0,0,0,0,0],"id":33,"left_children":[1,3,5,7,9,11,13,-1,15,-1,17,19,21,23,25,-1,-1,-1,-1,-1,-1,-1,-1,-1,-1,-1,-1],"loss_changes":[1.316077E1,7.547188E-1,4.833444E0,1.3928733E0,2.3391724E-1,5.842236E0,4.6723623E0,0E0,4.961381E-1,0E0,2.7118313E-1,3.5026631E0,2.18814E0,4.92572E0,5.3377805E0,0E0,0E0,0E0,0E0,0E0,0E0,0E0,0E0,0E0,0E0,0E0,0E0],"parents":[2147483647,0,0,1,1,2,2,3,3,4,4,5,5,6,6,8,8,10,10,11,11,12,12,13,13,14,14],"right_children":[2,4,6,8,10,12,14,-1,16,-1,18,20,22,24,26,-1,-1,-1,-1,-1,-1,-1,-1,-1,-1,-1,-1],"split_conditions":[2E0,2.5500341E1,2.4605064E1,2.4974674E1,3.380972E1,4E0,-3.5E1,2.6351511E-2,3E0,-3.0850325E-2,3.4028748E1,-3.6572346E1,0E0,-1.904762E-1,1.016E1,-2.6137402E-2,6.0586906E-3,6.297603E-3,-1.9463517E-2,-2.5960276E-2,8.387333E-3,1.1139064E-2,4.096235E-2,-1.3599453E-2,-4.4107574E-4,2.6815864E-3,2.3257514E-2],"split_indices":[2,26,26,32,26,33,16,0,33,0,26,18,15,8,23,0,0,0,0,0,0,0,0,0,0,0,0],"split_type":[0,0,0,0,0,0,0,0,0,0,0,0,0,0,0,0,0,0,0,0,0,0,0,0,0,0,0],"sum_hessian":[1.0350842E3,4.1899647E1,9.9318463E2,6.9696455E0,3.4930004E1,8.966049E1,9.035242E2,1.1980543E0,5.771591E0,3.237534E1,2.554661E0,6.0920845E1,2.873965E1,4.707742E2,4.3274994E2,4.6705103E0,1.1010811E0,1.1038332E0,1.450828E0,7.6131625E0,5.3307682E1,1.0453333E1,1.8286318E1,8.6284515E1,3.844897E2,3.9948596E2,3.3263977E1],"tree_param":{"num_deleted":"0","num_feature":"40","num_nodes":"27","size_leaf_vector":"1"}},{"base_weights":[-5.4738712E-3,-2.694402E-2,1.8463237E-2,7.20743E-1,6.023615E-3,1.2076372E0,-2.2563232E-1,2.358241E-1,-2.621005E-2,-1.4984043E-2,7.593753E-2,-2.0726115E-2,9.9943355E-3,6.701053E-3,4.2238355E-2,3.7257873E-2,-1.9079428E-3],"categories":[0,1,2,9,0,3,4,5,6,7,8,9,11,13],"categories_nodes":[3,4],"categories_segments":[0,4],"categories_sizes":[4,10],"default_left":[1,0,0,1,1,0,1,1,0,0,0,0,0,0,0,0,0],"id":34,"left_children":[1,-1,3,5,7,9,11,13,15,-1,-1,-1,-1,-1,-1,-1,-1],"loss_changes":[7.9448204E0,0E0,5.200026E0,5.046313E0,4.3496156E0,3.7369204E0,4.334615E-1,4.3645735E0,4.776438E0,0E0,0E0,0E0,0E0,0E0,0E0,0E0,0E0],"parents":[2147483647,0,0,2,2,3,3,4,4,5,5,6,6,7,7,8,8],"right_children":[2,-1,4,6,8,10,12,14,16,-1,-1,-1,-1,-1,-1,-1,-1],"split_conditions":[3E0,-2.694402E-2,-3.4166667E0,1E-45,1E-45,2.383299E1,6.666667E-1,1.26E2,-1.2533881E1,-1.4984043E-2,7.593753E-2,-2.0726115E-2,9.9943355E-3,6.701053E-3,4.2238355E-2,3.7257873E-2,-1.9079428E-3],"split_indices":[2,0,9,0,0,32,6,16,25,0,0,0,0,0,0,0,0],"split_type":[0,0,0,1,1,0,0,0,0,0,0,0,0,0,0,0,0],"sum_hessian":[6.2045526E2,2.572374E1,5.947315E2,9.360223E0,5.853713E2,5.9981894E0,3.3620334E0,7.1231445E1,5.1413983E2,1.0325109E0,4.9656787E0,2.3463295E0,1.0157039E0,6.2074005E1,9.15744E0,6.906724E0,5.0723312E2],"tree_param":{"num_deleted":"0","num_feature":"40","num_nodes":"17","size_leaf_vector":"1"}},{"base_weights":[7.000018E-2,-2.5007764E-2,1.8527075E0,1.295584E0,2.6255426E0,-7.78711E-2,1.57524E0,2.9763763E0,1.0178883E-2,-1.531563E-2,1.177789E-2,1.0128424E-1,2.195657E-2,1.6303769E-1,3.5281185E-2],"categories":[],"categories_nodes":[],"categories_segments":[],"categories_sizes":[],"default_left":[1,0,0,0,0,0,0,1,0,0,0,0,0,0,0],"id":35,"left_children":[1,-1,3,5,7,9,11,13,-1,-1,-1,-1,-1,-1,-1],"loss_changes":[9.088049E1,0E0,5.923729E0,5.7150097E0,6.2755203E0,3.1673816E-1,5.3251133E0,2.2197266E0,0E0,0E0,0E0,0E0,0E0,0E0,0E0],"parents":[2147483647,0,0,2,2,3,3,4,4,5,5,6,6,7,7],"right_children":[2,-1,4,6,8,10,12,14,-1,-1,-1,-1,-1,-1,-1],"split_conditions":[5E0,-2.5007764E-2,8.928572E-2,-5.9090906E-1,7E0,1.0739175E0,3.226557E1,2.0681102E0,1.0178883E-2,-1.531563E-2,1.177789E-2,1.0128424E-1,2.195657E-2,1.6303769E-1,3.5281185E-2],"split_indices":[2,0,5,8,3,19,32,12,0,0,0,0,0,0,0],"split_type":[0,0,0,0,0,0,0,0,0,0,0,0,0,0,0],"sum_hessian":[8.750064E1,6.6842224E1,2.0658415E1,1.3559795E1,7.0986195E0,2.4159677E0,1.1143828E1,6.0005064E0,1.098113E0,1.410578E0,1.0053898E0,7.419241E0,3.724587E0,4.945214E0,1.0552925E0],"tree_param":{"num_deleted":"0","num_feature":"40","num_nodes":"15","size_leaf_vector":"1"}},{"base_weights":[-1.5493467E-2,-4.6122264E-2,5.483125E-1,2.7130514E-2,-1.0544254E-1,3.5959687E-2,3.124824E-1,8.667841E-2,-9.142278E-2,-1.4996518E-1,7.1909994E-2,5.0543547E-1,1.37248775E-2,6.209866E-3,-1.0045775E-2,8.076245E-3,-7.64114E-3,-5.868055E-3,-2.297772E-2,8.326481E-3,-2.1554291E-2,3.2831214E-2,-1.6267477E-2,-1.8359002E-2,1.153769E-2],"categories":[0,1,2,3,4,5,6,7,10,11,12,13,0,1,3,6,10,13],"categories_nodes":[2,3],"categories_segments":[0,12],"categories_sizes":[12,6],"default_left":[0,1,1,1,0,0,1,1,0,0,0,1,0,0,0,0,0,0,0,0,0,0,0,0,0],"id":36,"left_children":[1,3,5,7,9,-1,11,13,15,17,19,21,23,-1,-1,-1,-1,-1,-1,-1,-1,-1,-1,-1,-1],"loss_changes":[2.1300793E1,5.084639E0,2.3366203E0,3.7077053E0,5.114813E0,0E0,1.634412E0,3.7946925E0,2.7536578E0,5.1646614E0,6.277188E0,2.3830686E0,1.0933517E0,0E0,0E0,0E0,0E0,0E0,0E0,0E0,0E0,0E0,0E0,0E0,0E0],"parents":[2147483647,0,0,1,1,2,2,3,3,4,4,6,6,7,7,8,8,9,9,10,10,11,11,12,12],"right_children":[2,4,6,8,10,-1,12,14,16,18,20,22,24,-1,-1,-1,-1,-1,-1,-1,-1,-1,-1,-1,-1],"split_conditions":[4.775908E1,-1.0466943E0,1E-45,1E-45,1.7054468E0,3.5959687E-2,2.2954142E1,8.3333336E-2,1.9480519E-1,1E0,1.2E1,3.2810406E1,2.5861738E1,6.209866E-3,-1.0045775E-2,8.076245E-3,-7.64114E-3,-5.868055E-3,-2.297772E-2,8.326481E-3,-2.1554291E-2,3.2831214E-2,-1.6267477E-2,-1.8359002E-2,1.153769E-2],"split_indices":[25,13,0,0,12,0,32,11,8,1,33,26,32,0,0,0,0,0,0,0,0,0,0,0,0],"split_type":[0,0,1,1,0,0,0,0,0,0,0,0,0,0,0,0,0,0,0,0,0,0,0,0,0],"sum_hessian":[1.2310272E3,1.1684683E3,6.255892E1,5.2307806E2,6.4539026E2,3.5086098E1,2.7472824E1,3.4836658E2,1.7471147E2,5.160063E2,1.2938396E2,1.627184E1,1.1200987E1,3.086667E2,3.969988E1,3.3807026E1,1.4090443E2,4.6808902E2,4.791725E1,1.0946179E2,1.9922167E1,1.3943915E1,2.3279233E0,3.814447E0,7.3865395E0],"tree_param":{"num_deleted":"0","num_feature":"40","num_nodes":"25","size_leaf_vector":"1"}},{"base_weights":[-6.4765564E-3,-5.362898E-1,1.8470064E-2,7.2263405E-2,-5.715078E-1,1.0805134E-1,-5.883325E-2,-1.8208863E-2,2.2480046E-2,-3.0503903E-2,-1.6364767E-1,5.049675E-1,7.735214E-2,-2.6645467E-1,-3.573823E-2,-2.415719E-2,1.7276721E-2,-2.4632778E-2,2.9479835E-2,5.3496833E-4,1.3574389E-2,-3.2940283E-2,-3.609549E-3,3.765839E-2,-2.1028786E-3],"categories":[2,4,5,9,10,11,13],"categories_nodes":[2],"categories_segments":[0],"categories_sizes":[7],"default_left":[1,0,1,0,1,0,0,0,0,0,0,0,0,0,0,0,0,0,0,0,0,0,0,0,0],"id":37,"left_children":[1,3,5,7,9,11,13,-1,-1,-1,15,17,19,21,23,-1,-1,-1,-1,-1,-1,-1,-1,-1,-1],"loss_changes":[1.3834661E1,1.0500889E0,6.9306607E0,7.339921E-1,6.0187817E-1,5.608996E0,2.5672483E0,0E0,0E0,0E0,1.0162123E0,3.0847244E0,5.5796432E0,4.0407066E0,2.448318E0,0E0,0E0,0E0,0E0,0E0,0E0,0E0,0E0,0E0,0E0],"parents":[2147483647,0,0,1,1,2,2,3,3,4,4,5,5,6,6,10,10,11,11,12,12,13,13,14,14],"right_children":[2,4,6,8,10,12,14,-1,-1,-1,16,18,20,22,24,-1,-1,-1,-1,-1,-1,-1,-1,-1,-1],"split_conditions":[2E0,-9.178514E1,1E-45,-2.54E0,2.7104723E0,-4E-1,-1.48E2,-1.8208863E-2,2.2480046E-2,-3.0503903E-2,1E0,-5.818E1,4.33931E1,-5.7449207E0,-1.1440318E2,-2.415719E-2,1.7276721E-2,-2.4632778E-2,2.9479835E-2,5.3496833E-4,1.3574389E-2,-3.2940283E-2,-3.609549E-3,3.765839E-2,-2.1028786E-3],"split_indices":[2,21,0,23,25,11,16,0,0,0,38,18,19,19,21,0,0,0,0,0,0,0,0,0,0],"split_type":[0,0,1,0,0,0,0,0,0,0,0,0,0,0,0,0,0,0,0,0,0,0,0,0,0],"sum_hessian":[1.044979E3,4.606921E1,9.989098E2,2.4627082E0,4.3606503E1,4.6252493E2,5.363848E2,1.1580951E0,1.3046131E0,3.9386066E1,4.2204356E0,3.2096313E1,4.3042862E2,5.263802E1,4.837468E2,2.624672E0,1.5957639E0,2.1328285E0,2.9963486E1,3.2120435E2,1.0922427E2,1.6639736E1,3.5998283E1,2.90498E0,4.8084183E2],"tree_param":{"num_deleted":"0","num_feature":"40","num_nodes":"25","size_leaf_vector":"1"}},{"base_weights":[6.2263347E-3,-2.6767924E-2,2.927284E-2,9.5479906E-1,1.652414E-2,1.324135E0,1.2692122E-1,-1.0343262E-2,2.2686937E-1,8.097055E-3,7.8885555E-2,2.5918378E-2,-1.6496636E-2,3.3819597E-2,-9.655575E-4,2.5727097E-2,-4.233605E-3],"categories":[0,1,6,8,9,11,13],"categories_nodes":[8],"categories_segments":[0],"categories_sizes":[7],"default_left":[1,0,0,0,1,0,0,0,1,0,0,0,0,0,0,0,0],"id":38,"left_children":[1,-1,3,5,7,9,11,13,15,-1,-1,-1,-1,-1,-1,-1,-1],"loss_changes":[7.7867613E0,0E0,7.041798E0,2.311543E0,3.3424985E0,1.3658943E0,8.1621706E-1,3.2465708E0,6.0469055E0,0E0,0E0,0E0,0E0,0E0,0E0,0E0,0E0],"parents":[2147483647,0,0,2,2,3,3,4,4,5,5,6,6,7,7,8,8],"right_children":[2,-1,4,6,8,10,12,14,16,-1,-1,-1,-1,-1,-1,-1,-1],"split_conditions":[3E0,-2.6767924E-2,-1.2533881E1,2.2142857E-1,1.26E2,-6.5E0,1E0,2.1596167E1,1E-45,8.097055E-3,7.8885555E-2,2.5918378E-2,-1.6496636E-2,3.3819597E-2,-9.655575E-4,2.5727097E-2,-4.233605E-3],"split_indices":[2,0,25,11,16,4,27,32,0,0,0,0,0,0,0,0,0],"split_type":[0,0,0,0,0,0,0,0,1,0,0,0,0,0,0,0,0],"sum_hessian":[6.216018E2,2.4464527E1,5.9713727E2,7.1095095E0,5.900278E2,4.501743E0,2.6077666E0,5.2404266E2,6.598515E1,1.0997919E0,3.401951E0,1.3319044E0,1.2758622E0,5.7957654E0,5.182469E2,3.3968014E1,3.2017136E1],"tree_param":{"num_deleted":"0","num_feature":"40","num_nodes":"17","size_leaf_vector":"1"}},{"base_weights":[-7.973327E-3,-2.4989037E-2,1.4061586E0,1.6620136E0,1.7241812E-1,2.3520813E0,1.0041027E0,-1.9620256E-2,5.984189E-2,9.228807E-3,1.332073E-1,-1.8591246E-2,7.0206605E-2],"categories":[1,3,4,5,7,8,10,11,12,13],"categories_nodes":[3],"categories_segments":[0],"categories_sizes":[10],"default_left":[1,0,0,1,1,0,1,0,0,0,0,0,0],"id":39,"left_children":[1,-1,3,5,7,9,11,-1,-1,-1,-1,-1,-1],"loss_changes":[6.20392E1,0E0,6.9797325E0,6.241562E0,3.4029984E0,5.2603874E0,6.8220205E0,0E0,0E0,0E0,0E0,0E0,0E0],"parents":[2147483647,0,0,2,2,3,3,4,4,5,5,6,6],"right_children":[2,-1,4,6,8,10,12,-1,-1,-1,-1,-1,-1],"split_conditions":[5E0,-2.4989037E-2,5.7516026E1,1E-45,2.6666668E-1,-2.2381262E-1,-8.2150394E-1,-1.9620256E-2,5.984189E-2,9.228807E-3,1.332073E-1,-1.8591246E-2,7.0206605E-2],"split_indices":[2,0,20,0,5,11,13,0,0,0,0,0,0],"split_type":[0,0,0,1,0,0,0,0,0,0,0,0,0],"sum_hessian":[8.719289E1,6.517342E1,2.2019459E1,1.7949856E1,4.0696025E0,7.504003E0,1.0445853E1,3.0209324E0,1.0486699E0,1.1447049E0,6.3592978E0,2.3687809E0,8.077072E0],"tree_param":{"num_deleted":"0","num_feature":"40","num_nodes":"13","size_leaf_vector":"1"}},{"base_weights":[-2.628645E-3,6.720466E-1,-3.7595756E-2,1.2223817E-1,6.9685686E-1,-1.0832842E-1,3.3543747E-2,-1.3254362E-2,2.351967E-2,3.555848E-2,2.9030722E-1,-5.625626E-2,-2.2196816E-1,4.754259E-1,1.9511428E-2,2.194766E-2,8.9586474E-4,1.2788703E-2,-4.1763955E-3,-2.2973461E-2,-6.817215E-3,-3.2692876E-2,3.0707447E-2,2.631777E-3,-8.104229E-3],"categories":[0,3,10,12,13],"categories_nodes":[14],"categories_segments":[0],"categories_sizes":[5],"default_left":[1,0,0,0,1,0,0,0,0,0,0,0,0,0,1,0,0,0,0,0,0,0,0,0,0],"id":40,"left_children":[1,3,5,7,9,11,13,-1,-1,-1,15,17,19,21,23,-1,-1,-1,-1,-1,-1,-1,-1,-1,-1],"loss_changes":[2.9610836E1,7.584648E-1,6.0078483E0,6.483271E-1,1.3663864E-1,3.5294962E0,3.6842513E0,0E0,0E0,0E0,1.4174598E-1,3.5257363E0,3.755375E0,3.266984E0,3.4875975E0,0E0,0E0,0E0,0E0,0E0,0E0,0E0,0E0,0E0,0E0],"parents":[2147483647,0,0,1,1,2,2,3,3,4,4,5,5,6,6,10,10,11,11,12,12,13,13,14,14],"right_children":[2,4,6,8,10,12,14,-1,-1,-1,16,18,20,22,24,-1,-1,-1,-1,-1,-1,-1,-1,-1,-1],"split_conditions":[2E0,-9.178514E1,3.3333334E-1,-9.117043E-1,3.380972E1,4.9E1,-3.2218878E0,-1.3254362E-2,2.351967E-2,3.555848E-2,6E-1,-5E-1,-2.5735798E0,6.666667E-1,1E-45,2.194766E-2,8.9586474E-4,1.2788703E-2,-4.1763955E-3,-2.2973461E-2,-6.817215E-3,-3.2692876E-2,3.0707447E-2,2.631777E-3,-8.104229E-3],"split_indices":[2,21,11,25,26,16,13,0,0,0,5,11,25,11,0,0,0,0,0,0,0,0,0,0,0],"split_type":[0,0,0,0,0,0,0,0,0,0,0,0,0,0,1,0,0,0,0,0,0,0,0,0,0],"sum_hessian":[1.2530804E3,6.084688E1,1.1922335E3,2.8830867E0,5.7963795E1,5.9756415E2,5.9466943E2,1.4777136E0,1.4053732E0,5.526876E1,2.6950362E0,4.1081497E2,1.8674916E2,1.7290958E1,5.773785E2,1.347955E0,1.3470812E0,3.234611E1,3.7846887E2,4.832911E1,1.3842004E2,1.4854183E0,1.5805541E1,4.8890894E2,8.846954E1],"tree_param":{"num_deleted":"0","num_feature":"40","num_nodes":"25","size_leaf_vector":"1"}},{"base_weights":[-2.3106141E-2,-5.458475E-1,-1.1113657E-5,7.045017E-3,-5.662148E-1,-4.7177926E-2,1.1839302E-1,6.472204E-3,-5.8717436E-1,-2.7875352E-1,-2.3634067E-2,5.3413135E-1,6.900809E-2,-3.0405825E-2,-9.139333E-3,-2.1856495E-3,-2.3581324E-2,3.2363832E-2,-1.7430744E-3,3.5817053E-2,-2.0014716E-2,-7.500998E-3,1.0407073E-2],"categories":[0,1,2,3,4,6,7,8,9,10,11,12,13],"categories_nodes":[1],"categories_segments":[0],"categories_sizes":[13],"default_left":[1,0,1,0,0,0,0,0,1,0,0,1,1,0,0,0,0,0,0,0,0,0,0],"id":41,"left_children":[1,3,5,-1,7,9,11,-1,13,15,17,19,21,-1,-1,-1,-1,-1,-1,-1,-1,-1,-1],"loss_changes":[1.2588442E1,6.968765E-1,5.588093E0,0E0,7.036648E-1,3.8947473E0,5.815448E0,0E0,2.4426746E-1,2.9687653E0,4.9233627E0,5.4144278E0,7.8304033E0,0E0,0E0,0E0,0E0,0E0,0E0,0E0,0E0,0E0,0E0],"parents":[2147483647,0,0,1,1,2,2,4,4,5,5,6,6,8,8,9,9,10,10,11,11,12,12],"right_children":[2,4,6,-1,8,10,12,-1,14,16,18,20,22,-1,-1,-1,-1,-1,-1,-1,-1,-1,-1],"split_conditions":[2E0,1E-45,1.3748226E1,7.045017E-3,-8.879062E1,-1.5395974E0,2.4761122E1,6.472204E-3,3.380972E1,2.3333333E-1,-1.3777742E0,4.0625E-1,2.9305954E1,-3.0405825E-2,-9.139333E-3,-2.1856495E-3,-2.3581324E-2,3.2363832E-2,-1.7430744E-3,3.5817053E-2,-2.0014716E-2,-7.500998E-3,1.0407073E-2],"split_indices":[2,0,18,0,20,13,32,0,26,10,13,10,32,0,0,0,0,0,0,0,0,0,0],"split_type":[0,1,0,0,0,0,0,0,0,0,0,0,0,0,0,0,0,0,0,0,0,0,0],"sum_hessian":[1.041718E3,4.3118694E1,9.9859924E2,1.0715085E0,4.2047188E1,7.1455475E2,2.8404453E2,1.0784066E0,4.096878E1,6.494277E1,6.49612E2,2.911652E1,2.54928E2,3.847259E1,2.4961889E0,2.9824463E1,3.511831E1,9.759633E0,6.3985236E2,2.4560667E1,4.555853E0,9.900035E1,1.5592764E2],"tree_param":{"num_deleted":"0","num_feature":"40","num_nodes":"23","size_leaf_vector":"1"}},{"base_weights":[-3.393843E-3,-2.665828E-2,1.8801384E-2,4.898161E-1,5.6536053E-3,-3.392882E-2,9.1886264E-1,5.606746E-1,-3.9679282E-3,4.108459E-2,-1.7561201E-2,6.853104E-2,-1.9896032E-2,6.918626E-2,2.2846262E-3,3.7711423E-3,-4.5004897E-3],"categories":[0,1,4,5,6],"categories_nodes":[8],"categories_segments":[0],"categories_sizes":[5],"default_left":[1,0,0,0,0,0,1,0,1,0,0,0,0,0,0,0,0],"id":42,"left_children":[1,-1,3,5,7,9,11,13,15,-1,-1,-1,-1,-1,-1,-1,-1],"loss_changes":[7.3477044E0,0E0,3.7123501E0,3.6893132E0,3.124241E0,2.5405703E0,5.8898444E0,4.1622643E0,3.9390914E0,0E0,0E0,0E0,0E0,0E0,0E0,0E0,0E0],"parents":[2147483647,0,0,2,2,3,3,4,4,5,5,6,6,7,7,8,8],"right_children":[2,-1,4,6,8,10,12,14,16,-1,-1,-1,-1,-1,-1,-1,-1],"split_conditions":[3E0,-2.665828E-2,-4E0,-3.3333335E-2,-1.2533881E1,-7E0,-2.8342972E-2,-1.3589615E-1,1E-45,4.108459E-2,-1.7561201E-2,6.853104E-2,-1.9896032E-2,6.918626E-2,2.2846262E-3,3.7711423E-3,-4.5004897E-3],"split_indices":[2,0,15,7,25,15,14,12,0,0,0,0,0,0,0,0,0],"split_type":[0,0,0,0,0,0,0,0,1,0,0,0,0,0,0,0,0],"sum_hessian":[6.230371E2,2.4127312E1,5.989098E2,1.5279301E1,5.836305E2,7.295037E0,7.984264E0,8.969157E0,5.746613E2,1.5434043E0,5.751632E0,5.9143133E0,2.0699508E0,2.8027806E0,6.166376E0,2.9894675E2,2.7571457E2],"tree_param":{"num_deleted":"0","num_feature":"40","num_nodes":"17","size_leaf_vector":"1"}},{"base_weights":[9.908077E-3,-2.4971416E-2,1.4288121E0,-8.190727E-2,1.6110162E0,1.1871282E-2,-1.5466809E-2,5.8548903E-1,1.9647118E0,8.2171746E-2,-2.1122375E-3,1.2323474E-1,2.0335516E-2],"categories":[],"categories_nodes":[],"categories_segments":[],"categories_sizes":[],"default_left":[1,0,0,0,0,0,0,0,0,0,0,0,0],"id":43,"left_children":[1,-1,3,5,7,-1,-1,9,11,-1,-1,-1,-1],"loss_changes":[6.3558376E1,0E0,6.52586E0,3.2412222E-1,6.3860283E0,0E0,0E0,4.5539427E0,1.0701172E1,0E0,0E0,0E0,0E0],"parents":[2147483647,0,0,2,2,3,3,4,4,7,7,8,8],"right_children":[2,-1,4,6,8,-1,-1,10,12,-1,-1,-1,-1],"split_conditions":[5E0,-2.4971416E-2,-1.6921006E0,-1.6666668E-2,-2.4794914E1,1.1871282E-2,-1.5466809E-2,-8.224873E1,1E0,8.2171746E-2,-2.1122375E-3,1.2323474E-1,2.0335516E-2],"split_indices":[2,0,12,10,18,0,0,19,36,0,0,0,0],"split_type":[0,0,0,0,0,0,0,0,0,0,0,0,0],"sum_hessian":[8.595839E1,6.3729702E1,2.2228691E1,2.4516492E0,1.9777042E1,1.001495E0,1.4501543E0,5.7526875E0,1.4024355E1,1.5397085E0,4.2129793E0,1.0176594E1,3.847761E0],"tree_param":{"num_deleted":"0","num_feature":"40","num_nodes":"13","size_leaf_vector":"1"}},{"base_weights":[2.4253596E-3,6.3679045E-1,-2.8959183E-2,1.1283387E-1,6.6205686E-1,-1.03501014E-1,2.7895695E-2,2.3053495E-2,-1.3454291E-2,6.776159E-1,6.170778E-3,-1.1532727E-1,6.990963E-1,2.6601338E-1,5.666828E-3,3.461257E-2,1.680202E-2,1.5318418E-2,-6.690617E-3,4.024013E-2,8.227833E-3,2.6831705E-2,1.9294119E-3,-2.655127E-2,9.799531E-4],"categories":[],"categories_nodes":[],"categories_segments":[],"categories_sizes":[],"default_left":[1,0,0,0,0,0,0,0,0,1,0,0,0,0,0,0,0,0,0,0,0,0,0,0,0],"id":44,"left_children":[1,3,5,7,9,11,13,-1,-1,15,-1,17,19,21,23,-1,-1,-1,-1,-1,-1,-1,-1,-1,-1],"loss_changes":[2.4409777E1,6.904545E-1,4.954336E0,6.3802195E-1,3.7675667E-1,4.8809996E0,3.5109003E0,0E0,0E0,3.3172607E-2,0E0,3.9327474E0,2.9052687E-1,3.465024E0,4.5562277E0,0E0,0E0,0E0,0E0,0E0,0E0,0E0,0E0,0E0,0E0],"parents":[2147483647,0,0,1,1,2,2,3,3,4,4,5,5,6,6,9,9,11,11,12,12,13,13,14,14],"right_children":[2,4,6,8,10,12,14,-1,-1,16,-1,18,20,22,24,-1,-1,-1,-1,-1,-1,-1,-1,-1,-1],"split_conditions":[2E0,-9.178514E1,5.5489486E-1,-2.54E0,6.777063E1,1.1968712E2,-1.826923E-1,2.3053495E-2,-1.3454291E-2,3.380972E1,6.170778E-3,-4.5333333E0,3.4028748E1,-2.713978E1,-3E0,3.461257E-2,1.680202E-2,1.5318418E-2,-6.690617E-3,4.024013E-2,8.227833E-3,2.6831705E-2,1.9294119E-3,-2.655127E-2,9.799531E-4],"split_indices":[2,21,12,23,21,21,7,0,0,26,0,12,26,20,15,0,0,0,0,0,0,0,0,0,0],"split_type":[0,0,0,0,0,0,0,0,0,0,0,0,0,0,0,0,0,0,0,0,0,0,0,0,0],"sum_hessian":[1.2241251E3,5.6797928E1,1.1673273E3,2.8643734E0,5.3933556E1,5.0474326E2,6.62584E2,1.3898549E0,1.4745185E0,5.216862E1,1.7649336E0,4.9825772E2,6.4855094E0,5.5636253E1,6.0694775E2,4.9040726E1,3.1278954E0,2.0269966E1,4.7798776E2,4.9926114E0,1.492898E0,2.4784615E1,3.0851637E1,1.4418255E1,5.925295E2],"tree_param":{"num_deleted":"0","num_feature":"40","num_nodes":"25","size_leaf_vector":"1"}},{"base_weights":[1.0035856E-2,-5.403496E-1,3.462357E-2,1.6050763E-2,-5.8040786E-1,1.2167547E-2,2.8032717E-1,7.448438E-4,-3.0083267E-2,3.5026353E-2,-1.9920474E-1,9.587319E-1,1.9828723E-1,1.7540133E-2,6.636618E-4,-1.2914978E-2,2.7089164E-2,6.8174796E-3,6.035117E-2,-2.3868373E-2,1.5536143E-2],"categories":[],"categories_nodes":[],"categories_segments":[],"categories_sizes":[],"default_left":[1,0,0,0,0,1,0,0,0,0,0,0,0,0,0,0,0,0,0,0,0],"id":45,"left_children":[1,3,5,-1,7,9,11,-1,-1,13,15,17,19,-1,-1,-1,-1,-1,-1,-1,-1],"loss_changes":[1.4081763E1,1.7217588E0,5.490333E0,0E0,5.5156994E-1,4.42005E0,4.448008E0,0E0,0E0,5.6628485E0,4.0495844E0,1.617959E0,5.891877E0,0E0,0E0,0E0,0E0,0E0,0E0,0E0,0E0],"parents":[2147483647,0,0,1,1,2,2,4,4,5,5,6,6,9,9,10,10,11,11,12,12],"right_children":[2,4,6,-1,8,10,12,-1,-1,14,16,18,20,-1,-1,-1,-1,-1,-1,-1,-1],"split_conditions":[2E0,-9.178514E1,7.446305E1,1.6050763E-2,2.2811773E1,1.9246377E0,2.5817932E1,7.448438E-4,-3.0083267E-2,-2.9647198E-1,5.5E-1,1.1904762E-2,2.745243E1,1.7540133E-2,6.636618E-4,-1.2914978E-2,2.7089164E-2,6.8174796E-3,6.035117E-2,-2.3868373E-2,1.5536143E-2],"split_indices":[2,21,20,0,32,12,32,0,0,14,17,7,32,0,0,0,0,0,0,0,0],"split_type":[0,0,0,0,0,0,0,0,0,0,0,0,0,0,0,0,0,0,0,0,0],"sum_hessian":[1.038189E3,4.3499306E1,9.946897E2,1.6213809E0,4.1877926E1,9.1235474E2,8.233494E1,1.4541569E0,4.0423767E1,8.240702E2,8.8284584E1,7.7297683E0,7.460517E1,5.213485E1,7.719353E2,8.236711E1,5.917478E0,2.1518009E0,5.577967E0,1.0180746E1,6.442442E1],"tree_param":{"num_deleted":"0","num_feature":"40","num_nodes":"21","size_leaf_vector":"1"}},{"base_weights":[-1.5447306E-3,-2.6506398E-2,2.0142097E-2,2.0948356E-1,-1.9217072E-2,4.0559283E-1,-1.5717487E-1,5.2185357E-1,-3.285536E-2,3.533267E-2,1.0498406E-3,4.882967E-2,-1.1348991E-2,3.722562E-3,8.463954E-2,1.6515496E-3,-8.600612E-3],"categories":[0,1,2,4,5,6,7,8,9,10,11,12,13],"categories_nodes":[6],"categories_segments":[0],"categories_sizes":[13],"default_left":[1,0,0,0,0,0,1,1,1,0,0,0,0,0,0,0,0],"id":46,"left_children":[1,-1,3,5,7,9,11,13,15,-1,-1,-1,-1,-1,-1,-1,-1],"loss_changes":[7.062443E0,0E0,4.4149036E0,7.394186E0,3.6398814E0,7.7081165E0,3.0902793E0,6.22838E0,4.404785E0,0E0,0E0,0E0,0E0,0E0,0E0,0E0,0E0],"parents":[2147483647,0,0,2,2,3,3,4,4,5,5,6,6,7,7,8,8],"right_children":[2,-1,4,6,8,10,12,14,16,-1,-1,-1,-1,-1,-1,-1,-1],"split_conditions":[3E0,-2.6506398E-2,-9.8245615E-1,5.7142857E-2,-1.1739904E1,9.991397E-1,1E-45,5E-1,-7.1428575E-2,3.533267E-2,1.0498406E-3,4.882967E-2,-1.1348991E-2,3.722562E-3,8.463954E-2,1.6515496E-3,-8.600612E-3],"split_indices":[2,0,9,5,25,13,0,9,11,0,0,0,0,0,0,0,0],"split_type":[0,0,0,0,0,0,1,0,0,0,0,0,0,0,0,0,0],"sum_hessian":[6.1416046E2,2.3280844E1,5.9087964E2,1.0094596E2,4.8993365E2,6.569985E1,3.5246113E1,1.1129517E1,4.7880414E2,3.638242E1,2.9317432E1,1.2907931E0,3.395532E1,8.822224E0,2.3072927E0,3.2546805E2,1.533361E2],"tree_param":{"num_deleted":"0","num_feature":"40","num_nodes":"17","size_leaf_vector":"1"}},{"base_weights":[-2.9759603E-2,-2.4956575E-2,1.1689547E0,-1.5669482E-2,1.2768853E0,1.4124246E0,-4.2553477E-2,7.500917E-2,5.3609526E-3,-1.4102185E-2,1.1748737E-2],"categories":[],"categories_nodes":[],"categories_segments":[],"categories_sizes":[],"default_left":[1,0,0,0,0,0,0,0,0,0,0],"id":47,"left_children":[1,-1,3,-1,5,7,9,-1,-1,-1,-1],"loss_changes":[4.9972233E1,0E0,4.399769E0,0E0,4.2626495E0,2.2834587E0,2.7629402E-1,0E0,0E0,0E0,0E0],"parents":[2147483647,0,0,2,2,4,4,5,5,6,6],"right_children":[2,-1,4,-1,6,8,10,-1,-1,-1,-1],"split_conditions":[5E0,-2.4956575E-2,-2.4986353E0,-1.5669482E-2,8.996118E1,1.9E1,1.0028114E0,7.500917E-2,5.3609526E-3,-1.4102185E-2,1.1748737E-2],"split_indices":[2,0,12,0,20,33,12,0,0,0,0],"split_type":[0,0,0,0,0,0,0,0,0,0,0],"sum_hessian":[8.6779976E1,6.278092E1,2.3999058E1,1.4995983E0,2.249946E1,2.0339602E1,2.1598585E0,1.8918203E1,1.4213972E0,1.1506479E0,1.0092105E0],"tree_param":{"num_deleted":"0","num_feature":"40","num_nodes":"11","size_leaf_vector":"1"}},{"base_weights":[5.2602976E-3,6.254734E-1,-2.3983957E-2,1.7838503E-1,6.50014E-1,-9.2398E-2,5.891813E-2,-1.3280789E-2,2.5195543E-2,6.66088E-1,1.0956393E-3,5.625016E-1,-1.0335526E-1,4.2747653E-1,3.9327163E-2,3.4042876E-2,1.221618E-2,4.049911E-2,-9.876142E-3,-3.3499815E-3,-1.3650186E-2,2.7056798E-2,-2.513274E-2,-1.3297565E-2,3.050983E-3],"categories":[0,1,2,3,5,9,10,11,12,13],"categories_nodes":[4],"categories_segments":[0],"categories_sizes":[10],"default_left":[1,0,0,0,1,0,0,0,0,1,0,0,0,0,0,0,0,0,0,0,0,0,0,0,0],"id":48,"left_children":[1,3,5,7,9,11,13,-1,-1,15,-1,17,19,21,23,-1,-1,-1,-1,-1,-1,-1,-1,-1,-1],"loss_changes":[2.2644016E1,5.0083923E-1,6.768392E0,7.5582665E-1,5.196152E-1,4.7488756E0,3.8802671E0,0E0,0E0,1.5481949E-1,0E0,2.2124567E0,3.9522529E0,3.1412363E0,3.4173515E0,0E0,0E0,0E0,0E0,0E0,0E0,0E0,0E0,0E0,0E0],"parents":[2147483647,0,0,1,1,2,2,3,3,4,4,5,5,6,6,9,9,11,11,12,12,13,13,14,14],"right_children":[2,4,6,8,10,12,14,-1,-1,16,-1,18,20,22,24,-1,-1,-1,-1,-1,-1,-1,-1,-1,-1],"split_conditions":[2E0,-9.178514E1,5E-1,-9.117043E-1,1E-45,-1.1E1,-2.069637E0,-1.3280789E-2,2.5195543E-2,5.026694E0,1.0956393E-3,3.3333334E-1,5E0,5.4444444E-1,-5.754838E-1,3.4042876E-2,1.221618E-2,4.049911E-2,-9.876142E-3,-3.3499815E-3,-1.3650186E-2,2.7056798E-2,-2.513274E-2,-1.3297565E-2,3.050983E-3],"split_indices":[2,21,11,25,0,4,12,0,0,25,0,17,2,14,12,0,0,0,0,0,0,0,0,0,0],"split_type":[0,0,0,0,1,0,0,0,0,0,0,0,0,0,0,0,0,0,0,0,0,0,0,0,0],"sum_hessian":[1.2466252E3,5.521594E1,1.1914093E3,3.3033557E0,5.1912582E1,6.526788E2,5.387306E2,1.4752414E0,1.8281142E0,5.0558247E1,1.3543372E0,9.91208E0,6.4276666E2,2.614037E1,5.125902E2,4.8254158E1,2.304088E0,7.4277205E0,2.4843595E0,5.3047986E2,1.12286804E2,2.3666592E1,2.4737768E0,3.3260147E1,4.7933005E2],"tree_param":{"num_deleted":"0","num_feature":"40","num_nodes":"25","size_leaf_vector":"1"}},{"base_weights":[9.7776465E-3,-5.290455E-1,3.1243367E-2,9.337293E-3,-5.692368E-1,-3.2567263E-3,1.20209225E-1,2.1946771E-2,-1.9806372E-2,-2.959987E-2,-4.4158106E-3,-4.923903E-1,5.684663E-3,-3.500488E-1,1.5205723E-1,-3.169321E-2,9.284466E-3,6.871633E-4,-2.7573342E-2,1.6326318E-2,-2.402507E-2,-2.639812E-2,8.760289E-3],"categories":[],"categories_nodes":[],"categories_segments":[],"categories_sizes":[],"default_left":[1,0,1,0,1,0,0,0,0,0,0,0,1,0,0,0,0,0,0,0,0,0,0],"id":49,"left_children":[1,3,5,7,9,11,13,-1,-1,-1,-1,15,17,19,21,-1,-1,-1,-1,-1,-1,-1,-1],"loss_changes":[1.22028E1,8.7996864E-1,3.1132655E0,8.343539E-1,3.596115E-1,3.203203E0,4.297955E0,0E0,0E0,0E0,0E0,1.3789961E0,3.2385657E0,1.7702966E0,4.2819476E0,0E0,0E0,0E0,0E0,0E0,0E0,0E0,0E0],"parents":[2147483647,0,0,1,1,2,2,3,3,4,4,5,5,6,6,11,11,12,12,13,13,14,14],"right_children":[2,4,6,8,10,12,14,-1,-1,-1,-1,16,18,20,22,-1,-1,-1,-1,-1,-1,-1,-1],"split_conditions":[2E0,-9.178514E1,1.3748226E1,-9.117043E-1,5.026694E0,-3.4870913E0,-4E0,2.1946771E-2,-1.9806372E-2,-2.959987E-2,-4.4158106E-3,1.33E2,1.1942577E1,-5.3333336E-1,-5.099056E-1,-3.169321E-2,9.284466E-3,6.871633E-4,-2.7573342E-2,1.6326318E-2,-2.402507E-2,-2.639812E-2,8.760289E-3],"split_indices":[2,21,18,25,25,13,15,0,0,0,0,16,18,7,14,0,0,0,0,0,0,0,0],"split_type":[0,0,0,0,0,0,0,0,0,0,0,0,0,0,0,0,0,0,0,0,0,0,0],"sum_hessian":[1.0526082E3,3.9421474E1,1.0131867E3,2.7917867E0,3.662969E1,7.307661E2,2.824206E2,1.3154702E0,1.4763165E0,3.475392E1,1.8757664E0,1.2148002E1,7.186181E2,1.7279879E1,2.6514072E2,1.0104927E1,2.0430753E0,7.093337E2,9.284424E0,2.5502603E0,1.4729618E1,8.010615E0,2.571301E2],"tree_param":{"num_deleted":"0","num_feature":"40","num_nodes":"23","size_leaf_vector":"1"}},{"base_weights":[8.268889E-3,3.2966997E-2,-4.7544912E-1,6.6194975E-1,2.216231E-2,-2.8323624E-4,-5.039668E-1,-5.8511633E-2,1.1222235E0,6.613203E-1,1.1841684E-2,-8.207819E-2,-2.6837626E-2,1.9504532E-2,-2.0537455E-2,2.6714203E-3,7.1941786E-2,-2.1499379E-2,5.821672E-2,1.2043111E-2,-1.0756686E-3,1.0464993E-2,-1.5545438E-2],"categories":[4,5,6,8,9,0,3,4,5,6,7,8,9,11,12],"categories_nodes":[6,10],"categories_segments":[0,5],"categories_sizes":[5,10],"default_left":[0,0,0,1,0,0,0,0,0,0,0,0,0,0,0,0,0,0,0,0,0,0,0],"id":50,"left_children":[1,3,5,7,9,-1,11,13,15,17,19,21,-1,-1,-1,-1,-1,-1,-1,-1,-1,-1,-1],"loss_changes":[7.4025483E0,3.9895554E0,4.0041733E-1,3.3538494E0,3.8200629E0,0E0,3.483181E-1,9.2120105E-1,1.9873271E0,5.552549E0,4.3753552E0,2.8017277E-1,0E0,0E0,0E0,0E0,0E0,0E0,0E0,0E0,0E0,0E0,0E0],"parents":[2147483647,0,0,1,1,2,2,3,3,4,4,6,6,7,7,8,8,9,9,10,10,11,11],"right_children":[2,4,6,8,10,-1,12,14,16,18,20,22,-1,-1,-1,-1,-1,-1,-1,-1,-1,-1,-1],"split_conditions":[1.3240247E1,-1.2533881E1,-2.54E0,-9.855072E-2,-3.4166667E0,-2.8323624E-4,1E-45,3.6167007E1,-5.6172123E1,-1.5E0,1E-45,3.6167007E1,-2.6837626E-2,1.9504532E-2,-2.0537455E-2,2.6714203E-3,7.1941786E-2,-2.1499379E-2,5.821672E-2,1.2043111E-2,-1.0756686E-3,1.0464993E-2,-1.5545438E-2],"split_indices":[25,25,24,10,9,0,0,32,20,4,0,32,0,0,0,0,0,0,0,0,0,0,0],"split_type":[0,0,0,0,0,0,1,0,0,0,1,0,0,0,0,0,0,0,0,0,0,0,0],"sum_hessian":[6.173078E2,5.882065E2,2.9101332E1,8.91584E0,5.7929065E2,1.7340583E0,2.7367273E1,3.8158338E0,5.1000066E0,8.202953E0,5.710877E2,2.2260323E0,2.5141241E1,1.6310709E0,2.1847627E0,1.4326222E0,3.6673844E0,2.6338644E0,5.569089E0,7.180986E1,4.9927783E2,1.0167361E0,1.209296E0],"tree_param":{"num_deleted":"0","num_feature":"40","num_nodes":"23","size_leaf_vector":"1"}},{"base_weights":[3.442097E-2,-2.352067E-1,1.0835956E0,-3.9912826E-1,5.740737E-1,3.2596987E-2,1.3349545E0,-4.2990118E-1,3.0441844E-1,-5.71973E-2,1.3258576E0,1.799752E-2,-1.6478196E-2,1.546444E0,-7.977389E-4,-2.2297045E-2,1.01558715E-2,-1.3168086E-2,3.713269E-2,3.2356504E-2,-1.4074901E-2,1.1932454E-2,9.989277E-2,9.3128495E-2,-1.9345599E-3],"categories":[],"categories_nodes":[],"categories_segments":[],"categories_sizes":[],"default_left":[0,0,1,1,1,0,0,1,0,0,0,0,0,0,0,0,0,0,0,0,0,0,0,0,0],"id":51,"left_children":[1,3,5,7,9,11,13,15,17,19,21,-1,-1,23,-1,-1,-1,-1,-1,-1,-1,-1,-1,-1,-1],"loss_changes":[2.519402E1,9.642191E0,4.765175E0,1.4211178E0,5.9424896E0,6.566465E-1,4.2143135E0,6.745291E-1,9.6267396E-1,1.3951634E0,3.6757212E0,0E0,0E0,6.4308147E0,0E0,0E0,0E0,0E0,0E0,0E0,0E0,0E0,0E0,0E0,0E0],"parents":[2147483647,0,0,1,1,2,2,3,3,4,4,5,5,6,6,7,7,8,8,9,9,10,10,13,13],"right_children":[2,4,6,8,10,12,14,16,18,20,22,-1,-1,24,-1,-1,-1,-1,-1,-1,-1,-1,-1,-1,-1],"split_conditions":[1E0,1.2E1,-9.5012E-1,8.5714287E-1,8.7050945E-2,2.84846E1,3.478261E-1,3.854894E1,-7.8888886E-2,-3.83032E1,5.025412E1,1.799752E-2,-1.6478196E-2,2.8636363E-1,-7.977389E-4,-2.2297045E-2,1.01558715E-2,-1.3168086E-2,3.713269E-2,3.2356504E-2,-1.4074901E-2,1.1932454E-2,9.989277E-2,9.3128495E-2,-1.9345599E-3],"split_indices":[1,27,13,6,14,26,6,26,14,19,21,0,0,10,0,0,0,0,0,0,0,0,0,0,0],"split_type":[0,0,0,0,0,0,0,0,0,0,0,0,0,0,0,0,0,0,0,0,0,0,0,0,0],"sum_hessian":[8.715956E1,6.995709E1,1.7202473E1,5.859529E1,1.1361797E1,3.5381603E0,1.3664312E1,5.651241E1,2.0828836E0,6.6781178E0,4.68368E0,1.8615912E0,1.6765691E0,1.1689533E1,1.9747796E0,5.5404083E1,1.1083239E0,1.0811632E0,1.0017203E0,1.1577048E0,5.520413E0,2.3067615E0,2.3769183E0,9.599974E0,2.0895588E0],"tree_param":{"num_deleted":"0","num_feature":"40","num_nodes":"25","size_leaf_vector":"1"}},{"base_weights":[1.9665059E-2,6.279739E-1,-8.609036E-3,9.389847E-2,6.551015E-1,-7.7970006E-2,5.0045308E-2,2.2633163E-2,-1.4702968E-2,5.505186E-3,3.3593036E-2,-3.728652E-1,-4.5821402E-2,9.182133E-2,-1.7686686E-1,8.894933E-3,-2.920646E-2,5.457397E-3,-5.2785366E-3,2.8372074E-3,1.6658342E-2,-2.066349E-2,-2.4423935E-3],"categories":[0,3,8,10,12,13],"categories_nodes":[6],"categories_segments":[0],"categories_sizes":[6],"default_left":[1,0,0,0,0,0,1,0,0,0,0,0,1,0,0,0,0,0,0,0,0,0,0],"id":52,"left_children":[1,3,5,7,9,11,13,-1,-1,-1,-1,15,17,19,21,-1,-1,-1,-1,-1,-1,-1,-1],"loss_changes":[2.1146587E1,7.296581E-1,4.7865176E0,6.6298646E-1,3.991661E-1,5.093061E0,6.0599465E0,0E0,0E0,0E0,0E0,6.2528625E0,4.5224056E0,4.5448484E0,2.990176E0,0E0,0E0,0E0,0E0,0E0,0E0,0E0,0E0],"parents":[2147483647,0,0,1,1,2,2,3,3,4,4,5,5,6,6,11,11,12,12,13,13,14,14],"right_children":[2,4,6,8,10,12,14,-1,-1,-1,-1,16,18,20,22,-1,-1,-1,-1,-1,-1,-1,-1],"split_conditions":[2E0,-9.178514E1,2.612403E-1,6E0,2.2811773E1,2.530048E1,1E-45,2.2633163E-2,-1.4702968E-2,5.505186E-3,3.3593036E-2,-3.9018948E1,-3.2330826E-1,3.4543465E1,0E0,8.894933E-3,-2.920646E-2,5.457397E-3,-5.2785366E-3,2.8372074E-3,1.6658342E-2,-2.066349E-2,-2.4423935E-3],"split_indices":[2,21,10,33,32,26,0,0,0,0,0,18,6,32,15,0,0,0,0,0,0,0,0],"split_type":[0,0,0,0,0,0,1,0,0,0,0,0,0,0,0,0,0,0,0,0,0,0,0],"sum_hessian":[1.2281826E3,5.360818E1,1.1745745E3,2.8069777E0,5.08012E1,5.380183E2,6.365562E2,1.3717055E0,1.4352723E0,1.7414169E0,4.9059784E1,5.1845722E1,4.8617255E2,5.380863E2,9.846989E1,1.4417452E1,3.742827E1,1.3505618E2,3.5111636E2,4.708832E2,6.720311E1,3.3809067E1,6.466082E1],"tree_param":{"num_deleted":"0","num_feature":"40","num_nodes":"23","size_leaf_vector":"1"}},{"base_weights":[-4.3403287E-3,-4.9915025E-1,1.5993524E-2,1.01657715E-2,-5.3968316E-1,7.854221E-1,8.931343E-3,-2.92265E-2,-3.5104413E-2,2.091784E-1,1.032954E0,-1.7073078E-1,3.050064E-2,-2.0251445E-2,1.864892E-2,-2.0063398E-2,3.206088E-2,6.1893027E-2,1.5230424E-2,-3.4745175E-3,-2.3056833E-2,-2.5456666E-3,4.789855E-3],"categories":[0,1,2,3,4,5],"categories_nodes":[8],"categories_segments":[0],"categories_sizes":[6],"default_left":[1,0,0,0,1,0,0,0,1,0,0,0,1,0,0,0,0,0,0,0,0,0,0],"id":53,"left_children":[1,3,5,-1,7,9,11,-1,13,15,17,19,21,-1,-1,-1,-1,-1,-1,-1,-1,-1,-1],"loss_changes":[1.0480622E1,1.2804394E0,5.430943E0,0E0,8.6533356E-1,1.0805683E0,3.8519754E0,0E0,7.9404736E-1,1.3084089E0,5.3405523E-1,3.100673E0,4.7208185E0,0E0,0E0,0E0,0E0,0E0,0E0,0E0,0E0,0E0,0E0],"parents":[2147483647,0,0,1,1,2,2,4,4,5,5,6,6,8,8,9,9,10,10,11,11,12,12],"right_children":[2,4,6,-1,8,10,12,-1,14,16,18,20,22,-1,-1,-1,-1,-1,-1,-1,-1,-1,-1],"split_conditions":[2E0,-9.178514E1,-5.8345824E-1,1.01657715E-2,2.7104723E0,2.5861738E1,-1.27E2,-2.92265E-2,1E-45,5.058824E-1,3.6350515E-1,3.5099247E1,-2.54E0,-2.0251445E-2,1.864892E-2,-2.0063398E-2,3.206088E-2,6.1893027E-2,1.5230424E-2,-3.4745175E-3,-2.3056833E-2,-2.5456666E-3,4.789855E-3],"split_indices":[2,21,14,0,25,32,16,0,0,7,12,32,24,0,0,0,0,0,0,0,0,0,0],"split_type":[0,0,0,0,0,0,0,0,1,0,0,0,0,0,0,0,0,0,0,0,0,0,0],"sum_hessian":[1.0398738E3,4.0116615E1,9.997572E2,1.9694003E0,3.8147217E1,8.090381E0,9.916669E2,3.4887936E1,3.2592807E0,2.9854465E0,5.1049347E0,1.0555208E2,8.8611475E2,1.7134932E0,1.5457875E0,1.2667812E0,1.7186652E0,3.438129E0,1.6668057E0,7.918584E1,2.6366241E1,3.9448138E2,4.9163336E2],"tree_param":{"num_deleted":"0","num_feature":"40","num_nodes":"23","size_leaf_vector":"1"}},{"base_weights":[-1.7731829E-2,-2.6266694E-2,2.2298414E-3,-2.3480773E-2,3.2926667E-1,2.6362762E-2,-2.0958842E-1,5.0616616E-1,-4.0509695E-1,-1.1838655E-2,3.4861264E-3,-4.7964924E-3,-1.8917805E-2,-1.1006708E-2,3.7749436E-2,1.034709E-2,-2.5403345E-2],"categories":[],"categories_nodes":[],"categories_segments":[],"categories_sizes":[],"default_left":[1,0,0,0,1,0,0,0,0,0,0,0,0,0,0,0,0],"id":54,"left_children":[1,-1,3,5,7,9,11,13,15,-1,-1,-1,-1,-1,-1,-1,-1],"loss_changes":[6.2318E0,0E0,4.9908304E0,5.1109686E0,5.8251657E0,4.9796553E0,2.1960201E0,6.547123E0,6.6941917E-1,0E0,0E0,0E0,0E0,0E0,0E0,0E0,0E0],"parents":[2147483647,0,0,2,2,3,3,4,4,5,5,6,6,7,7,8,8],"right_children":[2,-1,4,6,8,10,12,14,16,-1,-1,-1,-1,-1,-1,-1,-1],"split_conditions":[3E0,-2.6266694E-2,1.5E1,2.1281376E1,2E-1,-2.2222222E-1,3.1537304E1,-1.4720641E1,0E0,-1.1838655E-2,3.4861264E-3,-4.7964924E-3,-1.8917805E-2,-1.1006708E-2,3.7749436E-2,1.034709E-2,-2.5403345E-2],"split_indices":[2,0,27,21,10,7,32,20,3,0,0,0,0,0,0,0,0],"split_type":[0,0,0,0,0,0,0,0,0,0,0,0,0,0,0,0,0],"sum_hessian":[6.139101E2,2.2270863E1,5.916392E2,5.4937714E2,4.2262115E1,4.3400092E2,1.15376205E2,3.4308372E1,7.953739E0,6.0766827E1,3.732341E2,6.988186E1,4.5494347E1,8.783902E0,2.5524471E1,1.0000219E0,6.953717E0],"tree_param":{"num_deleted":"0","num_feature":"40","num_nodes":"17","size_leaf_vector":"1"}},{"base_weights":[3.4165166E-2,-2.4924783E-2,1.1943802E0,1.2773489E0,-1.4715234E-2,1.3787812E0,-8.8095333E-4,7.605238E-2,7.825852E-3],"categories":[],"categories_nodes":[],"categories_segments":[],"categories_sizes":[],"default_left":[1,0,0,1,0,0,0,0,0],"id":55,"left_children":[1,-1,3,5,-1,7,-1,-1,-1],"loss_changes":[5.5059147E1,0E0,3.8373108E0,3.535572E0,0E0,4.0748177E0,0E0,0E0,0E0],"parents":[2147483647,0,0,2,2,3,3,5,5],"right_children":[2,-1,4,6,-1,8,-1,-1,-1],"split_conditions":[5E0,-2.4924783E-2,8.934727E1,2.03E2,-1.4715234E-2,7.727814E1,-8.8095333E-4,7.605238E-2,7.825852E-3],"split_indices":[2,0,21,16,0,20,0,0,0],"split_type":[0,0,0,0,0,0,0,0,0],"sum_hessian":[8.712891E1,6.0104813E1,2.7024094E1,2.573194E1,1.2921544E0,2.3802792E1,1.9291486E0,2.110214E1,2.70065E0],"tree_param":{"num_deleted":"0","num_feature":"40","num_nodes":"9","size_leaf_vector":"1"}},{"base_weights":[9.2968607E-4,6.0671186E-1,-2.739596E-2,3.1949413E-1,6.4886504E-1,-2.0035474E-1,-1.400557E-4,4.82005E-1,-1.672703E-2,3.324866E-2,2.713355E-1,2.0601155E-2,-2.85144E-1,9.490767E-2,-5.1704686E-2,8.179857E-4,2.8684441E-2,-5.112544E-4,2.1637036E-2,-2.1921715E-2,7.929339E-3,-1.9524327E-2,5.7149935E-3,5.8277072E-3,-1.4805469E-2,3.1905284E-3,-5.4268166E-3],"categories":[0,1,2,3,4,6,7,12,13],"categories_nodes":[5],"categories_segments":[0],"categories_sizes":[9],"default_left":[1,0,0,1,1,1,1,0,0,0,0,0,0,0,0,0,0,0,0,0,0,0,0,0,0,0,0],"id":56,"left_children":[1,3,5,7,9,11,13,15,-1,-1,17,19,21,23,25,-1,-1,-1,-1,-1,-1,-1,-1,-1,-1,-1,-1],"loss_changes":[2.1490614E1,4.7003555E-1,5.640509E0,1.1316606E0,1.1035156E-1,3.057466E0,5.075723E0,3.2031107E-1,0E0,0E0,1.701178E-1,2.9897568E0,5.0006666E0,3.117482E0,4.4145436E0,0E0,0E0,0E0,0E0,0E0,0E0,0E0,0E0,0E0,0E0,0E0,0E0],"parents":[2147483647,0,0,1,1,2,2,3,3,4,4,5,5,6,6,7,7,10,10,11,11,12,12,13,13,14,14],"right_children":[2,4,6,8,10,12,14,16,-1,-1,18,20,22,24,26,-1,-1,-1,-1,-1,-1,-1,-1,-1,-1,-1,-1],"split_conditions":[2E0,2.5500341E1,2.530048E1,-9.500342E-1,3.380972E1,1E-45,-5.08E0,-2.5E0,-1.672703E-2,3.324866E-2,3.441205E1,-2.54E0,1E0,1E0,-1E0,8.179857E-4,2.8684441E-2,-5.112544E-4,2.1637036E-2,-2.1921715E-2,7.929339E-3,-1.9524327E-2,5.7149935E-3,5.8277072E-3,-1.4805469E-2,3.1905284E-3,-5.4268166E-3],"split_indices":[2,26,26,25,26,0,24,4,0,0,26,23,30,1,3,0,0,0,0,0,0,0,0,0,0,0,0],"split_type":[0,0,0,0,0,1,0,0,0,0,0,0,0,0,0,0,0,0,0,0,0,0,0,0,0,0,0],"sum_hessian":[1.2504585E3,5.4945953E1,1.1955126E3,8.130031E0,4.6815926E1,1.6188461E2,1.0336279E3,6.722653E0,1.4073782E0,4.416994E1,2.6459832E0,4.510378E1,1.1678083E2,3.6323886E2,6.7038916E2,1.2997739E0,5.4228787E0,1.3054179E0,1.3405652E0,9.9213E0,3.518248E1,9.242789E1,2.4352942E1,3.4485007E2,1.8388777E1,2.2102132E2,4.493678E2],"tree_param":{"num_deleted":"0","num_feature":"40","num_nodes":"27","size_leaf_vector":"1"}},{"base_weights":[1.1987418E-2,2.6186533E-2,-5.1824635E-1,7.17156E-2,-6.139554E-2,1.6252993E-1,-2.9359573E-2,-6.990759E-2,1.2705827E-1,-7.894443E-2,4.3856603E-1,2.9364545E-2,-1.6442018E-2,2.4386413E-2,-5.3675883E-3,3.3175603E-2,5.565885E-3,-9.137018E-3,8.1200554E-4,5.222999E-2,-2.83633E-2],"categories":[8,11,2,4,5,13],"categories_nodes":[0,1],"categories_segments":[0,2],"categories_sizes":[2,4],"default_left":[0,1,0,1,1,0,0,0,0,0,1,0,0,0,0,0,0,0,0,0,0],"id":57,"left_children":[1,3,5,7,9,11,-1,13,15,17,19,-1,-1,-1,-1,-1,-1,-1,-1,-1,-1],"loss_changes":[7.8179092E0,4.033834E0,1.3666081E0,5.223665E0,3.0718462E0,8.764136E-1,0E0,3.969253E0,3.9687324E0,3.315452E0,7.84111E0,0E0,0E0,0E0,0E0,0E0,0E0,0E0,0E0,0E0,0E0],"parents":[2147483647,0,0,1,1,2,2,3,3,4,4,5,5,7,7,8,8,9,9,10,10],"right_children":[2,4,6,8,10,12,-1,14,16,18,20,-1,-1,-1,-1,-1,-1,-1,-1,-1,-1],"split_conditions":[1E-45,1E-45,2.6995209E1,-7.62E0,3.1468334E0,2.956879E0,-2.9359573E-2,-4.047619E-1,-4.4534457E-1,2.8072527E1,-4.0860215E-1,2.9364545E-2,-1.6442018E-2,2.4386413E-2,-5.3675883E-3,3.3175603E-2,5.565885E-3,-9.137018E-3,8.1200554E-4,5.222999E-2,-2.83633E-2],"split_indices":[0,0,32,24,13,25,0,11,14,18,10,0,0,0,0,0,0,0,0,0,0],"split_type":[1,1,0,0,0,0,0,0,0,0,0,0,0,0,0,0,0,0,0,0,0],"sum_hessian":[1.0355911E3,1.00950806E3,2.6082975E1,6.6433716E2,3.451709E2,2.2737896E0,2.3809185E1,1.865888E2,4.7774835E2,3.3427963E2,1.0891275E1,1.1148535E0,1.158936E0,1.09840355E1,1.7560477E2,1.2445361E1,4.6530298E2,1.594664E2,1.7481323E2,6.7722917E0,4.1189833E0],"tree_param":{"num_deleted":"0","num_feature":"40","num_nodes":"21","size_leaf_vector":"1"}},{"base_weights":[1.0654012E-2,-2.6067032E-2,3.0058136E-2,1.2656736E-1,-3.9848924E-2,1.00196294E-1,1.2103379E0,-1.8170271E-2,-4.3888268E-1,5.1207185E-2,4.0962184E-3,9.165218E-2,-1.7674996E-2,2.934066E-2,-1.5825257E-3,5.4966207E-3,-2.723293E-2],"categories":[6,0,1,2,3,4,5,6,7,8,9,11,12,13],"categories_nodes":[6,7],"categories_segments":[0,1],"categories_sizes":[1,13],"default_left":[1,0,0,0,1,0,1,1,0,0,0,0,0,0,0,0,0],"id":58,"left_children":[1,-1,3,5,7,9,11,13,15,-1,-1,-1,-1,-1,-1,-1,-1],"loss_changes":[6.4042253E0,0E0,4.0398226E0,7.0655026E0,2.9987679E0,4.078883E0,6.377002E0,2.7156408E0,1.0970826E0,0E0,0E0,0E0,0E0,0E0,0E0,0E0,0E0],"parents":[2147483647,0,0,2,2,3,3,4,4,5,5,6,6,7,7,8,8],"right_children":[2,-1,4,6,8,10,12,14,16,-1,-1,-1,-1,-1,-1,-1,-1],"split_conditions":[3E0,-2.6067032E-2,-1.1471595E0,1.9E1,3.204678E-1,2.5212868E1,1E-45,1E-45,2.5782341E1,5.1207185E-2,4.0962184E-3,9.165218E-2,-1.7674996E-2,2.934066E-2,-1.5825257E-3,5.4966207E-3,-2.723293E-2],"split_indices":[2,0,25,27,14,32,0,0,26,0,0,0,0,0,0,0,0],"split_type":[0,0,0,0,0,0,1,1,0,0,0,0,0,0,0,0,0],"sum_hessian":[6.178727E2,2.0833094E1,5.970396E2,2.5046E2,3.465796E2,2.455769E2,4.883098E0,3.2971252E2,1.6867043E1,3.6947794E0,2.4188213E2,3.3693216E0,1.5137765E0,6.259496E0,3.2345303E2,2.719211E0,1.4147833E1],"tree_param":{"num_deleted":"0","num_feature":"40","num_nodes":"17","size_leaf_vector":"1"}},{"base_weights":[2.4225844E-2,-2.4911147E-2,1.0675888E0,-1.9736904E-1,1.2461681E0,1.1518984E-2,-1.9103557E-2,1.3287169E0,-1.4156249E-2,7.1663916E-2,1.1092955E-2],"categories":[],"categories_nodes":[],"categories_segments":[],"categories_sizes":[],"default_left":[1,0,1,0,0,0,0,0,0,0,0],"id":59,"left_children":[1,-1,3,5,7,-1,-1,9,-1,-1,-1],"loss_changes":[4.9322975E1,0E0,7.0642395E0,4.5123205E-1,3.7324638E0,0E0,0E0,2.6216965E0,0E0,0E0,0E0],"parents":[2147483647,0,0,2,2,3,3,4,4,7,7],"right_children":[2,-1,4,6,8,-1,-1,10,-1,-1,-1],"split_conditions":[5E0,-2.4911147E-2,-4.2857143E-1,-2.869018E-1,8.934727E1,1.1518984E-2,-1.9103557E-2,8.996118E1,-1.4156249E-2,7.1663916E-2,1.1092955E-2],"split_indices":[2,0,10,12,21,0,0,20,0,0,0],"split_type":[0,0,0,0,0,0,0,0,0,0,0],"sum_hessian":[8.850788E1,5.9324493E1,2.9183392E1,3.5972483E0,2.5586143E1,1.0102717E0,2.5869765E0,2.4400215E1,1.185927E0,2.2024702E1,2.3755145E0],"tree_param":{"num_deleted":"0","num_feature":"40","num_nodes":"11","size_leaf_vector":"1"}},{"base_weights":[1.9315734E-3,5.929375E-1,-2.4243277E-2,6.0812044E-1,2.9742427E-5,-1.2987003E-1,1.9630335E-2,7.3206844E-4,6.2321883E-1,-5.373303E-2,-3.0693054E-1,-1.648542E-1,4.164833E-2,3.1944964E-2,1.0295076E-3,3.1032613E-2,-4.016641E-3,-2.9069973E-2,-1.021856E-2,-4.0023155E-3,-3.5544775E-2,-3.9433002E-2,2.3285833E-3],"categories":[0,1,2,3,5,9,10,11,12,13,0,3,7,10,12],"categories_nodes":[1,5],"categories_segments":[0,10],"categories_sizes":[10,5],"default_left":[1,1,0,0,0,1,0,0,1,0,0,1,0,0,0,0,0,0,0,0,0,0,0],"id":60,"left_children":[1,3,5,7,-1,9,11,-1,13,15,17,19,21,-1,-1,-1,-1,-1,-1,-1,-1,-1,-1],"loss_changes":[1.920569E1,4.7317314E-1,5.512358E0,4.5087814E-1,0E0,4.688959E0,3.4225483E0,0E0,4.5968628E-1,4.4501743E0,2.8297348E0,4.1044016E0,3.1109471E0,0E0,0E0,0E0,0E0,0E0,0E0,0E0,0E0,0E0,0E0],"parents":[2147483647,0,0,1,1,2,2,3,3,5,5,6,6,8,8,9,9,10,10,11,11,12,12],"right_children":[2,4,6,8,-1,10,12,-1,14,16,18,20,22,-1,-1,-1,-1,-1,-1,-1,-1,-1,-1],"split_conditions":[2E0,1E-45,0E0,-9.5894394E1,2.9742427E-5,1E-45,2.4761122E1,7.3206844E-4,5.3846157E-1,-4.067711E0,-3.4442163E0,2.454652E-1,-6E0,3.1944964E-2,1.0295076E-3,3.1032613E-2,-4.016641E-3,-2.9069973E-2,-1.021856E-2,-4.0023155E-3,-3.5544775E-2,-3.9433002E-2,2.3285833E-3],"split_indices":[2,0,11,20,0,0,26,0,11,12,25,14,15,0,0,0,0,0,0,0,0,0,0],"split_type":[0,1,0,0,0,1,0,0,0,0,0,0,0,0,0,0,0,0,0,0,0,0,0],"sum_hessian":[1.2395912E3,5.1653183E1,1.187938E3,5.0336327E1,1.3168563E0,3.4804688E2,8.398912E2,1.2976785E0,4.9038647E1,2.443E2,1.0374689E2,8.886032E1,7.510308E2,4.7736355E1,1.3022915E0,8.422827E0,2.3587718E2,2.6951225E1,7.679566E1,7.790688E1,1.095344E1,3.4886618E0,7.475422E2],"tree_param":{"num_deleted":"0","num_feature":"40","num_nodes":"23","size_leaf_vector":"1"}},{"base_weights":[1.2445837E-3,-5.092057E-1,2.1063635E-2,7.238198E-3,-5.3146976E-1,1.2908007E-1,-2.4839077E-2,1.9094322E-3,-5.5373394E-1,6.483173E-1,9.952096E-2,-8.901013E-2,4.3301497E-2,-2.886336E-2,-3.3409346E-3,4.4396814E-2,-1.4503946E-2,1.572884E-3,1.5329833E-2,-3.7518747E-3,-3.1060958E-2,4.25449E-3,-1.1166251E-2],"categories":[0,1,2,3,4,6,7,8,9,10,11,12,13,1,2,4,5,7,8,9,10,11,13],"categories_nodes":[1,2],"categories_segments":[0,13],"categories_sizes":[13,10],"default_left":[1,0,1,0,0,1,1,0,1,1,0,1,0,0,0,0,0,0,0,0,0,0,0],"id":61,"left_children":[1,3,5,-1,7,9,11,-1,13,15,17,19,21,-1,-1,-1,-1,-1,-1,-1,-1,-1,-1],"loss_changes":[1.0489082E1,6.411629E-1,4.9515524E0,0E0,4.9916363E-1,4.5060477E0,3.0700066E0,0E0,3.7779713E-1,3.8234186E0,3.9780943E0,2.6412685E0,3.8157027E0,0E0,0E0,0E0,0E0,0E0,0E0,0E0,0E0,0E0,0E0],"parents":[2147483647,0,0,1,1,2,2,4,4,5,5,6,6,8,8,9,9,10,10,11,11,12,12],"right_children":[2,4,6,-1,8,10,12,-1,14,16,18,20,22,-1,-1,-1,-1,-1,-1,-1,-1,-1,-1],