{"learner":{"attributes":{"best_iteration":"61","best_score":"1.0505691970426598","scikit_learn":"{\"_estimator_type\": \"classifier\"}"},"feature_names":["weight_class","title_fight","scheduled_rounds","career_fights_diff","career_wins_diff","career_win_rate_diff","career_finish_rate_diff","kd_pf_diff","sub_att_pf_diff","td_landed_pf_diff","td_acc_diff","td_def_diff","sig_pm_diff","sig_absorbed_pm_diff","ctrl_share_diff","streak_diff","days_since_last_diff","last5_win_rate_diff","last5_avg_opp_elo_diff","elo_diff","striking_elo_diff","grappling_elo_diff","elo_fights_diff","height_diff","reach_diff","age_diff","age_a","career_fights_a","reach_missing_a","dob_missing_a","southpaw_a","debut_a","age_b","career_fights_b","reach_missing_b","dob_missing_b","southpaw_b","debut_b","debut_matchup","stance_mismatch"],"feature_types":["c","int","float","int","float","float","float","float","float","float","float","float","float","float","float","int","float","float","float","float","float","float","int","float","float","float","float","int","int","int","int","int","float","int","int","int","int","int","int","int"],"gradient_booster":{"model":{"cats":{"enc":[{"offsets":[0,12,24,37,46,57,74,85,97,108,120,140,161,178,197],"values":[66,97,110,116,97,109,119,101,105,103,104,116,67,97,116,99,104,32,87,101,105,103,104,116,70,101,97,116,104,101,114,119,101,105,103,104,116,70,108,121,119,101,105,103,104,116,72,101,97,118,121,119,101,105,103,104,116,76,105,103,104,116,32,72,101,97,118,121,119,101,105,103,104,116,76,105,103,104,116,119,101,105,103,104,116,77,105,100,100,108,101,119,101,105,103,104,116,79,112,101,110,32,87,101,105,103,104,116,87,101,108,116,101,114,119,101,105,103,104,116,87,111,109,101,110,39,115,32,66,97,110,116,97,109,119,101,105,103,104,116,87,111,109,101,110,39,115,32,70,101,97,116,104,101,114,119,101,105,103,104,116,87,111,109,101,110,39,115,32,70,108,121,119,101,105,103,104,116,87,111,109,101,110,39,115,32,83,116,114,97,119,119,101,105,103,104,116]},{"offsets":[],"values":[]},{"offsets":[],"values":[]},{"offsets":[],"values":[]},{"offsets":[],"values":[]},{"offsets":[],"values":[]},{"offsets":[],"values":[]},{"offsets":[],"values":[]},{"offsets":[],"values":[]},{"offsets":[],"values":[]},{"offsets":[],"values":[]},{"offsets":[],"values":[]},{"offsets":[],"values":[]},{"offsets":[],"values":[]},{"offsets":[],"values":[]},{"offsets":[],"values":[]},{"offsets":[],"values":[]},{"offsets":[],"values":[]},{"offsets":[],"values":[]},{"offsets":[],"values":[]},{"offsets":[],"values":[]},{"offsets":[],"values":[]},{"offsets":[],"values":[]},{"offsets":[],"values":[]},{"offsets":[],"values":[]},{"offsets":[],"values":[]},{"offsets":[],"values":[]},{"offsets":[],"values":[]},{"offsets":[],"values":[]},{"offsets":[],"values":[]},{"offsets":[],"values":[]},{"offsets":[],"values":[]},{"offsets":[],"values":[]},{"offsets":[],"values":[]},{"offsets":[],"values":[]},{"offsets":[],"values":[]},{"offsets":[],"values":[]},{"offsets":[],"values":[]},{"offsets":[],"values":[]},{"offsets":[],"values":[]}],"feature_segments":[0,14,14,14,14,14,14,14,14,14,14,14,14,14,14,14,14,14,14,14,14,14,14,14,14,14,14,14,14,14,14,14,14,14,14,14,14,14,14,14,14],"sorted_idx":[0,1,2,3,4,5,6,7,8,9,10,11,12,13]},"gbtree_model_param":{"num_parallel_tree":"1","num_trees":"448"},"iteration_indptr":[0,4,8,12,16,20,24,28,32,36,40,44,48,52,56,60,64,68,72,76,80,84,88,92,96,100,104,108,112,116,120,124,128,132,136,140,144,148,152,156,160,164,168,172,176,180,184,188,192,196,200,204,208,212,216,220,224,228,232,236,240,244,248,252,256,260,264,268,272,276,280,284,288,292,296,300,304,308,312,316,320,324,328,332,336,340,344,348,352,356,360,364,368,372,376,380,384,388,392,396,400,404,408,412,416,420,424,428,432,436,440,444,448],"tree_info":[0,1,2,3,0,1,2,3,0,1,2,3,0,1,2,3,0,1,2,3,0,1,2,3,0,1,2,3,0,1,2,3,0,1,2,3,0,1,2,3,0,1,2,3,0,1,2,3,0,1,2,3,0,1,2,3,0,1,2,3,0,1,2,3,0,1,2,3,0,1,2,3,0,1,2,3,0,1,2,3,0,1,2,3,0,1,2,3,0,1,2,3,0,1,2,3,0,1,2,3,0,1,2,3,0,1,2,3,0,1,2,3,0,1,2,3,0,1,2,3,0,1,2,3,0,1,2,3,0,1,2,3,0,1,2,3,0,1,2,3,0,1,2,3,0,1,2,3,0,1,2,3,0,1,2,3,0,1,2,3,0,1,2,3,0,1,2,3,0,1,2,3,0,1,2,3,0,1,2,3,0,1,2,3,0,1,2,3,0,1,2,3,0,1,2,3,0,1,2,3,0,1,2,3,0,1,2,3,0,1,2,3,0,1,2,3,0,1,2,3,0,1,2,3,0,1,2,3,0,1,2,3,0,1,2,3,0,1,2,3,0,1,2,3,0,1,2,3,0,1,2,3,0,1,2,3,0,1,2,3,0,1,2,3,0,1,2,3,0,1,2,3,0,1,2,3,0,1,2,3,0,1,2,3,0,1,2,3,0,1,2,3,0,1,2,3,0,1,2,3,0,1,2,3,0,1,2,3,0,1,2,3,0,1,2,3,0,1,2,3,0,1,2,3,0,1,2,3,0,1,2,3,0,1,2,3,0,1,2,3,0,1,2,3,0,1,2,3,0,1,2,3,0,1,2,3,0,1,2,3,0,1,2,3,0,1,2,3,0,1,2,3,0,1,2,3,0,1,2,3,0,1,2,3,0,1,2,3,0,1,2,3,0,1,2,3,0,1,2,3,0,1,2,3,0,1,2,3,0,1,2,3,0,1,2,3,0,1,2,3,0,1,2,3,0,1,2,3,0,1,2,3,0,1,2,3,0,1,2,3,0,1,2,3,0,1,2,3],"trees":[{"base_weights":[-8.263E-4,8.7113875E-1,-5.0774556E-2,1.8123467E-1,4.5019444E-2,-1.5640733E-1,3.3890773E-2,-1.2865046E-2,2.7344806E-2,4.6788022E-2,-2.0647259E-1,8.4836826E-2,-1.2892559E-1,-1.353876E-2,8.046728E-3,-4.2683217E-3,-1.498385E-2,2.0436726E-3,1.769804E-2,-1.6449912E-2,4.709648E-4],"categories":[0,1,2,3,10,12,13],"categories_nodes":[6],"categories_segments":[0],"categories_sizes":[7],"default_left":[1,0,0,0,0,1,1,0,0,0,0,0,0,0,0,0,0,0,0,0,0],"id":0,"left_children":[1,3,5,7,-1,9,11,-1,-1,13,15,17,19,-1,-1,-1,-1,-1,-1,-1,-1],"loss_changes":[5.3796616E1,1.1872787E0,1.0453537E1,7.779547E-1,0E0,5.2990904E0,5.396879E0,0E0,0E0,3.798938E0,4.685272E0,5.8441133E0,4.297428E0,0E0,0E0,0E0,0E0,0E0,0E0,0E0,0E0],"parents":[2147483647,0,0,1,1,2,2,3,3,5,5,6,6,9,9,10,10,11,11,12,12],"right_children":[2,4,6,8,-1,10,12,-1,-1,14,16,18,20,-1,-1,-1,-1,-1,-1,-1,-1],"split_conditions":[2E0,-9.178514E1,2.612403E-1,2E0,4.5019444E-2,-5.3846157E-1,1E-45,-1.2865046E-2,2.7344806E-2,-3.2740297E0,0E0,3.4351814E1,-1.3629125E-1,-1.353876E-2,8.046728E-3,-4.2683217E-3,-1.498385E-2,2.0436726E-3,1.769804E-2,-1.6449912E-2,4.709648E-4],"split_indices":[2,21,10,2,0,6,0,0,0,12,22,32,20,0,0,0,0,0,0,0,0],"split_type":[0,0,0,0,0,0,1,0,0,0,0,0,0,0,0,0,0,0,0,0,0],"sum_hessian":[1.2331796E3,6.592158E1,1.1672579E3,2.9739056E0,6.294767E1,5.1894653E2,6.4831146E2,1.4869528E0,1.4869528E0,1.0259975E2,4.163468E2,4.94164E2,1.5414745E2,2.6765152E1,7.5834595E1,1.819039E2,2.344429E2,4.2576416E2,6.839983E1,6.245202E1,9.169543E1],"tree_param":{"num_deleted":"0","num_feature":"40","num_nodes":"21","size_leaf_vector":"1"}},{"base_weights":[6.0568266E-3,-6.2011504E-1,4.0203936E-2,7.0437685E-2,-6.5450865E-1,8.2155174E-1,3.1510472E-2,2.5042553E-2,-1.9569986E-2,-3.4599494E-2,-1.3376752E-1,-1.9569986E-2,1.0173389E0,-6.999304E-2,9.0637185E-2,-2.3820814E-2,1.5632985E-2,1.22263525E-2,6.554377E-2,-4.7466177E-3,1.4552258E-2,-1.6906891E-3,8.066293E-3],"categories":[],"categories_nodes":[],"categories_segments":[],"categories_sizes":[],"default_left":[1,0,0,0,1,1,0,0,0,0,0,0,0,1,1,0,0,0,0,0,0,0,0],"id":1,"left_children":[1,3,5,7,9,11,13,-1,-1,-1,15,-1,17,19,21,-1,-1,-1,-1,-1,-1,-1,-1],"loss_changes":[2.2486683E1,1.3377876E0,6.7471337E0,8.8839597E-1,9.204674E-1,2.9943633E0,5.9309883E0,0E0,0E0,0E0,8.7166244E-1,0E0,1.8777676E0,3.3045468E0,5.4971027E0,0E0,0E0,0E0,0E0,0E0,0E0,0E0,0E0],"parents":[2147483647,0,0,1,1,2,2,3,3,4,4,5,5,6,6,10,10,12,12,13,13,14,14],"right_children":[2,4,6,8,10,12,14,-1,-1,-1,16,-1,18,20,22,-1,-1,-1,-1,-1,-1,-1,-1],"split_conditions":[2E0,-9.178514E1,-1.8379325E0,2E0,2.7104723E0,-3.5017111E0,-7.825721E0,2.5042553E-2,-1.9569986E-2,-3.4599494E-2,1E0,-1.9569986E-2,-4.6666667E-1,9.464286E-1,-5.08E0,-2.3820814E-2,1.5632985E-2,1.22263525E-2,6.554377E-2,-4.7466177E-3,1.4552258E-2,-1.6906891E-3,8.066293E-3],"split_indices":[2,21,14,2,25,25,21,0,0,0,38,0,8,8,24,0,0,0,0,0,0,0,0],"split_type":[0,0,0,0,0,0,0,0,0,0,0,0,0,0,0,0,0,0,0,0,0,0,0],"sum_hessian":[1.0495002E3,5.338546E1,9.9611475E2,2.4830446E0,5.0902416E1,9.9321785E0,9.8618256E2,1.2415223E0,1.2415223E0,4.717785E1,3.724567E0,1.2415223E0,8.690657E0,3.6293835E2,6.232442E2,2.0692039E0,1.6553631E0,2.8968854E0,5.793771E0,3.4017712E2,2.2761242E1,2.2595706E2,3.9728714E2],"tree_param":{"num_deleted":"0","num_feature":"40","num_nodes":"23","size_leaf_vector":"1"}},{"base_weights":[-4.338047E-3,-2.8336028E-2,2.9350478E-2,3.78648E-1,-1.27443485E-2,5.285443E-1,-3.5451412E-1,9.3795943E-1,-2.673052E-2,4.0393513E-2,8.73156E-3,1.4474048E-2,-2.6041513E-2,7.2524594E-3,8.699292E-2,2.0129962E-2,-2.1903769E-3],"categories":[1,2,3,4,6,7,0,1,2,3,4,5,6,7,8,9,11,12],"categories_nodes":[7,8],"categories_segments":[0,6],"categories_sizes":[6,12],"default_left":[1,0,0,0,0,1,0,1,1,0,0,0,0,0,0,0,0],"id":2,"left_children":[1,-1,3,5,7,9,11,13,15,-1,-1,-1,-1,-1,-1,-1,-1],"loss_changes":[1.1749539E1,0E0,8.609928E0,7.1082916E0,6.982724E0,5.0674286E0,1.3598402E0,4.588876E0,3.805525E0,0E0,0E0,0E0,0E0,0E0,0E0,0E0,0E0],"parents":[2147483647,0,0,2,2,3,3,4,4,5,5,6,6,7,7,8,8],"right_children":[2,-1,4,6,8,10,12,14,16,-1,-1,-1,-1,-1,-1,-1,-1],"split_conditions":[3E0,-2.8336028E-2,-1.4047619E0,1.9628399E1,-1.2533881E1,2.0561259E0,-2.54E0,1E-45,1E-45,4.0393513E-2,8.73156E-3,1.4474048E-2,-2.6041513E-2,7.2524594E-3,8.699292E-2,2.0129962E-2,-2.1903769E-3],"split_indices":[2,0,9,21,25,25,24,0,0,0,0,0,0,0,0,0,0],"split_type":[0,0,0,0,0,0,0,1,1,0,0,0,0,0,0,0,0],"sum_hessian":[6.182868E2,3.404987E1,5.8423694E2,6.197566E1,5.222613E2,5.168721E1,1.0288449E1,6.614003E0,5.156473E2,2.8170753E1,2.3516457E1,1.9597046E0,8.328745E0,3.9194093E0,2.694594E0,1.8862158E1,4.9678513E2],"tree_param":{"num_deleted":"0","num_feature":"40","num_nodes":"17","size_leaf_vector":"1"}},{"base_weights":[2.5931912E-2,-2.5429282E-1,3.2774942E0,-3.8252175E-1,7.0429075E-1,-7.95756E-2,5.0696297E0,-4.8316482E-1,-3.8012512E-2,-1.5516134E-1,1.9806454E0,-1.5220198E-2,1.177857E-2,6.4599915E0,6.394006E-2,-6.466371E-3,-2.4996316E-2,3.121371E-2,-1.6037943E-2,3.645255E-2,-2.125862E-2,1.6046073E-1,2.871688E-3,3.9455587E-1,8.5800506E-2],"categories":[0,1,2,3,4,5,1,3,5,6,7,8,9,10,11,12,13],"categories_nodes":[5,8],"categories_segments":[0,6],"categories_sizes":[6,11],"default_left":[0,0,0,1,1,0,0,0,1,0,0,0,0,0,0,0,0,0,0,0,0,0,0,0,0],"id":3,"left_children":[1,3,5,7,9,11,13,15,17,19,21,-1,-1,23,-1,-1,-1,-1,-1,-1,-1,-1,-1,-1,-1],"loss_changes":[8.34336E1,1.064226E1,4.4110466E1,2.5848303E0,1.1615528E1,3.206171E-1,1.6783722E1,2.7945232E-1,3.5821254E0,2.002157E0,9.788712E0,0E0,0E0,8.38678E0,0E0,0E0,0E0,0E0,0E0,0E0,0E0,0E0,0E0,0E0,0E0],"parents":[2147483647,0,0,1,1,2,2,3,3,4,4,5,5,6,6,7,7,8,8,9,9,10,10,13,13],"right_children":[2,4,6,8,10,12,14,16,18,20,22,-1,-1,24,-1,-1,-1,-1,-1,-1,-1,-1,-1,-1,-1],"split_conditions":[1E0,1.2E1,4E0,6.25E-2,2.683939E-1,1E-45,2E0,-6.25E-1,1E-45,-3.83032E1,-9.476043E-1,-1.5220198E-2,1.177857E-2,3.2473648E1,6.394006E-2,-6.466371E-3,-2.4996316E-2,3.121371E-2,-1.6037943E-2,3.645255E-2,-2.125862E-2,1.6046073E-1,2.871688E-3,3.9455587E-1,8.5800506E-2],"split_indices":[1,27,27,7,14,0,4,6,0,19,13,0,0,32,0,0,0,0,0,0,0,0,0,0,0],"split_type":[0,0,0,0,0,1,0,0,1,0,0,0,0,0,0,0,0,0,0,0,0,0,0,0,0],"sum_hessian":[8.965304E1,8.33883E1,6.2647405E0,7.4079666E1,9.308625E0,2.512975E0,3.7517653E0,5.7019756E1,1.7059914E1,6.0877705E0,3.2208552E0,1.4865485E0,1.0264263E0,2.2298229E0,1.5219426E0,2.973097E0,5.4046658E1,4.742798E0,1.2317117E1,1.0264263E0,5.0613437E0,1.5573366E0,1.6635187E0,1.2033964E0,1.0264263E0],"tree_param":{"num_deleted":"0","num_feature":"40","num_nodes":"25","size_leaf_vector":"1"}},{"base_weights":[-1.7008413E-2,8.164232E-1,-6.626768E-2,2.588775E-1,8.4144783E-1,-3.0740315E-2,-3.6059672E-1,2.9932512E-2,-1.2561698E-2,4.3480225E-2,4.4078362E-1,-3.7308475E-1,-1.1827792E-2,-4.1650224E-1,1.2887202E-1,3.311211E-2,3.0632075E-3,1.1142494E-2,-2.459648E-2,4.013262E-3,-3.9795884E-3,3.272977E-2,-2.2294734E-2,2.09623E-2,-2.3863E-2],"categories":[0,2,3,6,7,8,10,12,13],"categories_nodes":[12],"categories_segments":[0],"categories_sizes":[9],"default_left":[1,0,0,0,1,0,0,0,0,0,0,0,1,0,0,0,0,0,0,0,0,0,0,0,0],"id":4,"left_children":[1,3,5,7,9,11,13,-1,-1,-1,15,17,19,21,23,-1,-1,-1,-1,-1,-1,-1,-1,-1,-1],"loss_changes":[5.1733532E1,7.6335144E-1,1.2427044E1,9.2431355E-1,3.709526E-1,6.874615E0,3.5568428E0,0E0,0E0,0E0,4.9883807E-1,4.046676E0,6.2961216E0,3.916542E0,2.64426E0,0E0,0E0,0E0,0E0,0E0,0E0,0E0,0E0,0E0,0E0],"parents":[2147483647,0,0,1,1,2,2,3,3,4,4,5,5,6,6,10,10,11,11,12,12,13,13,14,14],"right_children":[2,4,6,8,10,12,14,-1,-1,-1,16,18,20,22,24,-1,-1,-1,-1,-1,-1,-1,-1,-1,-1],"split_conditions":[2E0,-9.178514E1,5E0,-2.54E0,2.7104723E0,-2E0,5.882353E-1,2.9932512E-2,-1.2561698E-2,4.3480225E-2,1E0,-7.1666664E-1,1E-45,-1.1E1,1.4538461E0,3.311211E-2,3.0632075E-3,1.1142494E-2,-2.459648E-2,4.013262E-3,-3.9795884E-3,3.272977E-2,-2.2294734E-2,2.09623E-2,-2.3863E-2],"split_indices":[2,21,2,23,25,9,10,0,0,0,38,8,0,4,9,0,0,0,0,0,0,0,0,0,0],"split_type":[0,0,0,0,0,0,0,0,0,0,0,0,1,0,0,0,0,0,0,0,0,0,0,0,0],"sum_hessian":[1.257809E3,6.9323906E1,1.1884851E3,3.4651718E0,6.5858734E1,1.0614642E3,1.2702093E2,1.9756634E0,1.4895084E0,6.0440845E1,5.41789E0,5.458938E1,1.0068748E3,1.1413399E2,1.2886941E1,2.9509766E0,2.4669137E0,8.930954E0,4.5658424E1,4.2673972E2,5.801351E2,2.4802303E0,1.11653755E2,8.921383E0,3.9655576E0],"tree_param":{"num_deleted":"0","num_feature":"40","num_nodes":"25","size_leaf_vector":"1"}},{"base_weights":[1.43976845E-2,-6.1177325E-1,4.9960002E-2,-1.5415976E-2,-6.439435E-1,8.5477823E-1,4.01195E-2,-2.1877555E-2,2.4238108E-2,3.182629E-3,-6.617797E-1,-8.549894E-2,1.2299138E0,2.8789392E-1,1.5924348E-2,-3.4003597E-2,-1.0256517E-2,-2.3768267E-2,2.3914713E-2,1.54553745E-2,7.03088E-2,3.605211E-3,3.171325E-2,-3.5966297E-3,4.210809E-3],"categories":[0,1,2,3,4,6,7,8,9,10,11,12,13],"categories_nodes":[4],"categories_segments":[0],"categories_sizes":[13],"default_left":[1,0,0,0,0,1,0,0,0,0,1,1,0,0,1,0,0,0,0,0,0,0,0,0,0],"id":5,"left_children":[1,3,5,7,9,11,13,-1,-1,-1,15,17,19,21,23,-1,-1,-1,-1,-1,-1,-1,-1,-1,-1],"loss_changes":[2.3333515E1,1.0704575E0,7.815501E0,1.0370177E0,7.1616936E-1,4.3108606E0,5.8718667E0,0E0,0E0,0E0,2.963791E-1,1.1802874E0,9.5918655E-1,6.467836E0,5.370515E0,0E0,0E0,0E0,0E0,0E0,0E0,0E0,0E0,0E0,0E0],"parents":[2147483647,0,0,1,1,2,2,3,3,4,4,5,5,6,6,10,10,11,11,12,12,13,13,14,14],"right_children":[2,4,6,8,10,12,14,-1,-1,-1,16,18,20,22,24,-1,-1,-1,-1,-1,-1,-1,-1,-1,-1],"split_conditions":[2E0,-9.178514E1,-1.7538465E0,-2.54E0,1E-45,0E0,2.4605064E1,-2.1877555E-2,2.4238108E-2,3.182629E-3,5.026694E0,3.0800822E0,-6.333333E-1,2.3750856E1,-8.4E1,-3.4003597E-2,-1.0256517E-2,-2.3768267E-2,2.3914713E-2,1.54553745E-2,7.03088E-2,3.605211E-3,3.171325E-2,-3.5966297E-3,4.210809E-3],"split_indices":[2,21,14,23,0,24,26,0,0,0,25,25,8,26,16,0,0,0,0,0,0,0,0,0,0],"split_type":[0,0,0,0,1,0,0,0,0,0,0,0,0,0,0,0,0,0,0,0,0,0,0,0,0],"sum_hessian":[1.0454728E3,5.5314163E1,9.901586E2,2.9068806E0,5.2407284E1,1.0923248E1,9.7923535E2,1.6443276E0,1.2625531E0,1.225383E0,5.11819E1,3.33533E0,7.5879188E0,8.614585E1,8.9308954E2,4.8740227E1,2.4416747E0,2.0645356E0,1.2707943E0,1.6615477E0,5.926371E0,5.3822514E1,3.2323338E1,3.905703E2,5.025192E2],"tree_param":{"num_deleted":"0","num_feature":"40","num_nodes":"25","size_leaf_vector":"1"}},{"base_weights":[-1.03431605E-2,-2.8124098E-2,2.163306E-2,1.0241732E-1,-8.061326E-2,3.6053818E-1,5.1513396E-2,-3.0473305E-2,-3.475531E-1,2.7729718E-2,2.3232196E-3,1.890829E-2,-4.0416667E-4,-3.8490195E-3,2.1134865E-2,9.03063E-3,-2.025688E-2],"categories":[3,4,5,6,8,11],"categories_nodes":[2],"categories_segments":[0],"categories_sizes":[6],"default_left":[1,0,1,0,1,0,1,1,0,0,0,0,0,0,0,0,0],"id":6,"left_children":[1,-1,3,5,7,9,11,13,15,-1,-1,-1,-1,-1,-1,-1,-1],"loss_changes":[1.0875373E1,0E0,4.820253E0,4.2633276E0,3.438426E0,3.2358155E0,5.324848E0,4.6278253E0,1.3095865E0,0E0,0E0,0E0,0E0,0E0,0E0,0E0,0E0],"parents":[2147483647,0,0,2,2,3,3,4,4,5,5,6,6,7,7,8,8],"right_children":[2,-1,4,6,8,10,12,14,16,-1,-1,-1,-1,-1,-1,-1,-1],"split_conditions":[3E0,-2.8124098E-2,1E-45,-9.8245615E-1,2.5E-1,9.644939E-2,2.530048E1,3.181818E-1,-4.8493702E1,2.7729718E-2,2.3232196E-3,1.890829E-2,-4.0416667E-4,-3.8490195E-3,2.1134865E-2,9.03063E-3,-2.025688E-2],"split_indices":[2,0,0,9,17,10,26,7,19,0,0,0,0,0,0,0,0],"split_type":[0,0,1,0,0,0,0,0,0,0,0,0,0,0,0,0,0],"sum_hessian":[6.1429376E2,3.2720078E1,5.815737E2,3.2488342E2,2.5669028E2,5.2514256E1,2.7236917E2,2.1703772E2,3.965256E1,3.1985575E1,2.0528679E1,4.1200726E1,2.3116844E2,1.9758998E2,1.944774E1,3.6881666E0,3.5964394E1],"tree_param":{"num_deleted":"0","num_feature":"40","num_nodes":"17","size_leaf_vector":"1"}},{"base_weights":[-5.0192535E-2,-2.8761935E-1,2.4839077E0,-3.9453167E-1,5.1536393E-1,5.289816E-4,3.272542E0,6.903213E-2,-4.4222715E-1,-2.0791708E-2,1.3022059E0,4.096939E-2,4.0165534E0,4.2585045E-2,-1.3325053E-2,-2.2809414E-2,1.0799587E-2,1.6418943E-2,1.1825522E-1,7.0652366E-2,2.3602429E-1],"categories":[0,1,3,4,5,6,7,8,9,10,11,12],"categories_nodes":[3],"categories_segments":[0],"categories_sizes":[12],"default_left":[0,0,1,0,1,0,0,0,1,0,1,0,0,0,0,0,0,0,0,0,0],"id":7,"left_children":[1,3,5,7,9,-1,11,13,15,-1,17,-1,19,-1,-1,-1,-1,-1,-1,-1,-1],"loss_changes":[5.5128933E1,7.379315E0,1.5280048E1,1.6740332E0,8.055569E0,0E0,7.5686607E0,2.2752328E0,7.191334E-1,0E0,5.2273254E0,0E0,1.2269592E0,0E0,0E0,0E0,0E0,0E0,0E0,0E0,0E0],"parents":[2147483647,0,0,1,1,2,2,3,3,4,4,6,6,7,7,8,8,10,10,12,12],"right_children":[2,4,6,8,10,-1,12,14,16,-1,18,-1,20,-1,-1,-1,-1,-1,-1,-1,-1],"split_conditions":[1E0,1.2E1,-3.7097878E0,1E-45,1.25E-1,5.289816E-4,5E0,-3.3646323E-2,3.936482E1,-2.0791708E-2,5.08E0,4.096939E-2,-1.826923E-1,4.2585045E-2,-1.3325053E-2,-2.2809414E-2,1.0799587E-2,1.6418943E-2,1.1825522E-1,7.0652366E-2,2.3602429E-1],"split_indices":[1,27,25,0,9,0,33,10,32,0,24,0,7,0,0,0,0,0,0,0,0],"split_type":[0,0,0,1,0,0,0,0,0,0,0,0,0,0,0,0,0,0,0,0,0],"sum_hessian":[8.944013E1,8.258868E1,6.851459E0,7.333344E1,9.255232E0,1.9014658E0,4.949993E0,6.7995615E0,6.653388E1,4.4547343E0,4.8004975E0,1.6409063E0,3.3090868E0,1.578705E0,5.220856E0,6.545254E1,1.0813408E0,3.1883132E0,1.6121842E0,1.3443497E0,1.964737E0],"tree_param":{"num_deleted":"0","num_feature":"40","num_nodes":"21","size_leaf_vector":"1"}},{"base_weights":[-8.334018E-3,7.860423E-1,-5.1726554E-2,3.7659064E-3,8.1267124E-1,-2.2164099E-2,-2.9609844E-1,1.1792886E-2,8.272057E-1,9.490994E-2,-7.44456E-2,3.5004355E-2,-3.2893264E-1,4.2122316E-2,1.9497825E-2,-2.669896E-2,6.151236E-3,-2.99995E-2,-2.8643617E-3,-1.9226551E-2,5.6631784E-3],"categories":[],"categories_nodes":[],"categories_segments":[],"categories_sizes":[],"default_left":[1,0,0,0,0,1,0,0,1,0,0,0,0,0,0,0,0,0,0,0,0],"id":8,"left_children":[1,3,5,-1,7,9,11,-1,13,15,17,-1,19,-1,-1,-1,-1,-1,-1,-1,-1],"loss_changes":[4.373155E1,1.182457E0,8.682688E0,0E0,3.3506012E-1,6.58124E0,4.473357E0,0E0,7.9875946E-2,5.936062E0,6.6661205E0,0E0,3.1477842E0,0E0,0E0,0E0,0E0,0E0,0E0,0E0,0E0],"parents":[2147483647,0,0,1,1,2,2,4,4,5,5,6,6,8,8,9,9,10,10,12,12],"right_children":[2,4,6,-1,8,10,12,-1,14,16,18,-1,20,-1,-1,-1,-1,-1,-1,-1,-1],"split_conditions":[2E0,-9.178514E1,5E0,3.7659064E-3,2.2811773E1,-7.62E0,-1.1E1,1.1792886E-2,3.380972E1,-4.5E-1,-1.3004525E0,3.5004355E-2,7.5E-1,4.2122316E-2,1.9497825E-2,-2.669896E-2,6.151236E-3,-2.99995E-2,-2.8643617E-3,-1.9226551E-2,5.6631784E-3],"split_indices":[2,21,2,0,32,24,4,0,26,11,14,0,10,0,0,0,0,0,0,0,0],"split_type":[0,0,0,0,0,0,0,0,0,0,0,0,0,0,0,0,0,0,0,0,0],"sum_hessian":[1.2665048E3,6.47126E1,1.2017921E3,2.4753094E0,6.2237293E1,1.0730701E3,1.2872205E2,1.9531267E0,6.0284164E1,3.3101416E2,7.420559E2,3.4588606E0,1.2526319E2,5.735821E1,2.9259546E0,1.3394936E1,3.1761923E2,2.2387264E1,7.1966864E2,1.11388466E2,1.387473E1],"tree_param":{"num_deleted":"0","num_feature":"40","num_nodes":"21","size_leaf_vector":"1"}},{"base_weights":[-2.5278549E-3,-6.1500466E-1,3.0815631E-2,-6.4900845E-1,-1.6059592E-1,-1.0062466E-1,8.4217325E-2,-3.342556E-2,-2.1092321E-3,-2.4332566E-2,1.592097E-2,-4.5071512E-2,-5.0712556E-1,8.002495E-3,1.8896988E-1,2.8274639E-2,-4.030458E-3,-3.732804E-4,-3.0442229E-2,-8.347884E-3,4.4743684E-3,3.384382E-2,7.2173337E-3],"categories":[0,1,2,3,4,5],"categories_nodes":[4],"categories_segments":[0],"categories_sizes":[6],"default_left":[1,1,1,1,1,0,0,0,0,0,0,0,0,0,0,0,0,0,0,0,0,0,0],"id":9,"left_children":[1,3,5,7,9,11,13,-1,-1,-1,-1,15,17,19,21,-1,-1,-1,-1,-1,-1,-1,-1],"loss_changes":[2.1078938E1,7.191887E-1,6.879816E0,5.5467224E-1,9.4196504E-1,6.374222E0,5.560469E0,0E0,0E0,0E0,0E0,5.476945E0,1.7215242E0,5.7790084E0,6.2892885E0,0E0,0E0,0E0,0E0,0E0,0E0,0E0,0E0],"parents":[2147483647,0,0,1,1,2,2,3,3,4,4,5,5,6,6,11,11,12,12,13,13,14,14],"right_children":[2,4,6,8,10,12,14,-1,-1,-1,-1,16,18,20,22,-1,-1,-1,-1,-1,-1,-1,-1],"split_conditions":[2E0,2.7104723E0,-7.62E0,9.46954E0,1E-45,3.4913074E1,1.1879489E1,-3.342556E-2,-2.1092321E-3,-2.4332566E-2,1.592097E-2,-3.9259258E-1,-1.126078E1,-1.904762E-1,-3.9849624E-1,2.8274639E-2,-4.030458E-3,-3.732804E-4,-3.0442229E-2,-8.347884E-3,4.4743684E-3,3.384382E-2,7.2173337E-3],"split_indices":[2,25,24,12,0,32,19,0,0,0,0,11,25,8,6,0,0,0,0,0,0,0,0],"split_type":[0,0,0,0,1,0,0,0,0,0,0,0,0,0,0,0,0,0,0,0,0,0,0],"sum_hessian":[1.0302345E3,5.229001E1,9.7794446E2,4.825109E1,4.038916E0,2.8227716E2,6.956673E2,4.6650146E1,1.6009442E0,2.393661E0,1.6452549E0,2.4931606E2,3.29611E1,4.033085E2,2.9235883E2,1.2892935E1,2.3642311E2,5.7566957E0,2.7204405E1,1.2781712E2,2.7549136E2,2.331088E1,2.6904794E2],"tree_param":{"num_deleted":"0","num_feature":"40","num_nodes":"23","size_leaf_vector":"1"}},{"base_weights":[6.468814E-3,-2.797513E-2,3.9773136E-2,1.7091656E-1,-1.21482005E-2,-3.1419477E-1,2.2461666E-1,8.365214E-2,-1.302698E-1,-2.3659438E-2,1.9255476E-2,1.8740125E-2,5.597097E-4,2.4106087E-2,1.8662165E-4,1.4583184E-2,-1.0133867E-2],"categories":[],"categories_nodes":[],"categories_segments":[],"categories_sizes":[],"default_left":[1,0,0,0,1,0,0,0,0,0,0,0,0,0,0,0,0],"id":10,"left_children":[1,-1,3,5,7,9,11,13,15,-1,-1,-1,-1,-1,-1,-1,-1],"loss_changes":[1.17038145E1,0E0,3.9937782E0,4.403654E0,4.773763E0,2.0717497E0,4.8146367E0,7.4186716E0,5.829589E0,0E0,0E0,0E0,0E0,0E0,0E0,0E0,0E0],"parents":[2147483647,0,0,2,2,3,3,4,4,5,5,6,6,7,7,8,8],"right_children":[2,-1,4,6,8,10,12,14,16,-1,-1,-1,-1,-1,-1,-1,-1],"split_conditions":[3E0,-2.797513E-2,-2.631579E-2,-7.3032913E0,-9.8245615E-1,2E0,2E-1,3.3333335E-2,2.6045174E1,-2.3659438E-2,1.9255476E-2,1.8740125E-2,5.597097E-4,2.4106087E-2,1.8662165E-4,1.4583184E-2,-1.0133867E-2],"split_indices":[2,0,11,12,9,15,6,17,26,0,0,0,0,0,0,0,0],"split_type":[0,0,0,0,0,0,0,0,0,0,0,0,0,0,0,0,0],"sum_hessian":[6.187346E2,3.350768E1,5.852269E2,1.6533368E2,4.1989325E2,1.5994356E1,1.4933932E2,2.320142E2,1.8787903E2,1.3294956E1,2.6994004E0,8.7211945E1,6.2127384E1,3.7919548E1,1.9409467E2,2.707565E1,1.6080339E2],"tree_param":{"num_deleted":"0","num_feature":"40","num_nodes":"17","size_leaf_vector":"1"}},{"base_weights":[-4.2418383E-2,-2.5127096E-2,3.028129E0,3.9600139E0,9.7132665E-1,5.677544E-2,4.5691223E0,1.5557511E0,-1.5015975E-2,1.1226066E-1,2.917382E-1,5.342269E-3,1.2333013E-1],"categories":[],"categories_nodes":[],"categories_segments":[],"categories_sizes":[],"default_left":[1,0,0,1,0,0,0,0,0,0,0,0,0],"id":11,"left_children":[1,-1,3,5,7,-1,9,11,-1,-1,-1,-1,-1],"loss_changes":[1.3018823E2,0E0,1.917456E1,8.473221E0,4.2351494E0,0E0,5.139435E0,4.534233E0,0E0,0E0,0E0,0E0,0E0],"parents":[2147483647,0,0,2,2,3,3,4,4,6,6,7,7],"right_children":[2,-1,4,6,8,-1,10,12,-1,-1,-1,-1,-1],"split_conditions":[5E0,-2.5127096E-2,3.2785763E1,-2.7240142E-1,1.6336634E0,5.677544E-2,1.8382354E-2,-3.277595E0,-1.5015975E-2,1.1226066E-1,2.917382E-1,5.342269E-3,1.2333013E-1],"split_indices":[2,0,32,11,13,0,8,18,0,0,0,0,0],"split_type":[0,0,0,0,0,0,0,0,0,0,0,0,0],"sum_hessian":[9.006997E1,7.905923E1,1.1010741E1,6.940742E0,4.0699987E0,1.7393578E0,5.201384E0,2.6354027E0,1.4345961E0,2.8120353E0,2.389349E0,1.4485208E0,1.1868819E0],"tree_param":{"num_deleted":"0","num_feature":"40","num_nodes":"13","size_leaf_vector":"1"}},{"base_weights":[1.9497335E-2,-6.5419218E-3,7.582989E-1,1.4747503E-1,-7.534943E-2,8.003246E-1,2.647229E-1,5.743352E-1,1.0885284E-1,2.7387153E-2,-1.51252E-1,4.1236185E-2,1.0882736E-2,-1.4570107E-2,2.9494537E-2,1.5382138E-2,3.760862E-2,-1.8606147E-2,7.3111714E-3,-3.1916168E-2,2.2624119E-3,1.9753883E-2,-8.528003E-3],"categories":[],"categories_nodes":[],"categories_segments":[],"categories_sizes":[],"default_left":[0,1,1,1,1,1,0,0,0,0,0,0,0,0,0,0,0,0,0,0,0,0,0],"id":12,"left_children":[1,3,5,7,9,11,13,15,17,19,21,-1,-1,-1,-1,-1,-1,-1,-1,-1,-1,-1,-1],"loss_changes":[2.4299791E1,1.2949238E1,6.801472E-1,6.1583643E0,6.589734E0,3.7685585E-1,1.0522821E0,1.2424049E0,6.2962255E0,4.305593E0,5.19236E0,0E0,0E0,0E0,0E0,0E0,0E0,0E0,0E0,0E0,0E0,0E0,0E0],"parents":[2147483647,0,0,1,1,2,2,3,3,4,4,5,5,6,6,7,7,8,8,9,9,10,10],"right_children":[2,4,6,8,10,12,14,16,18,20,22,-1,-1,-1,-1,-1,-1,-1,-1,-1,-1,-1,-1],"split_conditions":[9.325668E1,-7.62E0,3.2810406E1,2.0514715E1,-3.809524E-1,1.524E1,-2.54E0,0E0,-3.3766234E-1,-1.3004525E0,-7.62E0,4.1236185E-2,1.0882736E-2,-1.4570107E-2,2.9494537E-2,1.5382138E-2,3.760862E-2,-1.8606147E-2,7.3111714E-3,-3.1916168E-2,2.2624119E-3,1.9753883E-2,-8.528003E-3],"split_indices":[32,24,26,26,8,23,23,23,11,14,23,0,0,0,0,0,0,0,0,0,0,0,0],"split_type":[0,0,0,0,0,0,0,0,0,0,0,0,0,0,0,0,0,0,0,0,0,0,0],"sum_hessian":[1.2618665E3,1.2198633E3,4.2003258E1,3.7633694E2,8.435263E2,3.8134777E1,3.868481E0,3.007471E1,3.4626224E2,3.5868024E2,4.8484607E2,3.6203358E1,1.9314213E0,1.4656549E0,2.402826E0,1.3123717E1,1.6950994E1,2.4318237E1,3.21944E2,8.464301E0,3.5021594E2,1.5885895E1,4.6896017E2],"tree_param":{"num_deleted":"0","num_feature":"40","num_nodes":"23","size_leaf_vector":"1"}},{"base_weights":[-1.5510731E-2,-5.8417803E-1,1.3860535E-2,7.1504444E-2,-6.1871225E-1,9.1172524E-2,-8.8403635E-2,2.4356304E-2,-1.9195143E-2,-3.28436E-2,-1.0666905E-1,-2.1858877E-1,1.3617331E-1,-2.4008772E-1,-3.0607587E-2,-1.8896993E-2,5.028817E-3,2.4433296E-2,-1.4147922E-2,2.1505356E-3,1.4343232E-2,2.8924486E-2,-1.3462271E-2,-2.5218788E-3,2.9521272E-2],"categories":[],"categories_nodes":[],"categories_segments":[],"categories_sizes":[],"default_left":[1,0,0,0,1,0,0,0,0,0,0,0,0,0,1,0,0,0,0,0,0,0,0,0,0],"id":13,"left_children":[1,3,5,7,9,11,13,-1,-1,-1,15,17,19,21,23,-1,-1,-1,-1,-1,-1,-1,-1,-1,-1],"loss_changes":[1.7546124E1,1.2124825E0,7.909822E0,8.452753E-1,8.896103E-1,7.970325E0,3.769261E0,0E0,0E0,0E0,2.9663756E-1,3.4453537E0,6.9790173E0,2.9890928E0,3.8853714E0,0E0,0E0,0E0,0E0,0E0,0E0,0E0,0E0,0E0,0E0],"parents":[2147483647,0,0,1,1,2,2,3,3,4,4,5,5,6,6,10,10,11,11,12,12,13,13,14,14],"right_children":[2,4,6,8,10,12,14,-1,-1,-1,16,18,20,22,24,-1,-1,-1,-1,-1,-1,-1,-1,-1,-1],"split_conditions":[2E0,-9.178514E1,4.3756824E0,-9.117043E-1,2.7104723E0,-1.48E2,4.1666666E-1,2.4356304E-2,-1.9195143E-2,-3.28436E-2,-4.1915634E1,-5.104895E-1,2.54E0,-1.3851902E0,8.712402E0,-1.8896993E-2,5.028817E-3,2.4433296E-2,-1.4147922E-2,2.1505356E-3,1.4343232E-2,2.8924486E-2,-1.3462271E-2,-2.5218788E-3,2.9521272E-2],"split_indices":[2,21,12,25,25,16,17,0,0,0,21,6,23,14,12,0,0,0,0,0,0,0,0,0,0],"split_type":[0,0,0,0,0,0,0,0,0,0,0,0,0,0,0,0,0,0,0,0,0,0,0,0,0],"sum_hessian":[1.0490256E3,5.059273E1,9.9843286E2,2.4777904E0,4.811494E1,5.6864453E2,4.2978833E2,1.2590685E0,1.2187221E0,4.4514664E1,3.6002755E0,7.164198E1,4.9700253E2,1.1770938E2,3.1207895E2,1.2025634E0,2.3977122E0,5.426572E0,6.621541E1,3.0792072E2,1.8908182E2,3.4005952E0,1.14308784E2,3.0331277E2,8.766191E0],"tree_param":{"num_deleted":"0","num_feature":"40","num_nodes":"25","size_leaf_vector":"1"}},{"base_weights":[1.5339565E-2,-2.7788088E-2,4.750088E-2,2.9946935E-1,9.709085E-3,4.910181E-1,-1.2175275E-1,-2.6577817E-2,3.2434303E-1,5.0335865E-2,9.798998E-3,-2.651467E-2,8.193038E-3,1.3888925E-2,-3.2756296E-3,3.4875765E-2,1.987532E-3],"categories":[0,1,5,6,8,9,10,11,12,13,1,2,3,4,5,6,7,8,9,11,12,0,1,5,6,8,9,11,12,13],"categories_nodes":[5,7,8],"categories_segments":[0,10,21],"categories_sizes":[10,11,9],"default_left":[1,0,0,0,1,1,0,1,1,0,0,0,0,0,0,0,0],"id":14,"left_children":[1,-1,3,5,7,9,11,13,15,-1,-1,-1,-1,-1,-1,-1,-1],"loss_changes":[1.1514868E1,0E0,5.644392E0,6.2979646E0,5.9083133E0,7.919338E0,3.0004835E0,5.5193777E0,5.6550746E0,0E0,0E0,0E0,0E0,0E0,0E0,0E0,0E0],"parents":[2147483647,0,0,2,2,3,3,4,4,5,5,6,6,7,7,8,8],"right_children":[2,-1,4,6,8,10,12,14,16,-1,-1,-1,-1,-1,-1,-1,-1],"split_conditions":[3E0,-2.7788088E-2,-1.1666666E0,6.4576364E-1,1.26E2,1E-45,-8.5637486E-1,1E-45,1E-45,5.0335865E-2,9.798998E-3,-2.651467E-2,8.193038E-3,1.3888925E-2,-3.2756296E-3,3.4875765E-2,1.987532E-3],"split_indices":[2,0,9,21,16,0,14,0,0,0,0,0,0,0,0,0,0],"split_type":[0,0,0,0,0,1,0,1,1,0,0,0,0,0,0,0,0],"sum_hessian":[6.2448254E2,3.2424652E1,5.920579E2,7.631568E1,5.157422E2,5.2345924E1,2.3969757E1,4.6323285E2,5.250937E1,1.8171562E1,3.4174362E1,9.510001E0,1.4459756E1,5.1842365E1,4.1139047E2,2.2091248E1,3.0418121E1],"tree_param":{"num_deleted":"0","num_feature":"40","num_nodes":"17","size_leaf_vector":"1"}},{"base_weights":[-9.685723E-3,-2.510486E-2,2.9955337E0,1.6442593E0,4.2144156E0,2.5750089E0,-1.7862352E-2,2.5111437E-1,8.422941E-2,2.2066837E-2,1.6986993E-1],"categories":[],"categories_nodes":[],"categories_segments":[],"categories_sizes":[],"default_left":[1,0,0,0,1,0,0,0,0,0,0],"id":15,"left_children":[1,-1,3,5,7,9,-1,-1,-1,-1,-1],"loss_changes":[1.333592E2,0E0,1.3967888E1,1.5183956E1,3.8654556E0,7.885315E0,0E0,0E0,0E0,0E0,0E0],"parents":[2147483647,0,0,2,2,3,3,4,4,5,5],"right_children":[2,-1,4,6,8,10,-1,-1,-1,-1,-1],"split_conditions":[5E0,-2.510486E-2,8E0,1.21212125E-1,6.08204E-1,-1.7828764E1,-1.7862352E-2,2.5111437E-1,8.422941E-2,2.2066837E-2,1.6986993E-1],"split_indices":[2,0,16,6,12,18,0,0,0,0,0],"split_type":[0,0,0,0,0,0,0,0,0,0,0],"sum_hessian":[8.8103096E1,7.641522E1,1.1687869E1,6.6569E0,5.0309696E0,4.348299E0,2.308601E0,3.066491E0,1.9644787E0,1.6372198E0,2.7110791E0],"tree_param":{"num_deleted":"0","num_feature":"40","num_nodes":"11","size_leaf_vector":"1"}},{"base_weights":[-2.6974038E-3,-3.926869E-2,6.8133813E-1,1.1358878E-1,-8.97802E-2,7.3250806E-1,9.534703E-2,-3.014285E-2,2.408033E-1,1.235712E-2,-1.5552242E-1,4.2999554E-3,7.470981E-1,2.9558396E-2,-3.562643E-1,4.6852357E-3,-1.51035115E-2,5.942774E-3,2.3571065E-2,1.5503617E-2,-1.0366066E-3,3.245994E-2,-8.308651E-3,3.9491814E-2,2.4127344E-2,5.438003E-3,-3.3692826E-2],"categories":[0,1,2,3,6,7,9,10,12,13,0,1,2,3,7,10,11,12,13,0,1,2,3,6,7,10,11,12,13],"categories_nodes":[1,2,12],"categories_segments":[0,10,19],"categories_sizes":[10,9,10],"default_left":[0,1,1,0,1,0,0,0,1,0,0,0,1,0,0,0,0,0,0,0,0,0,0,0,0,0,0],"id":16,"left_children":[1,3,5,7,9,11,13,15,17,19,21,-1,23,-1,25,-1,-1,-1,-1,-1,-1,-1,-1,-1,-1,-1,-1],"loss_changes":[3.1840864E1,9.338404E0,1.8670921E0,5.5020885E0,6.103175E0,4.9472237E-1,1.6296601E0,4.810049E0,4.430437E0,3.5208511E0,4.8465223E0,0E0,2.7261734E-1,0E0,6.552536E-1,0E0,0E0,0E0,0E0,0E0,0E0,0E0,0E0,0E0,0E0,0E0,0E0],"parents":[2147483647,0,0,1,1,2,2,3,3,4,4,5,5,6,6,7,7,8,8,9,9,10,10,12,12,14,14],"right_children":[2,4,6,8,10,12,14,16,18,20,22,-1,24,-1,26,-1,-1,-1,-1,-1,-1,-1,-1,-1,-1,-1,-1],"split_conditions":[4.775908E1,1E-45,1E-45,4.4117647E-1,-4.689237E0,-4.4444445E-1,2.82026E1,4.248756E1,0E0,-4.9E1,-1.1E1,4.2999554E-3,1E-45,2.9558396E-2,1E0,4.6852357E-3,-1.51035115E-2,5.942774E-3,2.3571065E-2,1.5503617E-2,-1.0366066E-3,3.245994E-2,-8.308651E-3,3.9491814E-2,2.4127344E-2,5.438003E-3,-3.3692826E-2],"split_indices":[25,0,0,10,13,5,26,19,17,16,4,0,0,0,35,0,0,0,0,0,0,0,0,0,0,0,0],"split_type":[0,1,1,0,0,0,0,0,0,0,0,0,1,0,0,0,0,0,0,0,0,0,0,0,0,0,0],"sum_hessian":[1.2707473E3,1.2071508E3,6.3596542E1,2.995143E2,9.076365E2,5.8259197E1,5.337346E0,1.409861E2,1.5852821E2,3.5575168E2,5.5188477E2,1.437899E0,5.6821297E1,2.396846E0,2.9404998E0,9.731845E1,4.3667652E1,1.0468665E2,5.384157E1,3.4747337E1,3.2100433E2,6.425722E0,5.4545905E2,4.720912E1,9.612176E0,1.4601173E0,1.4803826E0],"tree_param":{"num_deleted":"0","num_feature":"40","num_nodes":"27","size_leaf_vector":"1"}},{"base_weights":[-1.5574191E-3,-5.9824187E-1,3.0271968E-2,-4.2957044E-3,-6.3184416E-1,4.7189116E-1,1.9398823E-2,2.3885705E-2,-2.1221878E-2,-3.2506935E-2,-6.1214184E-3,6.876226E-1,-1.699598E-1,6.9299005E-2,-6.4826615E-2,4.3999188E-2,-5.471816E-3,3.2912876E-2,-2.8548865E-2,4.7678847E-4,1.031436E-2,8.287308E-3,-5.456315E-3],"categories":[2,4,5,10,11,12,13],"categories_nodes":[6],"categories_segments":[0],"categories_sizes":[7],"default_left":[1,0,0,0,1,0,1,0,0,0,0,0,0,1,0,0,0,0,0,0,0,0,0],"id":17,"left_children":[1,3,5,7,9,11,13,-1,-1,-1,-1,15,17,19,21,-1,-1,-1,-1,-1,-1,-1,-1],"loss_changes":[2.0030396E1,1.0632534E0,4.798904E0,9.858236E-1,3.9145088E-1,3.4425735E0,4.1161027E0,0E0,0E0,0E0,0E0,2.8828335E0,2.6488516E0,5.0313797E0,3.7409892E0,0E0,0E0,0E0,0E0,0E0,0E0,0E0,0E0],"parents":[2147483647,0,0,1,1,2,2,3,3,4,4,5,5,6,6,11,11,12,12,13,13,14,14],"right_children":[2,4,6,8,10,12,14,-1,-1,-1,-1,16,18,20,22,-1,-1,-1,-1,-1,-1,-1,-1],"split_conditions":[2E0,-9.178514E1,-1.3851902E0,-9.117043E-1,5.026694E0,1.27E1,1E-45,2.3885705E-2,-2.1221878E-2,-3.2506935E-2,-6.1214184E-3,5.6865163E0,-2.5E-1,3.3333335E-2,-4E0,4.3999188E-2,-5.471816E-3,3.2912876E-2,-2.8548865E-2,4.7678847E-4,1.031436E-2,8.287308E-3,-5.456315E-3],"split_indices":[2,21,14,25,25,24,0,0,0,0,0,25,11,8,3,0,0,0,0,0,0,0,0],"split_type":[0,0,0,0,0,0,1,0,0,0,0,0,0,0,0,0,0,0,0,0,0,0,0],"sum_hessian":[1.0527163E3,5.241078E1,1.0003055E3,2.8667428E0,4.954404E1,2.3017956E1,9.7728754E2,1.2712567E0,1.5954862E0,4.755979E1,1.9842465E0,1.717424E1,5.843717E0,6.138081E2,3.634794E2,1.3751446E1,3.4227939E0,1.6971474E0,4.1465697E0,4.2810864E2,1.8569946E2,5.813815E1,3.0534125E2],"tree_param":{"num_deleted":"0","num_feature":"40","num_nodes":"23","size_leaf_vector":"1"}},{"base_weights":[-1.594346E-2,-2.7606895E-2,1.2644018E-2,9.60433E-2,-8.936972E-2,9.871304E-1,7.519621E-2,8.014658E-2,-2.1140654E-1,-2.2412804E-3,1.0433184E-1,6.762224E-3,-5.8873403E-3,9.700367E-3,-1.6133705E-2,-3.4382367E-3,-1.890051E-2],"categories":[3,4,5,8,9],"categories_nodes":[2],"categories_segments":[0],"categories_sizes":[5],"default_left":[1,0,1,0,0,1,0,0,0,0,0,0,0,0,0,0,0],"id":18,"left_children":[1,-1,3,5,7,9,11,13,15,-1,-1,-1,-1,-1,-1,-1,-1],"loss_changes":[9.526761E0,0E0,5.0332913E0,5.9710693E0,5.5232477E0,8.440958E0,3.7126226E0,5.205812E0,3.6582956E0,0E0,0E0,0E0,0E0,0E0,0E0,0E0,0E0],"parents":[2147483647,0,0,2,2,3,3,4,4,5,5,6,6,7,7,8,8],"right_children":[2,-1,4,6,8,10,12,14,16,-1,-1,-1,-1,-1,-1,-1,-1],"split_conditions":[3E0,-2.7606895E-2,1E-45,-1.1739904E1,2.0903955E-1,-9.855072E-2,3.2878906E1,4.5454547E-1,9.144422E-1,-2.2412804E-3,1.0433184E-1,6.762224E-3,-5.8873403E-3,9.700367E-3,-1.6133705E-2,-3.4382367E-3,-1.890051E-2],"split_indices":[2,0,0,25,10,10,20,6,25,0,0,0,0,0,0,0,0],"split_type":[0,0,1,0,0,0,0,0,0,0,0,0,0,0,0,0,0],"sum_hessian":[6.2005316E2,3.045814E1,5.8959503E2,3.2442578E2,2.6516925E2,6.3568754E0,3.180689E2,1.1113688E2,1.5403238E2,3.7739847E0,2.582891E0,2.4280234E2,7.526657E1,8.704986E1,2.4087023E1,8.374487E1,7.0287506E1],"tree_param":{"num_deleted":"0","num_feature":"40","num_nodes":"17","size_leaf_vector":"1"}},{"base_weights":[1.7587604E-2,-2.5083026E-2,2.7312374E0,2.9280205E0,1.0198124E-2,3.5014822E0,1.3419869E0,3.2146588E-2,1.9211659E-1,1.2285668E-1,9.289275E-3],"categories":[],"categories_nodes":[],"categories_segments":[],"categories_sizes":[],"default_left":[1,0,0,0,0,0,0,0,0,0,0],"id":19,"left_children":[1,-1,3,5,-1,7,9,-1,-1,-1,-1],"loss_changes":[1.2570549E2,0E0,6.5283356E0,7.323082E0,0E0,6.38282E0,6.1596947E0,0E0,0E0,0E0,0E0],"parents":[2147483647,0,0,2,2,3,3,5,5,6,6],"right_children":[2,-1,4,6,-1,8,10,-1,-1,-1,-1],"split_conditions":[5E0,-2.5083026E-2,1.9E1,3.2473648E1,1.0198124E-2,-9.302559E1,-2.5037745E1,3.2146588E-2,1.9211659E-1,1.2285668E-1,9.289275E-3],"split_indices":[2,0,27,32,0,19,21,0,0,0,0],"split_type":[0,0,0,0,0,0,0,0,0,0,0],"sum_hessian":[8.724006E1,7.391231E1,1.3327747E1,1.2217852E1,1.1098961E0,8.086369E0,4.131483E0,1.1689736E0,6.9173946E0,1.5303224E0,2.6011608E0],"tree_param":{"num_deleted":"0","num_feature":"40","num_nodes":"11","size_leaf_vector":"1"}},{"base_weights":[8.832028E-3,-1.5567453E-2,7.395221E-1,1.3298659E-1,-7.9804525E-2,7.615482E-1,4.075574E-3,-4.4251043E-1,1.7786023E-1,1.9887105E-2,-1.6470823E-1,3.9262217E-2,9.732605E-3,-3.68779E-2,-3.3710205E-3,2.6823586E-2,7.109124E-3,1.7278386E-2,-1.1315341E-3,-9.099903E-3,2.1011442E-2],"categories":[],"categories_nodes":[],"categories_segments":[],"categories_sizes":[],"default_left":[0,1,1,0,1,1,0,0,1,0,0,0,0,0,0,0,0,0,0,0,0],"id":20,"left_children":[1,3,5,7,9,11,-1,13,15,17,19,-1,-1,-1,-1,-1,-1,-1,-1,-1,-1],"loss_changes":[2.2329012E1,1.1579395E1,5.244751E-1,9.539529E0,7.172205E0,3.715763E-1,0E0,2.9146671E0,4.2810354E0,5.414505E0,4.70358E0,0E0,0E0,0E0,0E0,0E0,0E0,0E0,0E0,0E0,0E0],"parents":[2147483647,0,0,1,1,2,2,3,3,4,4,5,5,7,7,8,8,9,9,10,10],"right_children":[2,4,6,8,10,12,-1,14,16,18,20,-1,-1,-1,-1,-1,-1,-1,-1,-1,-1],"split_conditions":[9.325668E1,-7.62E0,3.396578E1,-3.3766234E-1,-2.777778E-1,1.524E1,4.075574E-3,-4.535682E0,2.0514715E1,-5.9090906E-1,8.5E0,3.9262217E-2,9.732605E-3,-3.68779E-2,-3.3710205E-3,2.6823586E-2,7.109124E-3,1.7278386E-2,-1.1315341E-3,-9.099903E-3,2.1011442E-2],"split_indices":[32,24,26,11,10,23,0,21,26,8,4,0,0,0,0,0,0,0,0,0,0],"split_type":[0,0,0,0,0,0,0,0,0,0,0,0,0,0,0,0,0,0,0,0,0],"sum_hessian":[1.2507906E3,1.2113204E3,3.9470177E1,3.6534857E2,8.459719E2,3.8039505E1,1.4306743E0,2.5786016E1,3.3956256E2,3.894528E2,4.5651913E2,3.6143547E1,1.8959584E0,1.3892086E1,1.189393E1,2.9455626E1,3.1010693E2,4.4149082E1,3.453037E2,4.4408163E2,1.2437493E1],"tree_param":{"num_deleted":"0","num_feature":"40","num_nodes":"21","size_leaf_vector":"1"}},{"base_weights":[7.914555E-3,-5.641414E-1,3.649688E-2,1.4984029E-2,-6.011646E-1,7.020756E-2,-1.955463E-1,-3.5682818E-4,-6.2071615E-1,1.454999E-1,-9.729317E-3,-3.279099E-1,1.0242346E-1,-3.2032784E-2,-1.2730712E-2,9.193766E-3,-4.5312457E-3,-9.5993525E-4,4.8977043E-2,-1.9470746E-2,3.124276E-3,1.7030649E-2,-2.091732E-2],"categories":[],"categories_nodes":[],"categories_segments":[],"categories_sizes":[],"default_left":[1,0,1,0,0,0,0,0,1,0,1,0,0,0,0,0,0,0,0,0,0,0,0],"id":21,"left_children":[1,3,5,-1,7,9,11,-1,13,15,17,19,21,-1,-1,-1,-1,-1,-1,-1,-1,-1,-1],"loss_changes":[1.6783308E1,1.7423363E0,7.65891E0,0E0,5.4343224E-1,5.1420054E0,4.9336824E0,0E0,1.7017174E-1,4.002737E0,3.9084573E0,2.0956478E0,4.977205E0,0E0,0E0,0E0,0E0,0E0,0E0,0E0,0E0,0E0,0E0],"parents":[2147483647,0,0,1,1,2,2,4,4,5,5,6,6,8,8,9,9,10,10,11,11,12,12],"right_children":[2,4,6,-1,8,10,12,-1,14,16,18,20,22,-1,-1,-1,-1,-1,-1,-1,-1,-1,-1],"split_conditions":[2E0,-9.178514E1,4.6563244E0,1.4984029E-2,2.2811773E1,2.3529412E-1,4.001495E1,-3.5682818E-4,3.380972E1,5E0,7.5E-1,3E0,3.4408443E1,-3.2032784E-2,-1.2730712E-2,9.193766E-3,-4.5312457E-3,-9.5993525E-4,4.8977043E-2,-1.9470746E-2,3.124276E-3,1.7030649E-2,-2.091732E-2],"split_indices":[2,21,12,0,32,7,19,0,26,2,17,3,21,0,0,0,0,0,0,0,0,0,0],"split_type":[0,0,0,0,0,0,0,0,0,0,0,0,0,0,0,0,0,0,0,0,0,0,0],"sum_hessian":[1.0241995E3,4.7846508E1,9.7635297E2,1.6748412E0,4.617167E1,8.531123E2,1.23240685E2,1.5147461E0,4.465692E1,4.3889655E2,4.1421576E2,8.526426E1,3.797642E1,4.163913E1,3.017791E0,3.777287E2,6.1167847E1,4.1125974E2,2.9560242E0,7.3661705E1,1.1602555E1,2.629539E1,1.1681032E1],"tree_param":{"num_deleted":"0","num_feature":"40","num_nodes":"23","size_leaf_vector":"1"}},{"base_weights":[3.1241443E-2,-2.7355174E-2,5.869266E-2,1.6656764E-1,-1.9540321E-2,1.4440386E0,1.433273E-1,5.544332E-1,-4.5334917E-2,6.2113726E-3,9.735461E-2,4.674489E-3,2.6180536E-2,-3.716404E-3,6.605504E-2,9.308771E-4,-1.0717294E-2],"categories":[0,1,2,3,4,5,6,7,8,9,11,12,3,4,5],"categories_nodes":[4,8],"categories_segments":[0,12],"categories_sizes":[12,3],"default_left":[1,0,0,0,1,0,1,0,1,0,0,0,0,0,0,0,0],"id":22,"left_children":[1,-1,3,5,7,9,11,13,15,-1,-1,-1,-1,-1,-1,-1,-1],"loss_changes":[9.624574E0,0E0,4.8788986E0,7.0062256E0,4.9962864E0,2.5671444E0,4.4944773E0,7.0956783E0,3.4870794E0,0E0,0E0,0E0,0E0,0E0,0E0,0E0,0E0],"parents":[2147483647,0,0,2,2,3,3,4,4,5,5,6,6,7,7,8,8],"right_children":[2,-1,4,6,8,10,12,14,16,-1,-1,-1,-1,-1,-1,-1,-1],"split_conditions":[3E0,-2.7355174E-2,-1.1471595E0,2.5212868E1,1E-45,0E0,1.02E2,6.5428275E-1,1E-45,6.2113726E-3,9.735461E-2,4.674489E-3,2.6180536E-2,-3.716404E-3,6.605504E-2,9.308771E-4,-1.0717294E-2],"split_indices":[2,0,25,32,0,23,16,14,0,0,0,0,0,0,0,0,0],"split_type":[0,0,0,0,1,0,0,0,1,0,0,0,0,0,0,0,0],"sum_hessian":[6.032011E2,2.6475826E1,5.767253E2,2.419596E2,3.3476572E2,3.2308686E0,2.3872873E2,1.35160675E1,3.2124963E2,1.235737E0,1.9951316E0,2.1216905E2,2.6559675E1,7.922059E0,5.594009E0,2.3370667E2,8.754298E1],"tree_param":{"num_deleted":"0","num_feature":"40","num_nodes":"17","size_leaf_vector":"1"}},{"base_weights":[3.719964E-2,-2.5067938E-2,2.534101E0,3.0492582E0,1.120357E0,3.8066516E0,1.1312065E0,-1.0133783E-1,2.1981065E0,2.1492374E-1,3.1745788E-2,-1.4238474E-2,8.675914E-2,-1.601971E-2,1.2062056E-2,9.883176E-3,1.6123538E-1],"categories":[],"categories_nodes":[],"categories_segments":[],"categories_sizes":[],"default_left":[1,0,0,1,1,0,1,0,0,0,0,0,0,0,0,0,0],"id":23,"left_children":[1,-1,3,5,7,9,11,13,15,-1,-1,-1,-1,-1,-1,-1,-1],"loss_changes":[1.2051465E2,0E0,8.162361E0,1.1777481E1,7.894778E0,8.992722E0,4.391355E0,3.5397586E-1,5.8107624E0,0E0,0E0,0E0,0E0,0E0,0E0,0E0,0E0],"parents":[2147483647,0,0,2,2,3,3,4,4,5,5,6,6,7,7,8,8],"right_children":[2,-1,4,6,8,10,12,14,16,-1,-1,-1,-1,-1,-1,-1,-1],"split_conditions":[5E0,-2.5067938E-2,3.236961E1,1.7602018E0,-1.4732543E0,5.913639E1,-1.0714286E-1,1.9468324E0,8.134065E-2,2.1492374E-1,3.1745788E-2,-1.4238474E-2,8.675914E-2,-1.601971E-2,1.2062056E-2,9.883176E-3,1.6123538E-1],"split_indices":[2,0,32,12,18,19,10,12,14,0,0,0,0,0,0,0,0],"split_type":[0,0,0,0,0,0,0,0,0,0,0,0,0,0,0,0,0],"sum_hessian":[8.7675354E1,7.27772E1,1.4898157E1,1.0071363E1,4.826793E0,6.5143538E0,3.55701E0,2.686947E0,2.1398463E0,5.3322654E0,1.1820884E0,1.2215917E0,2.3354182E0,1.6784492E0,1.008498E0,1.1301565E0,1.0096898E0],"tree_param":{"num_deleted":"0","num_feature":"40","num_nodes":"17","size_leaf_vector":"1"}},{"base_weights":[8.200449E-3,7.298093E-1,-3.2236673E-2,2.1705963E-1,7.540161E-1,-1.07904196E-1,3.1739973E-2,-1.3434348E-2,2.7723128E-2,3.8377408E-2,1.0689898E-2,-3.6737394E-2,-2.3928334E-1,-1.3807252E-2,1.8625593E-1,-9.199477E-3,2.944689E-3,-1.3910266E-2,2.3032337E-2,-1.5286726E-2,1.1919391E-3,1.2706368E-2,-1.4354422E-2],"categories":[0,2,3,8,10,11,12],"categories_nodes":[14],"categories_segments":[0],"categories_sizes":[7],"default_left":[1,0,0,0,1,0,0,0,0,0,0,0,0,0,1,0,0,0,0,0,0,0,0],"id":24,"left_children":[1,3,5,7,9,11,13,-1,-1,-1,-1,15,17,19,21,-1,-1,-1,-1,-1,-1,-1,-1],"loss_changes":[3.6609337E1,6.626549E-1,5.755604E0,8.710053E-1,2.976799E-1,5.083173E0,4.5393167E0,0E0,0E0,0E0,0E0,5.0019255E0,5.336178E0,5.4890547E0,4.7900224E0,0E0,0E0,0E0,0E0,0E0,0E0,0E0,0E0],"parents":[2147483647,0,0,1,1,2,2,3,3,4,4,5,5,6,6,11,11,12,12,13,13,14,14],"right_children":[2,4,6,8,10,12,14,-1,-1,-1,-1,16,18,20,22,-1,-1,-1,-1,-1,-1,-1,-1],"split_conditions":[2E0,-9.178514E1,2.612403E-1,1E0,5.026694E0,9E0,3.2473648E1,-1.3434348E-2,2.7723128E-2,3.8377408E-2,1.0689898E-2,0E0,2.4E1,2.440794E1,1E-45,-9.199477E-3,2.944689E-3,-1.3910266E-2,2.3032337E-2,-1.5286726E-2,1.1919391E-3,1.2706368E-2,-1.4354422E-2],"split_indices":[2,21,10,36,25,27,32,0,0,0,0,11,27,26,0,0,0,0,0,0,0,0,0],"split_type":[0,0,0,0,0,0,0,0,0,0,0,0,0,0,1,0,0,0,0,0,0,0,0],"sum_hessian":[1.2528068E3,6.5574165E1,1.1872325E3,3.4055052E0,6.2168663E1,5.4360474E2,6.4362787E2,1.4793708E0,1.9261341E0,6.023891E1,1.9297491E0,3.5343307E2,1.9017165E2,4.9780017E2,1.458277E2,1.3879446E2,2.1463861E2,1.8072438E2,9.447267E0,5.6048576E1,4.417516E2,1.2794515E2,1.7882542E1],"tree_param":{"num_deleted":"0","num_feature":"40","num_nodes":"23","size_leaf_vector":"1"}},{"base_weights":[3.1021058E-3,2.6682137E-2,-4.4217214E-1,-3.9493985E-2,1.1317222E-1,2.5044596E-2,-4.7464216E-1,-2.2902748E-1,1.3096955E-2,4.2468363E-1,8.568283E-2,-4.5643847E-2,-5.508332E-1,-1.8421678E-2,6.0878526E-3,-2.8945153E-4,2.5802111E-2,5.7313675E-3,4.5936808E-2,-5.3109466E-3,6.888868E-3,-2.6518723E-2,1.4132713E-2,-2.9357309E-2,-9.914654E-3],"categories":[],"categories_nodes":[],"categories_segments":[],"categories_sizes":[],"default_left":[0,1,0,0,0,0,0,0,1,0,1,0,1,0,0,0,0,0,0,0,0,0,0,0,0],"id":25,"left_children":[1,3,5,7,9,-1,11,13,15,17,19,21,23,-1,-1,-1,-1,-1,-1,-1,-1,-1,-1,-1,-1],"loss_changes":[1.1007029E1,5.7021923E0,1.8522205E0,5.631912E0,3.6609693E0,0E0,1.6576061E0,6.0457172E0,4.21087E0,5.21925E0,3.9935603E0,1.5590276E0,4.4208622E-1,0E0,0E0,0E0,0E0,0E0,0E0,0E0,0E0,0E0,0E0,0E0,0E0],"parents":[2147483647,0,0,1,1,2,2,3,3,4,4,6,6,7,7,8,8,9,9,10,10,11,11,12,12],"right_children":[2,4,6,8,10,-1,12,14,16,18,20,22,24,-1,-1,-1,-1,-1,-1,-1,-1,-1,-1,-1,-1],"split_conditions":[1.4056126E1,-9.615385E-2,-2.9102167E-1,-1.7E1,2.4804928E1,2.5044596E-2,2.5861738E1,2.2638155E1,3.4545454E-1,2.3983067E1,-7.2727275E-1,4.775908E1,3.2810406E1,-1.8421678E-2,6.0878526E-3,-2.8945153E-4,2.5802111E-2,5.7313675E-3,4.5936808E-2,-5.3109466E-3,6.888868E-3,-2.6518723E-2,1.4132713E-2,-2.9357309E-2,-9.914654E-3],"split_indices":[25,8,10,16,32,0,32,19,5,18,10,25,26,0,0,0,0,0,0,0,0,0,0,0,0],"split_type":[0,0,0,0,0,0,0,0,0,0,0,0,0,0,0,0,0,0,0,0,0,0,0,0,0],"sum_hessian":[1.0462067E3,9.9448267E2,5.172394E1,5.637127E2,4.3076996E2,1.2414281E0,5.0482513E1,1.2171323E2,4.419995E2,3.375923E1,3.970107E2,7.854777E0,4.262774E1,8.706301E1,3.465022E1,4.2695547E2,1.5044021E1,2.1498974E1,1.2260259E1,8.4542114E1,3.124686E2,2.9231834E0,4.931594E0,3.804363E1,4.5841093E0],"tree_param":{"num_deleted":"0","num_feature":"40","num_nodes":"25","size_leaf_vector":"1"}},{"base_weights":[6.627975E-3,3.0668043E-2,-4.516008E-1,2.06966E-1,-1.339015E-2,1.5763825E-1,-5.116488E-1,-2.1743874E-1,2.9478192E-1,5.484271E-1,-3.0344669E-2,-1.658658E-2,3.105074E-2,8.984776E-3,-2.7312437E-2,-1.9261504E-2,3.1984285E-2,1.0718508E-2,4.8814815E-2,2.8118854E-3,5.8395214E-2,-1.8636383E-3,6.081551E-2],"categories":[3,4,5,6,7,8,9,13,0,1,2,3,4,5,6,8,9,10,11,12,13],"categories_nodes":[1,2],"categories_segments":[0,8],"categories_sizes":[8,13],"default_left":[0,0,0,0,0,0,0,0,0,0,1,0,0,0,0,0,0,0,0,0,0,0,0],"id":26,"left_children":[1,3,5,7,9,11,13,15,17,19,21,-1,-1,-1,-1,-1,-1,-1,-1,-1,-1,-1,-1],"loss_changes":[6.7602973E0,4.5298963E0,1.1998181E0,4.409498E0,4.4673085E0,1.0017555E0,7.699137E-1,3.2039819E0,5.1081E0,4.1236115E0,3.9708688E0,0E0,0E0,0E0,0E0,0E0,0E0,0E0,0E0,0E0,0E0,0E0,0E0],"parents":[2147483647,0,0,1,1,2,2,3,3,4,4,5,5,6,6,7,7,8,8,9,9,10,10],"right_children":[2,4,6,8,10,12,14,16,18,20,22,-1,-1,-1,-1,-1,-1,-1,-1,-1,-1,-1,-1],"split_conditions":[4.775908E1,1E-45,1E-45,-3.8513567E0,-4E0,3.53347E1,-9.8245615E-1,1.3986014E0,3E0,4.4444446E-2,2.207128E1,-1.658658E-2,3.105074E-2,8.984776E-3,-2.7312437E-2,-1.9261504E-2,3.1984285E-2,1.0718508E-2,4.8814815E-2,2.8118854E-3,5.8395214E-2,-1.8636383E-3,6.081551E-2],"split_indices":[25,0,0,12,15,26,9,9,15,7,13,0,0,0,0,0,0,0,0,0,0,0,0],"split_type":[0,1,1,0,0,0,0,0,0,0,0,0,0,0,0,0,0,0,0,0,0,0,0],"sum_hessian":[6.114309E2,5.818389E2,2.9591957E1,1.1559407E2,4.6624487E2,2.5091572E0,2.70828E1,1.9564571E1,9.60295E1,1.2739883E1,4.5350497E2,1.3585247E0,1.1506325E0,1.090951E0,2.599185E1,1.6822033E1,2.742538E0,8.70706E1,8.958899E0,7.7071505E0,5.0327325E0,4.5196338E2,1.5416166E0],"tree_param":{"num_deleted":"0","num_feature":"40","num_nodes":"23","size_leaf_vector":"1"}},{"base_weights":[3.5088517E-2,-2.5042508E-2,2.2310035E0,2.6994327E-1,2.4979982E0,-1.4028246E-2,3.6611013E-2,2.7209525E0,2.1533674E-2,1.6303009E-1,7.287285E-2],"categories":[],"categories_nodes":[],"categories_segments":[],"categories_sizes":[],"default_left":[1,0,0,1,0,0,0,1,0,0,0],"id":27,"left_children":[1,-1,3,5,7,-1,-1,9,-1,-1,-1],"loss_changes":[1.0362398E2,0E0,8.368568E0,1.017447E0,5.7788544E0,0E0,0E0,4.4009094E0,0E0,0E0,0E0],"parents":[2147483647,0,0,2,2,3,3,4,4,7,7],"right_children":[2,-1,4,6,8,-1,-1,10,-1,-1,-1],"split_conditions":[5E0,-2.5042508E-2,-2.857143E-1,-1.2142857E-1,8.996118E1,-1.4028246E-2,3.6611013E-2,4.1666666E-1,2.1533674E-2,1.6303009E-1,7.287285E-2],"split_indices":[2,0,11,10,20,0,0,9,0,0,0],"split_type":[0,0,0,0,0,0,0,0,0,0,0],"sum_hessian":[8.610059E1,6.982974E1,1.6270847E1,2.1907752E0,1.4080071E1,1.1793785E0,1.0113966E0,1.2424011E1,1.6560607E0,7.5981565E0,4.8258543E0],"tree_param":{"num_deleted":"0","num_feature":"40","num_nodes":"11","size_leaf_vector":"1"}},{"base_weights":[-9.757359E-3,6.9797176E-1,-4.8991755E-2,2.0971084E-1,7.2126853E-1,-1.711809E-1,2.8085997E-3,2.7221827E-2,-1.3391073E-2,3.743969E-2,1.8563858E-1,6.461129E-2,-2.5377655E-1,-1.6794103E-1,4.345288E-2,-6.8602264E-3,2.4756057E-2,-4.176229E-3,1.9682625E-2,2.5564957E-2,-1.4465156E-2,-2.3104576E-2,-2.6610815E-3,4.456811E-3,-4.51874E-3],"categories":[0,2,3,6,7,9,10,12,0,6,8,10],"categories_nodes":[5,14],"categories_segments":[0,8],"categories_sizes":[8,4],"default_left":[1,0,0,0,1,1,0,0,0,0,0,0,0,0,1,0,0,0,0,0,0,0,0,0,0],"id":28,"left_children":[1,3,5,7,9,11,13,-1,-1,-1,15,17,19,21,23,-1,-1,-1,-1,-1,-1,-1,-1,-1,-1],"loss_changes":[3.4585003E1,5.929203E-1,7.4684286E0,8.474142E-1,7.755699E-1,6.857909E0,5.764614E0,0E0,0E0,0E0,5.0372154E-1,4.513713E0,7.2246876E0,5.3647223E0,4.109592E0,0E0,0E0,0E0,0E0,0E0,0E0,0E0,0E0,0E0,0E0],"parents":[2147483647,0,0,1,1,2,2,3,3,4,4,5,5,6,6,10,10,11,11,12,12,13,13,14,14],"right_children":[2,4,6,8,10,12,14,-1,-1,-1,16,18,20,22,24,-1,-1,-1,-1,-1,-1,-1,-1,-1,-1],"split_conditions":[2E0,-9.178514E1,0E0,-2.54E0,2.7104723E0,1E-45,2.5875427E1,2.7221827E-2,-1.3391073E-2,3.743969E-2,5.1060915E0,2.4285714E-1,-8.087241E0,0E0,1E-45,-6.8602264E-3,2.4756057E-2,-4.176229E-3,1.9682625E-2,2.5564957E-2,-1.4465156E-2,-2.3104576E-2,-2.6610815E-3,4.456811E-3,-4.51874E-3],"split_indices":[2,21,11,23,25,0,26,0,0,0,25,10,13,24,0,0,0,0,0,0,0,0,0,0,0],"split_type":[0,0,0,0,0,1,0,0,0,0,0,0,0,0,1,0,0,0,0,0,0,0,0,0,0],"sum_hessian":[1.2432974E3,6.442253E1,1.1788749E3,3.3893402E0,6.103319E1,3.5028983E2,8.2858496E2,1.9102494E0,1.4790909E0,5.767157E1,3.3616245E0,9.092809E1,2.5936176E2,1.5870818E2,6.6987683E2,1.9177493E0,1.4438751E0,6.32147E1,2.7713392E1,1.0914864E1,2.4844688E2,4.3680244E1,1.1502794E2,4.996504E2,1.7022641E2],"tree_param":{"num_deleted":"0","num_feature":"40","num_nodes":"25","size_leaf_vector":"1"}},{"base_weights":[-9.155198E-3,-5.499585E-1,1.7449334E-2,2.4367593E-2,-5.875745E-1,3.2123342E-2,-3.222544E-1,-3.131124E-2,-2.4178926E-2,-1.1717921E-2,1.4822628E-1,-4.3010473E-1,3.2345307E-1,-1.7856926E-2,1.124849E-2,-2.088964E-3,1.2565903E-2,1.3734194E-3,1.5993755E-2,2.4457578E-2,-2.508953E-2,4.04133E-2,-2.383195E-2],"categories":[],"categories_nodes":[],"categories_segments":[],"categories_sizes":[],"default_left":[1,0,0,0,1,1,1,0,0,0,1,0,0,0,0,0,0,0,0,0,0,0,0],"id":29,"left_children":[1,3,5,-1,7,9,11,-1,13,15,17,19,21,-1,-1,-1,-1,-1,-1,-1,-1,-1,-1],"loss_changes":[1.4974807E1,2.1905117E0,4.956934E0,0E0,1.0201893E0,4.8482714E0,3.0069466E0,0E0,4.1984674E-1,5.4829965E0,5.4024673E0,2.5990663E0,2.8928509E0,0E0,0E0,0E0,0E0,0E0,0E0,0E0,0E0,0E0,0E0],"parents":[2147483647,0,0,1,1,2,2,4,4,5,5,6,6,8,8,9,9,10,10,11,11,12,12],"right_children":[2,4,6,-1,8,10,12,-1,14,16,18,20,22,-1,-1,-1,-1,-1,-1,-1,-1,-1,-1],"split_conditions":[2E0,-9.178514E1,3.8453114E1,2.4367593E-2,2.7104723E0,5.08E0,3.6678986E1,-3.131124E-2,-4.1915634E1,6.796352E1,-1.4080361E1,-1.0226941E2,1.7575757E-1,-1.7856926E-2,1.124849E-2,-2.088964E-3,1.2565903E-2,1.3734194E-3,1.5993755E-2,2.4457578E-2,-2.508953E-2,4.04133E-2,-2.383195E-2],"split_indices":[2,21,32,0,25,23,26,0,21,20,18,20,11,0,0,0,0,0,0,0,0,0,0],"split_type":[0,0,0,0,0,0,0,0,0,0,0,0,0,0,0,0,0,0,0,0,0,0,0],"sum_hessian":[1.0391305E3,4.7800232E1,9.9133026E2,1.2543322E0,4.65459E1,9.511494E2,4.0180874E1,4.3453373E1,3.092525E0,6.910887E2,2.6006073E2,3.4716236E1,5.464636E0,1.1381195E0,1.9544055E0,6.2096246E2,7.012621E1,1.5334203E2,1.0671871E2,2.0901284E0,3.262611E1,3.3963897E0,2.0682464E0],"tree_param":{"num_deleted":"0","num_feature":"40","num_nodes":"23","size_leaf_vector":"1"}},{"base_weights":[-1.596867E-2,-2.7124504E-2,9.221732E-3,9.0383476E-1,-2.753308E-3,8.655416E-2,1.2129359E-1,7.4970245E-2,-9.808077E-2,-1.8748697E-2,2.5079492E-2,4.986131E-3,-2.3644574E-2,-1.6094135E-3,-1.6979618E-2],"categories":[3,4,5,6,8,11],"categories_nodes":[4],"categories_segments":[0],"categories_sizes":[6],"default_left":[1,0,0,0,1,0,0,0,1,0,0,0,0,0,0],"id":30,"left_children":[1,-1,3,5,7,-1,9,11,13,-1,-1,-1,-1,-1,-1],"loss_changes":[8.145515E0,0E0,6.288063E0,4.808984E0,4.3044577E0,0E0,1.1429572E0,4.3873286E0,4.141279E0,0E0,0E0,0E0,0E0,0E0,0E0],"parents":[2147483647,0,0,2,2,3,3,4,4,6,6,7,7,8,8],"right_children":[2,-1,4,6,8,-1,10,12,14,-1,-1,-1,-1,-1,-1],"split_conditions":[3E0,-2.7124504E-2,-1.2533881E1,7.1496063E-1,1E-45,8.655416E-2,4E0,1.27E1,2.6984128E-1,-1.8748697E-2,2.5079492E-2,4.986131E-3,-2.3644574E-2,-1.6094135E-3,-1.6979618E-2],"split_indices":[2,0,25,12,0,0,16,23,8,0,0,0,0,0,0],"split_type":[0,0,0,0,1,0,0,0,0,0,0,0,0,0,0],"sum_hessian":[6.127629E2,2.7040285E1,5.857226E2,6.753003E0,5.789696E2,2.6934953E0,4.059508E0,3.1905078E2,2.5991885E2,1.767285E0,2.292223E0,3.0604178E2,1.3008982E1,2.0509523E2,5.4823616E1],"tree_param":{"num_deleted":"0","num_feature":"40","num_nodes":"15","size_leaf_vector":"1"}},{"base_weights":[9.371292E-3,-2.502789E-2,1.9176321E0,2.5407994E0,1.0287529E0,1.317355E0,3.1601427E0,5.2063208E-2,1.5830511E0,-1.6350804E-2,1.112975E-1,1.86325E-1,2.9070964E-2,3.6527794E-2,-1.824315E-2,1.6254196E-2,1.0629993E-1],"categories":[],"categories_nodes":[],"categories_segments":[],"categories_sizes":[],"default_left":[1,0,1,0,0,0,1,0,1,0,0,0,0,0,0,0,0],"id":31,"left_children":[1,-1,3,5,7,9,11,13,15,-1,-1,-1,-1,-1,-1,-1,-1],"loss_changes":[8.608221E1,0E0,7.718727E0,3.6305542E0,4.9892855E0,8.454781E0,6.762268E0,1.5185207E0,3.3675804E0,0E0,0E0,0E0,0E0,0E0,0E0,0E0,0E0],"parents":[2147483647,0,0,2,2,3,3,4,4,5,5,6,6,7,7,8,8],"right_children":[2,-1,4,6,8,10,12,14,16,-1,-1,-1,-1,-1,-1,-1,-1],"split_conditions":[5E0,-2.502789E-2,1.10418135E-2,-1.3453139E1,1E0,1.7E1,7.227362E1,-2.54E0,-1.2142857E-1,-1.6350804E-2,1.112975E-1,1.86325E-1,2.9070964E-2,3.6527794E-2,-1.824315E-2,1.6254196E-2,1.0629993E-1],"split_indices":[2,0,13,18,1,16,18,24,10,0,0,0,0,0,0,0,0],"split_type":[0,0,0,0,0,0,0,0,0,0,0,0,0,0,0,0,0],"sum_hessian":[8.647741E1,6.882386E1,1.7653553E1,9.2854E0,8.368154E0,4.171695E0,5.1137047E0,3.4257705E0,4.942383E0,1.7125025E0,2.459193E0,3.8279002E0,1.2858045E0,1.0175687E0,2.4082017E0,1.9720454E0,2.9703372E0],"tree_param":{"num_deleted":"0","num_feature":"40","num_nodes":"17","size_leaf_vector":"1"}},{"base_weights":[-1.3037611E-3,6.837409E-1,-3.7428852E-2,2.0943625E-1,7.069731E-1,3.3960544E-2,-1.22077495E-1,2.6973521E-2,-1.3038593E-2,3.1918914E-3,7.214014E-1,1.0051914E-1,-1.05323695E-1,6.496434E-2,-1.6386162E-1,3.672345E-2,1.46216145E-2,6.8396195E-3,-1.3473659E-2,2.7699908E-2,-7.018546E-3,2.738969E-2,-2.2300212E-3,3.5497807E-3,-1.0458595E-2],"categories":[0,3,6,8,10,12,13,0,1,2,4,6,7,9,12],"categories_nodes":[5,6],"categories_segments":[0,7],"categories_sizes":[7,8],"default_left":[1,0,1,0,0,1,1,0,0,0,1,0,0,0,0,0,0,0,0,0,0,0,0,0,0],"id":32,"left_children":[1,3,5,7,9,11,13,-1,-1,-1,15,17,19,21,23,-1,-1,-1,-1,-1,-1,-1,-1,-1,-1],"loss_changes":[3.1357405E1,5.513439E-1,7.277505E0,8.2112414E-1,5.115223E-1,6.070927E0,4.3159723E0,0E0,0E0,0E0,1.1410904E-1,5.9803095E0,4.973441E0,5.3837256E0,4.809578E0,0E0,0E0,0E0,0E0,0E0,0E0,0E0,0E0,0E0,0E0],"parents":[2147483647,0,0,1,1,2,2,3,3,4,4,5,5,6,6,10,10,11,11,12,12,13,13,14,14],"right_children":[2,4,6,8,10,12,14,-1,-1,-1,16,18,20,22,24,-1,-1,-1,-1,-1,-1,-1,-1,-1,-1],"split_conditions":[2E0,-9.178514E1,-3.5E1,-2.54E0,2.2811773E1,1E-45,1E-45,2.6973521E-2,-1.3038593E-2,3.1918914E-3,5.026694E0,5E0,-8.087241E0,2E0,-5.503565E1,3.672345E-2,1.46216145E-2,6.8396195E-3,-1.3473659E-2,2.7699908E-2,-7.018546E-3,2.738969E-2,-2.2300212E-3,3.5497807E-3,-1.0458595E-2],"split_indices":[2,21,16,23,32,0,0,0,0,0,25,2,13,33,20,0,0,0,0,0,0,0,0,0,0],"split_type":[0,0,0,0,0,1,1,0,0,0,0,0,0,0,0,0,0,0,0,0,0,0,0,0,0],"sum_hessian":[1.26507E3,6.247232E1,1.2025975E3,3.3847444E0,5.9087574E1,6.527187E2,5.498789E2,1.9022639E0,1.4824805E0,1.4155295E0,5.7672047E1,4.418526E2,2.1086609E2,1.0030781E2,4.495711E2,5.5276012E1,2.3960319E0,4.0297598E2,3.8876617E1,9.895776E0,2.0097032E2,1.7812416E1,8.249539E1,7.261549E1,3.769556E2],"tree_param":{"num_deleted":"0","num_feature":"40","num_nodes":"25","size_leaf_vector":"1"}},{"base_weights":[1.009256E-2,-5.321454E-1,3.3472788E-2,-1.9491184E-1,-5.921747E-1,6.0392927E-2,-1.5065324E-1,2.6272207E-2,-4.0012616E-1,-3.0844113E-2,-1.9354086E-1,3.318971E-1,3.3500046E-2,-2.885683E-1,9.271354E-2,-2.6136631E-2,6.0572303E-3,6.3103894E-3,-1.9452896E-2,6.6787223E-3,3.730313E-2,-1.9315323E-3,6.4320564E-3,-1.79661E-2,4.9909526E-3,-1.4104733E-2,2.1075375E-2],"categories":[],"categories_nodes":[],"categories_segments":[],"categories_sizes":[],"default_left":[1,0,1,0,1,0,0,0,0,0,0,0,1,0,0,0,0,0,0,0,0,0,0,0,0,0,0],"id":33,"left_children":[1,3,5,7,9,11,13,-1,15,-1,17,19,21,23,25,-1,-1,-1,-1,-1,-1,-1,-1,-1,-1,-1,-1],"loss_changes":[1.3153048E1,7.5277805E-1,4.9370837E0,1.3885994E0,2.3435116E-1,6.3273716E0,4.2928305E0,0E0,4.9610174E-1,0E0,2.7124316E-1,6.317424E0,5.433137E0,2.2719345E0,5.877881E0,0E0,0E0,0E0,0E0,0E0,0E0,0E0,0E0,0E0,0E0,0E0,0E0],"parents":[2147483647,0,0,1,1,2,2,3,3,4,4,5,5,6,6,8,8,10,10,11,11,12,12,13,13,14,14],"right_children":[2,4,6,8,10,12,14,-1,16,-1,18,20,22,24,26,-1,-1,-1,-1,-1,-1,-1,-1,-1,-1,-1,-1],"split_conditions":[2E0,2.5500341E1,4.759091E0,2.4974674E1,3.380972E1,2.4605064E1,2.7979563E1,2.6272207E-2,3E0,-3.0844113E-2,3.4028748E1,4E0,-2.7E1,1.2E1,2.8125E-1,-2.6136631E-2,6.0572303E-3,6.3103894E-3,-1.9452896E-2,6.6787223E-3,3.730313E-2,-1.9315323E-3,6.4320564E-3,-1.79661E-2,4.9909526E-3,-1.4104733E-2,2.1075375E-2],"split_indices":[2,26,12,32,26,26,19,0,33,0,26,33,16,33,10,0,0,0,0,0,0,0,0,0,0,0,0],"split_type":[0,0,0,0,0,0,0,0,0,0,0,0,0,0,0,0,0,0,0,0,0,0,0,0,0,0,0],"sum_hessian":[1.0350941E3,4.188687E1,9.932073E2,6.9711585E0,3.491571E1,8.671044E2,1.2610296E2,1.1996405E0,5.7715178E0,3.236238E1,2.5533285E0,7.712519E1,7.899792E2,8.037118E1,4.5731777E1,4.670241E0,1.1012771E0,1.1033696E0,1.4499588E0,5.3046463E1,2.4078726E1,4.4966336E2,3.4031583E2,6.804927E1,1.2321909E1,2.1436874E1,2.4294903E1],"tree_param":{"num_deleted":"0","num_feature":"40","num_nodes":"27","size_leaf_vector":"1"}},{"base_weights":[-5.601536E-3,-2.6942527E-2,1.8316614E-2,7.187185E-1,5.895711E-3,1.1940454E0,-2.2164813E-1,2.3578459E-1,-2.6344445E-2,-1.4866245E-2,7.480021E-2,-2.0581828E-2,1.0069246E-2,6.6942656E-3,4.2291954E-2,3.7277333E-2,-1.914802E-3],"categories":[0,1,2,9,0,3,4,5,6,7,8,9,11,13],"categories_nodes":[3,4],"categories_segments":[0,4],"categories_sizes":[4,10],"default_left":[1,0,0,1,1,0,0,1,0,0,0,0,0,0,0,0,0],"id":34,"left_children":[1,-1,3,5,7,9,11,13,15,-1,-1,-1,-1,-1,-1,-1,-1],"loss_changes":[7.93763E0,0E0,5.1795044E0,4.9018803E0,4.353025E0,3.6186457E0,4.3064344E-1,4.377126E0,4.7818985E0,0E0,0E0,0E0,0E0,0E0,0E0,0E0,0E0],"parents":[2147483647,0,0,2,2,3,3,4,4,5,5,6,6,7,7,8,8],"right_children":[2,-1,4,6,8,10,12,14,16,-1,-1,-1,-1,-1,-1,-1,-1],"split_conditions":[3E0,-2.6942527E-2,-3.4166667E0,1E-45,1E-45,-2E0,3.08E2,1.26E2,-1.2533881E1,-1.4866245E-2,7.480021E-2,-2.0581828E-2,1.0069246E-2,6.6942656E-3,4.2291954E-2,3.7277333E-2,-1.914802E-3],"split_indices":[2,0,9,0,0,22,16,16,25,0,0,0,0,0,0,0,0],"split_type":[0,0,0,1,1,0,0,0,0,0,0,0,0,0,0,0,0],"sum_hessian":[6.2057404E2,2.571589E1,5.9485815E2,9.374528E0,5.854836E2,6.047788E0,3.32674E0,7.123414E1,5.1424945E2,1.0209036E0,5.0268846E0,2.314303E0,1.012437E0,6.208359E1,9.15055E0,6.905093E0,5.0734436E2],"tree_param":{"num_deleted":"0","num_feature":"40","num_nodes":"17","size_leaf_vector":"1"}},{"base_weights":[7.32114E-2,-2.5007604E-2,1.9016916E0,2.0261457E0,-1.31841395E-2,1.4236134E0,2.8400362E0,-2.386307E-3,8.569547E-2,6.0115017E-2,1.6429208E-1],"categories":[],"categories_nodes":[],"categories_segments":[],"categories_sizes":[],"default_left":[1,0,0,0,0,0,0,0,0,0,0],"id":35,"left_children":[1,-1,3,5,-1,7,9,-1,-1,-1,-1],"loss_changes":[9.3264046E1,0E0,6.2549744E0,5.857666E0,0E0,5.8932858E0,1.5860748E0,0E0,0E0,0E0,0E0],"parents":[2147483647,0,0,2,2,3,3,5,5,6,6],"right_children":[2,-1,4,6,-1,8,10,-1,-1,-1,-1],"split_conditions":[5E0,-2.5007604E-2,8.934727E1,8.928572E-2,-1.31841395E-2,-5.9090906E-1,1E0,-2.386307E-3,8.569547E-2,6.0115017E-2,1.6429208E-1],"split_indices":[2,0,21,5,0,8,15,0,0,0,0],"split_type":[0,0,0,0,0,0,0,0,0,0,0],"sum_hessian":[8.70526E1,6.6824615E1,2.0227982E1,1.9189379E1,1.0386046E0,1.2606093E1,6.5832844E0,2.215025E0,1.0391068E1,2.199606E0,4.3836784E0],"tree_param":{"num_deleted":"0","num_feature":"40","num_nodes":"11","size_leaf_vector":"1"}},{"base_weights":[-1.5781432E-2,-4.637247E-2,5.475347E-1,2.7995177E-2,-1.030637E-1,3.5948154E-2,3.108816E-1,5.5547044E-2,-2.4493739E-1,1.3477537E-1,-1.3156603E-1,5.0416744E-1,1.1774687E-2,-7.7616232E-3,4.5606885E-3,1.3183209E-2,-2.0781316E-2,1.6079862E-2,-9.874846E-3,-4.21345E-3,-1.4899917E-2,3.2755636E-2,-1.6215999E-2,-1.8471595E-2,1.1461455E-2],"categories":[0,2,3,6,9,10,12,0,1,2,3,4,5,6,7,10,11,12,13],"categories_nodes":[1,2],"categories_segments":[0,7],"categories_sizes":[7,12],"default_left":[0,1,1,0,0,0,1,0,1,0,1,1,0,0,0,0,0,0,0,0,0,0,0,0,0],"id":36,"left_children":[1,3,5,7,9,-1,11,13,15,17,19,21,23,-1,-1,-1,-1,-1,-1,-1,-1,-1,-1,-1,-1],"loss_changes":[2.1255795E1,4.9333496E0,2.3540916E0,3.8235478E0,4.517696E0,0E0,1.6389832E0,3.4799757E0,4.158595E0,4.503877E0,4.645051E0,2.3708916E0,1.0954003E0,0E0,0E0,0E0,0E0,0E0,0E0,0E0,0E0,0E0,0E0,0E0,0E0],"parents":[2147483647,0,0,1,1,2,2,3,3,4,4,6,6,7,7,8,8,9,9,10,10,11,11,12,12],"right_children":[2,4,6,8,10,-1,12,14,16,18,20,22,24,-1,-1,-1,-1,-1,-1,-1,-1,-1,-1,-1,-1],"split_conditions":[4.775908E1,1E-45,1E-45,3.6988365E1,-4.689237E0,3.5948154E-2,2.2954142E1,2.5875427E1,-1.524E1,1.9480519E-1,1.5151516E-1,3.2810406E1,2.5861738E1,-7.7616232E-3,4.5606885E-3,1.3183209E-2,-2.0781316E-2,1.6079862E-2,-9.874846E-3,-4.21345E-3,-1.4899917E-2,3.2755636E-2,-1.6215999E-2,-1.8471595E-2,1.1461455E-2],"split_indices":[25,0,0,26,13,0,32,26,24,8,7,26,32,0,0,0,0,0,0,0,0,0,0,0,0],"split_type":[0,1,1,0,0,0,0,0,0,0,0,0,0,0,0,0,0,0,0,0,0,0,0,0,0],"sum_hessian":[1.2310033E3,1.168467E3,6.2536243E1,5.056546E2,6.628124E2,3.508389E1,2.7452354E1,4.6001382E2,4.5640778E1,7.0531395E1,5.92281E2,1.625964E1,1.1192716E1,6.608996E1,3.939239E2,1.133153E1,3.430925E1,4.516773E1,2.5363667E1,4.6238568E2,1.2989531E2,1.3930801E1,2.3288383E0,3.81172E0,7.3809958E0],"tree_param":{"num_deleted":"0","num_feature":"40","num_nodes":"25","size_leaf_vector":"1"}},{"base_weights":[-6.538881E-3,-5.3628707E-1,1.8402437E-2,7.1377784E-2,-5.714653E-1,1.08506024E-1,-5.929406E-2,-1.8211003E-2,2.2404214E-2,-3.0503793E-2,-1.6300963E-1,5.023472E-1,7.79865E-2,-2.6346812E-2,-2.2852527E-1,-2.4135096E-2,1.730047E-2,-2.6682049E-2,3.1046549E-2,3.976038E-4,1.3741349E-2,-2.5897438E-3,2.8911097E-2,-1.2815808E-2,4.6925962E-2],"categories":[2,4,5,9,10,11,13],"categories_nodes":[2],"categories_segments":[0],"categories_sizes":[7],"default_left":[1,0,1,0,1,0,1,0,0,0,0,0,0,1,0,0,0,0,0,0,0,0,0,0,0],"id":37,"left_children":[1,3,5,7,9,11,13,-1,-1,-1,15,17,19,21,23,-1,-1,-1,-1,-1,-1,-1,-1,-1,-1],"loss_changes":[1.3830648E1,1.0469275E0,7.0068974E0,7.3172003E-1,6.0396576E-1,5.530408E0,2.9914536E0,0E0,0E0,0E0,1.0159296E0,4.402766E0,5.9425106E0,6.970459E0,3.0777168E0,0E0,0E0,0E0,0E0,0E0,0E0,0E0,0E0,0E0,0E0],"parents":[2147483647,0,0,1,1,2,2,3,3,4,4,5,5,6,6,10,10,11,11,12,12,13,13,14,14],"right_children":[2,4,6,8,10,12,14,-1,-1,-1,16,18,20,22,24,-1,-1,-1,-1,-1,-1,-1,-1,-1,-1],"split_conditions":[2E0,-9.178514E1,1E-45,-2.54E0,2.7104723E0,-4E-1,3.835375E0,-1.8211003E-2,2.2404214E-2,-3.0503793E-2,1E0,-7.109496E0,4.05708E1,3.1452918E0,2.6622372E0,-2.4135096E-2,1.730047E-2,-2.6682049E-2,3.1046549E-2,3.976038E-4,1.3741349E-2,-2.5897438E-3,2.8911097E-2,-1.2815808E-2,4.6925962E-2],"split_indices":[2,21,0,23,25,11,12,0,0,0,38,13,19,12,14,0,0,0,0,0,0,0,0,0,0],"split_type":[0,0,1,0,0,0,0,0,0,0,0,0,0,0,0,0,0,0,0,0,0,0,0,0,0],"sum_hessian":[1.0450289E3,4.6067307E1,9.9896155E2,2.464623E0,4.3602684E1,4.6236572E2,5.365958E2,1.1583416E0,1.3062814E0,3.9385986E1,4.2166967E0,3.2140945E1,4.302248E2,4.5011887E2,8.647697E1,2.6217766E0,1.5949202E0,2.9416428E0,2.9199303E1,3.180908E2,1.12134E2,4.3281476E2,1.730411E1,8.5227806E1,1.2491634E0],"tree_param":{"num_deleted":"0","num_feature":"40","num_nodes":"25","size_leaf_vector":"1"}},{"base_weights":[6.219951E-3,-2.6766336E-2,2.92566E-2,9.4212526E-1,1.6585624E-2,1.306796E0,1.2350602E-1,-1.03468355E-2,2.2761324E-1,7.826011E-3,7.8001514E-2,2.6154092E-2,-1.6695103E-2,3.4021366E-2,-9.67058E-4,2.5691872E-2,-4.164189E-3],"categories":[0,1,6,8,9,11,13],"categories_nodes":[8],"categories_segments":[0],"categories_sizes":[7],"default_left":[1,0,0,0,1,0,0,0,1,0,0,0,0,0,0,0,0],"id":38,"left_children":[1,-1,3,5,7,9,11,13,15,-1,-1,-1,-1,-1,-1,-1,-1],"loss_changes":[7.782969E0,0E0,6.9031706E0,2.277865E0,3.361195E0,1.3720322E0,8.3674824E-1,3.275324E0,5.998746E0,0E0,0E0,0E0,0E0,0E0,0E0,0E0,0E0],"parents":[2147483647,0,0,2,2,3,3,4,4,5,5,6,6,7,7,8,8],"right_children":[2,-1,4,6,8,10,12,14,16,-1,-1,-1,-1,-1,-1,-1,-1],"split_conditions":[3E0,-2.6766336E-2,-1.2533881E1,2.2142857E-1,1.26E2,-6.5E0,1E0,2.1596167E1,1E-45,7.826011E-3,7.8001514E-2,2.6154092E-2,-1.6695103E-2,3.4021366E-2,-9.67058E-4,2.5691872E-2,-4.164189E-3],"split_indices":[2,0,25,11,16,4,27,32,0,0,0,0,0,0,0,0,0],"split_type":[0,0,0,0,0,0,0,0,1,0,0,0,0,0,0,0,0],"sum_hessian":[6.216088E2,2.4456081E1,5.971528E2,7.171011E0,5.8998175E2,4.548464E0,2.6225476E0,5.240506E2,6.593114E1,1.112626E0,3.4358377E0,1.3231294E0,1.2994182E0,5.776264E0,5.1827435E2,3.3987827E1,3.1943308E1],"tree_param":{"num_deleted":"0","num_feature":"40","num_nodes":"17","size_leaf_vector":"1"}},{"base_weights":[-4.987594E-3,-2.498873E-2,1.4435669E0,1.6961615E0,1.9359876E-1,2.4137614E0,1.019327E0,-1.9342173E-2,6.053089E-2,9.8530445E-3,1.363686E-1,3.0409982E-2,1.2357143E-1],"categories":[1,3,4,5,7,8,10,11,12,13],"categories_nodes":[3],"categories_segments":[0],"categories_sizes":[10],"default_left":[1,0,0,1,1,0,0,0,0,0,0,0,0],"id":39,"left_children":[1,-1,3,5,7,9,11,-1,-1,-1,-1,-1,-1],"loss_changes":[6.360601E1,0E0,6.8059654E0,6.6068306E0,3.3770885E0,5.2536697E0,5.2657385E0,0E0,0E0,0E0,0E0,0E0,0E0],"parents":[2147483647,0,0,2,2,3,3,4,4,5,5,6,6],"right_children":[2,-1,4,6,8,10,12,-1,-1,-1,-1,-1,-1],"split_conditions":[5E0,-2.498873E-2,5.7516026E1,1E-45,2.6666668E-1,-2.2381262E-1,6.8911705E0,-1.9342173E-2,6.053089E-2,9.8530445E-3,1.363686E-1,3.0409982E-2,1.2357143E-1],"split_indices":[2,0,20,0,5,11,25,0,0,0,0,0,0],"split_type":[0,0,0,1,0,0,0,0,0,0,0,0,0],"sum_hessian":[8.673863E1,6.5142654E1,2.159598E1,1.7668543E1,3.9274375E0,7.330394E0,1.0338149E1,2.8948774E0,1.0325601E0,1.1103617E0,6.220032E0,9.162772E0,1.1753765E0],"tree_param":{"num_deleted":"0","num_feature":"40","num_nodes":"13","size_leaf_vector":"1"}},{"base_weights":[-2.8002418E-3,6.722156E-1,-3.778607E-2,1.2437568E-1,6.968907E-1,-1.0932262E-1,3.4153327E-2,-1.3038898E-2,2.348575E-2,3.556299E-2,2.8919095E-1,-5.7046734E-2,-2.2339548E-1,2.918246E-1,9.695708E-3,2.1867396E-2,8.957026E-4,1.2780711E-2,-4.2181076E-3,-2.3182353E-2,-6.841793E-3,-3.310476E-2,1.7179603E-2,-1.8821953E-2,1.4426754E-3],"categories":[],"categories_nodes":[],"categories_segments":[],"categories_sizes":[],"default_left":[1,0,0,0,1,0,0,0,0,0,0,0,0,0,0,0,0,0,0,0,0,0,0,0,0],"id":40,"left_children":[1,3,5,7,9,11,13,-1,-1,-1,15,17,19,21,23,-1,-1,-1,-1,-1,-1,-1,-1,-1,-1],"loss_changes":[2.9643492E1,7.4944687E-1,6.1448174E0,6.3897264E-1,1.397667E-1,3.5566487E0,3.7515237E0,0E0,0E0,0E0,1.4058235E-1,3.5385733E0,3.8412027E0,2.7760863E0,4.0434394E0,0E0,0E0,0E0,0E0,0E0,0E0,0E0,0E0,0E0,0E0],"parents":[2147483647,0,0,1,1,2,2,3,3,4,4,5,5,6,6,10,10,11,11,12,12,13,13,14,14],"right_children":[2,4,6,8,10,12,14,-1,-1,-1,16,18,20,22,24,-1,-1,-1,-1,-1,-1,-1,-1,-1,-1],"split_conditions":[2E0,-9.178514E1,3.3333334E-1,-9.117043E-1,3.380972E1,4.9E1,-3E-1,-1.3038898E-2,2.348575E-2,3.556299E-2,6E-1,-5E-1,-2.5735798E0,-2.0541174E0,-4.635726E0,2.1867396E-2,8.957026E-4,1.2780711E-2,-4.2181076E-3,-2.3182353E-2,-6.841793E-3,-3.310476E-2,1.7179603E-2,-1.8821953E-2,1.4426754E-3],"split_indices":[2,21,11,25,26,16,5,0,0,0,5,11,25,14,12,0,0,0,0,0,0,0,0,0,0],"split_type":[0,0,0,0,0,0,0,0,0,0,0,0,0,0,0,0,0,0,0,0,0,0,0,0,0],"sum_hessian":[1.2531542E3,6.0852543E1,1.1923016E3,2.8830643E0,5.796948E1,5.975641E2,5.9473755E2,1.478723E0,1.404341E0,5.5276737E1,2.6927412E0,4.108054E2,1.867587E2,5.0609833E1,5.441277E2,1.345641E0,1.3471E0,3.2334663E1,3.7847073E2,4.8311302E1,1.384474E2,1.9982494E0,4.8611584E1,2.4838867E1,5.192888E2],"tree_param":{"num_deleted":"0","num_feature":"40","num_nodes":"25","size_leaf_vector":"1"}},{"base_weights":[-2.3052841E-2,-5.459457E-1,5.5835535E-5,6.983028E-3,-5.662817E-1,-4.7567964E-2,1.1974771E-1,6.415054E-3,-5.872056E-1,7.217204E-2,-8.64922E-2,1.8749571E-1,-1.761161E-1,-3.0409468E-2,-9.088737E-3,-9.057235E-3,1.1222966E-2,3.2475587E-2,-4.74752E-3,2.0115923E-3,1.574602E-2,2.5592703E-2,-1.6632577E-2],"categories":[0,1,2,3,4,6,7,8,9,10,11,12,13,0,2,4,5,7,9,10,11,1,5,8,10,11,12,13],"categories_nodes":[1,5,6],"categories_segments":[0,13,21],"categories_sizes":[13,8,7],"default_left":[1,0,1,0,0,1,1,0,1,0,0,1,0,0,0,0,0,0,0,0,0,0,0],"id":41,"left_children":[1,3,5,-1,7,9,11,-1,13,15,17,19,21,-1,-1,-1,-1,-1,-1,-1,-1,-1,-1],"loss_changes":[1.2599379E1,6.943798E-1,5.703434E0,0E0,7.011099E-1,3.3423157E0,5.741538E0,0E0,2.4656963E-1,6.835684E0,3.4272513E0,4.3449097E0,5.940267E0,0E0,0E0,0E0,0E0,0E0,0E0,0E0,0E0,0E0,0E0],"parents":[2147483647,0,0,1,1,2,2,4,4,5,5,6,6,8,8,9,9,10,10,11,11,12,12],"right_children":[2,4,6,-1,8,10,12,-1,14,16,18,20,22,-1,-1,-1,-1,-1,-1,-1,-1,-1,-1],"split_conditions":[2E0,1E-45,1.3748226E1,6.983028E-3,-8.879062E1,1E-45,1E-45,6.415054E-3,3.380972E1,2.1153846E-1,-1.8379325E0,2.9305954E1,-2.0335986E-1,-3.0409468E-2,-9.088737E-3,-9.057235E-3,1.1222966E-2,3.2475587E-2,-4.74752E-3,2.0115923E-3,1.574602E-2,2.5592703E-2,-1.6632577E-2],"split_indices":[2,0,18,0,20,0,0,0,26,8,14,32,11,0,0,0,0,0,0,0,0,0,0],"split_type":[0,1,0,0,0,1,1,0,0,0,0,0,0,0,0,0,0,0,0,0,0,0,0],"sum_hessian":[1.0417021E3,4.3130867E1,9.985713E2,1.0734334E0,4.2057434E1,7.147746E2,2.837967E2,1.0798349E0,4.09776E1,1.7514223E2,5.396324E2,2.3121785E2,5.257885E1,3.8485607E1,2.4919925E0,6.568741E1,1.0945482E2,5.2699285E0,5.343624E2,1.078695E2,1.2334834E2,9.325143E0,4.3253708E1],"tree_param":{"num_deleted":"0","num_feature":"40","num_nodes":"23","size_leaf_vector":"1"}},{"base_weights":[-3.5182876E-3,-2.6659528E-2,1.8674096E-2,-1.0200433E-2,2.6663613E-1,1.2488502E0,-1.7321406E-2,-2.2108588E-1,4.51761E-1,9.47733E-3,8.517908E-2,1.1765759E-2,-2.5629688E-3,-1.7987033E-2,2.5409555E-2,4.6554875E-2,6.6356654E-3],"categories":[0,1,3,4,5,7,8,9,11],"categories_nodes":[8],"categories_segments":[0],"categories_sizes":[9],"default_left":[1,0,1,0,0,0,0,0,1,0,0,0,0,0,0,0,0],"id":42,"left_children":[1,-1,3,5,7,9,11,13,15,-1,-1,-1,-1,-1,-1,-1,-1],"loss_changes":[7.34664E0,0E0,4.2987094E0,4.848716E0,5.7537665E0,1.1422429E0,4.610757E0,1.9928608E0,6.8683243E0,0E0,0E0,0E0,0E0,0E0,0E0,0E0,0E0],"parents":[2147483647,0,0,2,2,3,3,4,4,5,5,6,6,7,7,8,8],"right_children":[2,-1,4,6,8,10,12,14,16,-1,-1,-1,-1,-1,-1,-1,-1],"split_conditions":[3E0,-2.6659528E-2,4.776683E0,-6E0,-5E-1,2.5302632E0,-1.1666666E0,1.0411764E0,1E-45,9.47733E-3,8.517908E-2,1.1765759E-2,-2.5629688E-3,-1.7987033E-2,2.5409555E-2,4.6554875E-2,6.6356654E-3],"split_indices":[2,0,13,15,8,21,9,9,0,0,0,0,0,0,0,0,0],"split_type":[0,0,0,0,0,0,0,0,1,0,0,0,0,0,0,0,0],"sum_hessian":[6.2314935E2,2.413304E1,5.9901636E2,5.373967E2,6.161958E1,2.041633E0,5.353551E2,1.690036E1,4.471922E1,1.0387294E0,1.0029036E0,6.269743E1,4.7265768E2,1.4626243E1,2.2741177E0,1.710394E1,2.761528E1],"tree_param":{"num_deleted":"0","num_feature":"40","num_nodes":"17","size_leaf_vector":"1"}},{"base_weights":[1.407751E-2,-2.4971467E-2,1.4825226E0,1.8650479E0,6.695263E-1,2.3054261E0,1.0457462E-1,1.2229205E0,-1.9288277E-2,1.2356536E-2,1.382262E-1,3.6620345E-2,-1.7533544E-2,-1.551454E-2,8.967823E-2],"categories":[],"categories_nodes":[],"categories_segments":[],"categories_sizes":[],"default_left":[1,0,1,0,0,0,0,0,0,0,0,0,0,0,0],"id":43,"left_children":[1,-1,3,5,7,9,11,13,-1,-1,-1,-1,-1,-1,-1],"loss_changes":[6.5857445E1,0E0,5.7878036E0,1.1253456E1,5.610637E0,1.0478874E1,1.4041646E0,5.8167763E0,0E0,0E0,0E0,0E0,0E0,0E0,0E0],"parents":[2147483647,0,0,2,2,3,3,4,4,5,5,6,6,7,7],"right_children":[2,-1,4,6,8,10,12,14,-1,-1,-1,-1,-1,-1,-1],"split_conditions":[5E0,-2.4971467E-2,4.1666666E-1,1E0,1.1513859E-1,-5.308428E1,-4.5E0,-1.6782347E1,-1.9288277E-2,1.2356536E-2,1.382262E-1,3.6620345E-2,-1.7533544E-2,-1.551454E-2,8.967823E-2],"split_indices":[2,0,9,36,10,18,4,18,0,0,0,0,0,0,0],"split_type":[0,0,0,0,0,0,0,0,0,0,0,0,0,0,0],"sum_hessian":[8.535563E1,6.3729633E1,2.1625996E1,1.3826435E1,7.799559E0,1.0812233E1,3.0142028E0,5.012278E0,2.787281E0,2.2523696E0,8.559863E0,1.0110456E0,2.0031574E0,1.4832673E0,3.529011E0],"tree_param":{"num_deleted":"0","num_feature":"40","num_nodes":"15","size_leaf_vector":"1"}},{"base_weights":[2.2751403E-3,6.370588E-1,-2.9133482E-2,1.14949465E-1,6.621855E-1,-9.2177086E-2,4.2642746E-2,2.3018336E-2,-1.3238609E-2,6.777331E-1,6.177358E-3,-3.8702267E-1,-7.185072E-2,4.1404322E-1,2.4250848E-2,3.4621473E-2,1.6758272E-2,-3.17143E-2,1.1855415E-3,-1.3153617E-2,-2.1865093E-3,8.348812E-3,3.6792E-2,6.5185907E-3,-1.3940642E-3],"categories":[],"categories_nodes":[],"categories_segments":[],"categories_sizes":[],"default_left":[1,0,0,0,0,0,0,0,0,1,0,0,0,0,0,0,0,0,0,0,0,0,0,0,0],"id":44,"left_children":[1,3,5,7,9,11,13,-1,-1,15,-1,17,19,21,23,-1,-1,-1,-1,-1,-1,-1,-1,-1,-1],"loss_changes":[2.4446432E1,6.822624E-1,5.2909937E0,6.287508E-1,3.7639618E-1,3.7020721E0,3.7266932E0,0E0,0E0,3.5654068E-2,0E0,4.068248E0,3.1258466E0,1.9243522E0,2.8931375E0,0E0,0E0,0E0,0E0,0E0,0E0,0E0,0E0,0E0,0E0],"parents":[2147483647,0,0,1,1,2,2,3,3,4,4,5,5,6,6,9,9,11,11,12,12,13,13,14,14],"right_children":[2,4,6,8,10,12,14,-1,-1,16,-1,18,20,22,24,-1,-1,-1,-1,-1,-1,-1,-1,-1,-1],"split_conditions":[2E0,-9.178514E1,3.7594888E0,-2.54E0,6.777063E1,2.4605064E1,-6.591686E1,2.3018336E-2,-1.3238609E-2,3.380972E1,6.177358E-3,-3.3333334E-1,2.5730322E1,1.6883117E-1,-5E-1,3.4621473E-2,1.6758272E-2,-3.17143E-2,1.1855415E-3,-1.3153617E-2,-2.1865093E-3,8.348812E-3,3.6792E-2,6.5185907E-3,-1.3940642E-3],"split_indices":[2,21,12,23,21,26,18,0,0,26,0,13,32,7,4,0,0,0,0,0,0,0,0,0,0],"split_type":[0,0,0,0,0,0,0,0,0,0,0,0,0,0,0,0,0,0,0,0,0,0,0,0,0],"sum_hessian":[1.2242114E3,5.680814E1,1.1674033E3,2.864358E0,5.3943783E1,6.2135815E2,5.460451E2,1.3887182E0,1.4756396E0,5.2179405E1,1.764377E0,3.890975E1,5.824484E2,2.4749474E1,5.2129565E2,4.9053688E1,3.125718E0,2.394842E1,1.496133E1,7.360101E1,5.0884738E2,1.4859574E1,9.889899E0,1.7123213E2,3.5006354E2],"tree_param":{"num_deleted":"0","num_feature":"40","num_nodes":"25","size_leaf_vector":"1"}},{"base_weights":[9.966076E-3,-5.405498E-1,3.456881E-2,1.5898366E-2,-5.804879E-1,1.1643097E-2,2.8652313E-1,6.3300173E-4,-3.0084405E-2,7.235199E-2,-6.752235E-2,9.5573294E-1,2.050323E-1,5.620572E-3,-8.799961E-3,2.6096737E-3,-7.694412E-3,7.264799E-3,5.977859E-2,-2.3737198E-2,1.5910126E-2],"categories":[],"categories_nodes":[],"categories_segments":[],"categories_sizes":[],"default_left":[1,0,0,0,0,0,0,0,0,0,1,0,0,0,0,0,0,0,0,0,0],"id":45,"left_children":[1,3,5,-1,7,9,11,-1,-1,13,15,17,19,-1,-1,-1,-1,-1,-1,-1,-1],"loss_changes":[1.4094544E1,1.7109842E0,5.7482667E0,0E0,5.469866E-1,4.396322E0,4.3306565E0,0E0,0E0,5.169611E0,4.113785E0,1.5245924E0,5.941415E0,0E0,0E0,0E0,0E0,0E0,0E0,0E0,0E0],"parents":[2147483647,0,0,1,1,2,2,4,4,5,5,6,6,9,9,10,10,11,11,12,12],"right_children":[2,4,6,-1,8,10,12,-1,-1,14,16,18,20,-1,-1,-1,-1,-1,-1,-1,-1],"split_conditions":[2E0,-9.178514E1,7.446305E1,1.5898366E-2,2.2811773E1,4.3756824E0,2.5817932E1,6.3300173E-4,-3.0084405E-2,5E0,2.7687885E1,1.1904762E-2,2.745243E1,5.620572E-3,-8.799961E-3,2.6096737E-3,-7.694412E-3,7.264799E-3,5.977859E-2,-2.3737198E-2,1.5910126E-2],"split_indices":[2,21,20,0,32,12,32,0,0,2,26,7,32,0,0,0,0,0,0,0,0],"split_type":[0,0,0,0,0,0,0,0,0,0,0,0,0,0,0,0,0,0,0,0,0],"sum_hessian":[1.038254E3,4.351787E1,9.9473615E2,1.6250031E0,4.1892868E1,9.1273157E2,8.200463E1,1.4595559E0,4.0433315E1,5.166324E2,3.9609918E2,7.737283E0,7.426735E1,4.453449E2,7.128747E1,1.6616531E2,2.2993387E2,2.1335692E0,5.603714E0,1.0143533E1,6.412381E1],"tree_param":{"num_deleted":"0","num_feature":"40","num_nodes":"21","size_leaf_vector":"1"}},{"base_weights":[-1.5934249E-3,-2.6506333E-2,2.0088937E-2,2.0727882E-1,-1.8931659E-2,4.0461794E-1,-1.6002348E-1,-4.3400086E-2,3.3150393E-1,3.0247653E-2,-2.5093253E-3,4.975378E-2,-1.1496139E-2,-2.5460047E-3,4.235981E-2,3.7279844E-2,-2.310436E-3],"categories":[0,1,2,4,5,6,7,8,9,10,11,12,13,0,1,3,4,7,8,9,11,12],"categories_nodes":[6,8],"categories_segments":[0,13],"categories_sizes":[13,9],"default_left":[1,0,0,0,1,0,1,1,1,0,0,0,0,0,0,0,0],"id":46,"left_children":[1,-1,3,5,7,9,11,13,15,-1,-1,-1,-1,-1,-1,-1,-1],"loss_changes":[7.0610285E0,0E0,4.327636E0,7.4719524E0,4.22239E0,6.113077E0,3.170348E0,3.121259E0,5.0622063E0,0E0,0E0,0E0,0E0,0E0,0E0,0E0,0E0],"parents":[2147483647,0,0,2,2,3,3,4,4,5,5,6,6,7,7,8,8],"right_children":[2,-1,4,6,8,10,12,14,16,-1,-1,-1,-1,-1,-1,-1,-1],"split_conditions":[3E0,-2.6506333E-2,-9.8245615E-1,5.7142857E-2,5.6231885E0,3.5694458E0,1E-45,7.8571427E-1,1E-45,3.0247653E-2,-2.5093253E-3,4.975378E-2,-1.1496139E-2,-2.5460047E-3,4.235981E-2,3.7279844E-2,-2.310436E-3],"split_indices":[2,0,9,5,13,13,0,11,0,0,0,0,0,0,0,0,0],"split_type":[0,0,0,0,0,0,1,0,1,0,0,0,0,0,0,0,0],"sum_hessian":[6.142244E2,2.328068E1,5.909438E2,1.0119213E2,4.8975165E2,6.575994E1,3.543219E1,4.5860657E2,3.1145082E1,4.5422028E1,2.0337917E1,1.2665393E0,3.416565E1,4.5570154E2,2.9050243E0,1.4392431E1,1.6752651E1],"tree_param":{"num_deleted":"0","num_feature":"40","num_nodes":"17","size_leaf_vector":"1"}},{"base_weights":[-2.7372306E-2,-2.4956927E-2,1.1977067E0,1.3216926E0,-4.6100724E-2,1.085577E0,2.3645048E0,-1.4121274E-2,1.1719932E-2,7.508102E-2,2.339131E-2,1.4801803E-1,3.275579E-2],"categories":[1,3,4,5,8,10,11,12,13],"categories_nodes":[5],"categories_segments":[0],"categories_sizes":[9],"default_left":[1,0,0,0,0,1,0,0,0,0,0,0,0],"id":47,"left_children":[1,-1,3,5,7,9,11,-1,-1,-1,-1,-1,-1],"loss_changes":[5.11117E1,0E0,3.853691E0,2.9481697E0,2.7803734E-1,4.4665165E0,1.4079533E0,0E0,0E0,0E0,0E0,0E0,0E0],"parents":[2147483647,0,0,2,2,3,3,4,4,5,5,6,6],"right_children":[2,-1,4,6,8,10,12,-1,-1,-1,-1,-1,-1],"split_conditions":[5E0,-2.4956927E-2,8.996118E1,7.0006843E0,1.7549623E0,1E-45,7.4335375E0,-1.4121274E-2,1.1719932E-2,7.508102E-2,2.339131E-2,1.4801803E-1,3.275579E-2],"split_indices":[2,0,20,25,25,0,21,0,0,0,0,0,0],"split_type":[0,0,0,0,0,1,0,0,0,0,0,0,0],"sum_hessian":[8.640168E1,6.280763E1,2.3594051E1,2.1398386E1,2.1956642E0,1.9112015E1,2.286372E0,1.1879404E0,1.0077238E0,1.0565538E1,8.546477E0,1.1527311E0,1.1336409E0],"tree_param":{"num_deleted":"0","num_feature":"40","num_nodes":"13","size_leaf_vector":"1"}},{"base_weights":[4.99879E-3,6.257792E-1,-2.427845E-2,1.8036753E-1,6.501714E-1,-9.348229E-2,5.9586048E-2,-1.3072629E-2,2.5175083E-2,6.662039E-1,1.1550002E-3,5.525947E-1,-1.0426325E-1,4.2527042E-2,3.6060724E-1,3.4055408E-2,1.2072436E-2,-1.9070517E-2,4.02162E-2,-3.285216E-3,-1.4212772E-2,1.3104647E-2,1.0634154E-3,2.5174854E-2,-1.3943109E-2],"categories":[0,1,2,3,5,9,10,11,12,13],"categories_nodes":[4],"categories_segments":[0],"categories_sizes":[10],"default_left":[1,0,0,0,1,0,0,0,0,1,0,0,0,0,0,0,0,0,0,0,0,0,0,0,0],"id":48,"left_children":[1,3,5,7,9,11,13,-1,-1,15,-1,17,19,21,23,-1,-1,-1,-1,-1,-1,-1,-1,-1,-1],"loss_changes":[2.269207E1,4.936638E-1,6.926435E0,7.4603575E-1,5.1673126E-1,4.6111116E0,2.7563195E0,0E0,0E0,1.6203499E-1,0E0,2.866835E0,4.4498343E0,2.383964E0,2.773197E0,0E0,0E0,0E0,0E0,0E0,0E0,0E0,0E0,0E0,0E0],"parents":[2147483647,0,0,1,1,2,2,3,3,4,4,5,5,6,6,9,9,11,11,12,12,13,13,14,14],"right_children":[2,4,6,8,10,12,14,-1,-1,16,-1,18,20,22,24,-1,-1,-1,-1,-1,-1,-1,-1,-1,-1],"split_conditions":[2E0,-9.178514E1,5E-1,-9.117043E-1,1E-45,-1.1E1,3.655852E1,-1.3072629E-2,2.5175083E-2,5.026694E0,1.1550002E-3,-3.3264363E0,5E0,-3E-1,7.62E0,3.4055408E-2,1.2072436E-2,-1.9070517E-2,4.02162E-2,-3.285216E-3,-1.4212772E-2,1.3104647E-2,1.0634154E-3,2.5174854E-2,-1.3943109E-2],"split_indices":[2,21,11,25,0,4,32,0,0,25,0,13,2,17,23,0,0,0,0,0,0,0,0,0,0],"split_type":[0,0,0,0,1,0,0,0,0,0,0,0,0,0,0,0,0,0,0,0,0,0,0,0,0],"sum_hessian":[1.2467141E3,5.523179E1,1.1914824E3,3.3034678E0,5.192832E1,6.5273755E2,5.387448E2,1.4760945E0,1.8273731E0,5.05729E1,1.3554204E0,9.88847E0,6.4284906E2,5.109314E2,2.7813438E1,4.8275433E1,2.2974684E0,1.9899365E0,7.898534E0,5.3055554E2,1.1229352E2,4.4102303E1,4.668291E2,2.2907398E1,4.9060397E0],"tree_param":{"num_deleted":"0","num_feature":"40","num_nodes":"25","size_leaf_vector":"1"}},{"base_weights":[9.876094E-3,-5.2920073E-1,3.1360563E-2,7.4229385E-3,-5.692592E-1,-3.4389037E-3,1.2235075E-1,2.17292E-2,-1.979592E-2,-2.9603695E-2,-4.330634E-3,3.8081098E-1,-1.4401509E-2,7.107596E-1,9.648889E-2,2.9777715E-2,-8.092857E-3,-9.698461E-3,5.490238E-4,5.635453E-2,-6.1940023E-4,-7.293795E-4,1.14495065E-2],"categories":[],"categories_nodes":[],"categories_segments":[],"categories_sizes":[],"default_left":[1,0,1,0,1,0,0,0,0,0,0,0,0,0,0,0,0,0,0,0,0,0,0],"id":49,"left_children":[1,3,5,7,9,11,13,-1,-1,-1,-1,15,17,19,21,-1,-1,-1,-1,-1,-1,-1,-1],"loss_changes":[1.2217593E1,8.7336063E-1,3.211265E0,8.2602257E-1,3.6314678E-1,3.0993736E0,4.200762E0,0E0,0E0,0E0,0E0,2.474825E0,3.2612455E0,3.5228825E0,3.975707E0,0E0,0E0,0E0,0E0,0E0,0E0,0E0,0E0],"parents":[2147483647,0,0,1,1,2,2,3,3,4,4,5,5,6,6,11,11,12,12,13,13,14,14],"right_children":[2,4,6,8,10,12,14,-1,-1,-1,-1,16,18,20,22,-1,-1,-1,-1,-1,-1,-1,-1],"split_conditions":[2E0,-9.178514E1,1.4148212E1,-9.117043E-1,5.026694E0,-1.2661966E0,1.6354998E1,2.17292E-2,-1.979592E-2,-2.9603695E-2,-4.330634E-3,2E0,-9.1E1,1.3664596E-1,3.270327E1,2.9777715E-2,-8.092857E-3,-9.698461E-3,5.490238E-4,5.635453E-2,-6.1940023E-4,-7.293795E-4,1.14495065E-2],"split_indices":[2,21,18,25,25,14,18,0,0,0,0,3,16,10,19,0,0,0,0,0,0,0,0],"split_type":[0,0,0,0,0,0,0,0,0,0,0,0,0,0,0,0,0,0,0,0,0,0,0],"sum_hessian":[1.0524648E3,3.9431786E1,1.0130331E3,2.7956722E0,3.6636112E1,7.3347546E2,2.7955765E2,1.3201257E0,1.4755465E0,3.4766003E1,1.8701081E0,1.9409695E1,7.1406573E2,1.0654881E1,2.6890277E2,1.38367815E1,5.5729127E0,8.761086E1,6.264549E2,6.4074116E0,4.2474685E0,1.4676161E2,1.2214114E2],"tree_param":{"num_deleted":"0","num_feature":"40","num_nodes":"23","size_leaf_vector":"1"}},{"base_weights":[8.197113E-3,3.2855667E-2,-4.7527063E-1,6.9551027E-1,2.1732355E-2,-4.2950438E-4,-5.0371486E-1,-4.7774527E-2,1.1708791E0,6.705208E-1,1.1333006E-2,-8.1579015E-2,-2.682707E-2,2.0135533E-2,-2.0284362E-2,3.4653065E-3,7.454423E-2,-2.1280322E-2,5.8362525E-2,1.1958024E-2,-1.0941945E-3,1.0484393E-2,-1.5530276E-2],"categories":[4,5,6,8,9,0,3,4,5,6,7,8,9,11,12],"categories_nodes":[6,10],"categories_segments":[0,5],"categories_sizes":[5,10],"default_left":[0,0,0,1,0,0,0,0,0,0,0,0,0,0,0,0,0,0,0,0,0,0,0],"id":50,"left_children":[1,3,5,7,9,-1,11,13,15,17,19,21,-1,-1,-1,-1,-1,-1,-1,-1,-1,-1,-1],"loss_changes":[7.388127E0,4.328861E0,3.949046E-1,3.4822521E0,3.9099858E0,0E0,3.4880924E-1,9.2817503E-1,1.9954004E0,5.474979E0,4.3377547E0,2.801563E-1,0E0,0E0,0E0,0E0,0E0,0E0,0E0,0E0,0E0,0E0,0E0],"parents":[2147483647,0,0,1,1,2,2,3,3,4,4,6,6,7,7,8,8,9,9,10,10,11,11],"right_children":[2,4,6,8,10,-1,12,14,16,18,20,22,-1,-1,-1,-1,-1,-1,-1,-1,-1,-1,-1],"split_conditions":[1.3240247E1,-1.2533881E1,-2.54E0,-9.855072E-2,-3.4166667E0,-4.2950438E-4,1E-45,3.6167007E1,-5.6172123E1,-1.5E0,1E-45,3.6167007E1,-2.682707E-2,2.0135533E-2,-2.0284362E-2,3.4653065E-3,7.454423E-2,-2.1280322E-2,5.8362525E-2,1.1958024E-2,-1.0941945E-3,1.0484393E-2,-1.5530276E-2],"split_indices":[25,25,24,10,9,0,0,32,20,4,0,32,0,0,0,0,0,0,0,0,0,0,0],"split_type":[0,0,0,0,0,0,1,0,0,0,1,0,0,0,0,0,0,0,0,0,0,0,0],"sum_hessian":[6.174155E2,5.8834015E2,2.9075375E1,8.697086E0,5.7964307E2,1.7451371E0,2.7330238E1,3.7434084E0,4.953678E0,8.143034E0,5.715E2,2.2234008E0,2.5106836E1,1.601953E0,2.1414554E0,1.38896E0,3.5647182E0,2.5840425E0,5.558991E0,7.193226E1,4.9956775E2,1.0158814E0,1.2075195E0],"tree_param":{"num_deleted":"0","num_feature":"40","num_nodes":"23","size_leaf_vector":"1"}},{"base_weights":[3.680896E-2,-2.3467083E-1,1.1024423E0,-3.9935312E-1,5.9168476E-1,1.4133387E0,1.2287397E-1,-4.3005207E-1,2.9834107E-1,1.6690669E0,7.876058E-2,4.5906457E-1,2.0190911E0,6.2088555E-1,-1.8611334E-2,-2.2299035E-2,9.375161E-3,-1.3299688E-2,3.714036E-2,8.182894E-3,1.1528152E-1,6.011484E-2,-1.0480079E-2,4.7674865E-2,-1.8266045E-2,1.2290013E-1,-1.4490438E-2,-1.3205771E-2,6.0712833E-2],"categories":[],"categories_nodes":[],"categories_segments":[],"categories_sizes":[],"default_left":[0,0,0,1,0,0,1,1,1,1,0,0,0,1,0,0,0,0,0,0,0,0,0,0,0,0,0,0,0],"id":51,"left_children":[1,3,5,7,9,11,13,15,17,19,21,23,25,27,-1,-1,-1,-1,-1,-1,-1,-1,-1,-1,-1,-1,-1,-1,-1],"loss_changes":[2.566547E1,9.87333E0,5.3100853E0,1.4058123E0,6.594161E0,6.9191017E0,1.5707734E0,6.496401E-1,9.7620785E-1,3.3368511E0,3.2633395E0,3.0241091E0,8.828148E0,1.9399488E0,0E0,0E0,0E0,0E0,0E0,0E0,0E0,0E0,0E0,0E0,0E0,0E0,0E0,0E0,0E0],"parents":[2147483647,0,0,1,1,2,2,3,3,4,4,5,5,6,6,7,7,8,8,9,9,10,10,11,11,12,12,13,13],"right_children":[2,4,6,8,10,12,14,16,18,20,22,24,26,28,-1,-1,-1,-1,-1,-1,-1,-1,-1,-1,-1,-1,-1,-1,-1],"split_conditions":[1E0,1.2E1,6.6125375E-1,8.5714287E-1,-3.0726578E0,-1.2705012E-1,-9.5E-1,3.854894E1,-1E-1,5.08E0,-5.1663246E0,9E0,2.8636363E-1,2.7441479E1,-1.8611334E-2,-2.2299035E-2,9.375161E-3,-1.3299688E-2,3.714036E-2,8.182894E-3,1.1528152E-1,6.011484E-2,-1.0480079E-2,4.7674865E-2,-1.8266045E-2,1.2290013E-1,-1.4490438E-2,-1.3205771E-2,6.0712833E-2],"split_indices":[1,27,14,6,13,14,7,26,10,24,25,33,10,26,0,0,0,0,0,0,0,0,0,0,0,0,0,0,0],"split_type":[0,0,0,0,0,0,0,0,0,0,0,0,0,0,0,0,0,0,0,0,0,0,0,0,0,0,0,0,0],"sum_hessian":[8.6822136E1,6.981573E1,1.7006409E1,5.8645203E1,1.1170524E1,1.2573121E1,4.4332876E0,5.6540974E1,2.1042264E0,2.875854E0,8.294669E0,5.5646605E0,7.008461E0,2.0834892E0,2.3497982E0,5.539013E1,1.1508464E0,1.1040132E0,1.000213E0,1.2282535E0,1.6476004E0,1.0467708E0,7.2478986E0,3.3805368E0,2.1841235E0,5.8347282E0,1.1737325E0,1.0589607E0,1.0245285E0],"tree_param":{"num_deleted":"0","num_feature":"40","num_nodes":"29","size_leaf_vector":"1"}},{"base_weights":[1.9632703E-2,6.283243E-1,-8.666058E-3,9.612476E-2,6.5529627E-1,-7.7733606E-2,4.9764033E-2,2.2597132E-2,-1.447584E-2,5.5342214E-3,3.3601068E-2,-3.7051916E-1,-4.5817677E-2,9.201439E-2,-1.7978774E-1,9.15528E-3,-2.915189E-2,5.5089695E-3,-5.2989875E-3,2.8595233E-3,1.658689E-2,-2.09006E-2,-2.5402596E-3],"categories":[0,3,8,10,12,13],"categories_nodes":[6],"categories_segments":[0],"categories_sizes":[6],"default_left":[1,0,0,0,0,0,1,0,0,0,0,0,1,0,0,0,0,0,0,0,0,0,0],"id":52,"left_children":[1,3,5,7,9,11,13,-1,-1,-1,-1,15,17,19,21,-1,-1,-1,-1,-1,-1,-1,-1],"loss_changes":[2.1179865E1,7.211189E-1,4.748324E0,6.532025E-1,3.976097E-1,5.0212975E0,6.199187E0,0E0,0E0,0E0,0E0,6.3254986E0,4.585163E0,4.4810266E0,3.0339565E0,0E0,0E0,0E0,0E0,0E0,0E0,0E0,0E0],"parents":[2147483647,0,0,1,1,2,2,3,3,4,4,5,5,6,6,11,11,12,12,13,13,14,14],"right_children":[2,4,6,8,10,12,14,-1,-1,-1,-1,16,18,20,22,-1,-1,-1,-1,-1,-1,-1,-1],"split_conditions":[2E0,-9.178514E1,2.612403E-1,6E0,2.2811773E1,2.530048E1,1E-45,2.2597132E-2,-1.447584E-2,5.5342214E-3,3.3601068E-2,-3.9018948E1,-3.2330826E-1,3.4543465E1,0E0,9.15528E-3,-2.915189E-2,5.5089695E-3,-5.2989875E-3,2.8595233E-3,1.658689E-2,-2.09006E-2,-2.5402596E-3],"split_indices":[2,21,10,33,32,26,0,0,0,0,0,18,6,32,15,0,0,0,0,0,0,0,0],"split_type":[0,0,0,0,0,0,1,0,0,0,0,0,0,0,0,0,0,0,0,0,0,0,0],"sum_hessian":[1.2282686E3,5.3624756E1,1.1746438E3,2.8067672E0,5.081799E1,5.381687E2,6.3647504E2,1.3704122E0,1.436355E0,1.7410998E0,4.907689E1,5.1855476E1,4.8631323E2,5.3804407E2,9.8431015E1,1.4422454E1,3.743302E1,1.351208E2,3.5119244E2,4.7087936E2,6.7164696E1,3.37871E1,6.464391E1],"tree_param":{"num_deleted":"0","num_feature":"40","num_nodes":"23","size_leaf_vector":"1"}},{"base_weights":[-4.657794E-3,-4.993984E-1,1.5680263E-2,1.0029361E-2,-5.39789E-1,8.922925E-1,8.877271E-3,-2.9231504E-2,-3.482234E-2,-3.3669453E-3,5.8134675E-2,-1.7846167E-1,3.1293873E-2,-2.0216737E-2,1.8593585E-2,1.3002537E-2,-1.2126097E-2,-2.4841146E-3,4.827324E-3],"categories":[0,1,2,3,4,5],"categories_nodes":[8],"categories_segments":[0],"categories_sizes":[6],"default_left":[1,0,0,0,1,1,0,0,1,0,0,0,1,0,0,0,0,0,0],"id":53,"left_children":[1,3,5,-1,7,9,11,-1,13,-1,-1,15,17,-1,-1,-1,-1,-1,-1],"loss_changes":[1.0482518E1,1.2712774E0,5.960871E0,0E0,8.6639214E-1,2.075673E0,4.180627E0,0E0,7.9013884E-1,0E0,0E0,3.051885E0,4.7010183E0,0E0,0E0,0E0,0E0,0E0,0E0],"parents":[2147483647,0,0,1,1,2,2,4,4,5,5,6,6,8,8,11,11,12,12],"right_children":[2,4,6,-1,8,10,12,-1,14,-1,-1,16,18,-1,-1,-1,-1,-1,-1],"split_conditions":[2E0,-9.178514E1,-2.0541174E0,1.0029361E-2,2.7104723E0,1.6454483E0,-1.27E2,-2.9231504E-2,1E-45,-3.3669453E-3,5.8134675E-2,-4.017857E-1,-2.54E0,-2.0216737E-2,1.8593585E-2,1.3002537E-2,-1.2126097E-2,-2.4841146E-3,4.827324E-3],"split_indices":[2,21,14,0,25,25,16,0,0,0,0,6,24,0,0,0,0,0,0],"split_type":[0,0,0,0,0,0,0,0,1,0,0,0,0,0,0,0,0,0,0],"sum_hessian":[1.0400079E3,4.0134995E1,9.998729E2,1.9731585E0,3.8161835E1,6.6974607E0,9.931754E2,3.4904552E1,3.2572842E0,1.6374058E0,5.060055E0,1.0539684E2,8.877786E2,1.7096964E0,1.5475878E0,1.3044399E1,9.235244E1,3.9626562E2,4.9151297E2],"tree_param":{"num_deleted":"0","num_feature":"40","num_nodes":"19","size_leaf_vector":"1"}},{"base_weights":[-1.7821379E-2,-2.6268912E-2,2.1434801E-3,-2.3300027E-2,3.2411975E-1,2.7026447E-2,-2.1063875E-1,4.9818608E-1,-4.0456977E-1,-1.1839087E-2,3.5267153E-3,-4.8618284E-3,-1.8950744E-2,6.92321E-2,1.3814377E-2,-2.5375707E-2,1.018669E-2],"categories":[],"categories_nodes":[],"categories_segments":[],"categories_sizes":[],"default_left":[1,0,0,0,1,0,0,0,0,0,0,0,0,0,0,0,0],"id":54,"left_children":[1,-1,3,5,7,9,11,13,15,-1,-1,-1,-1,-1,-1,-1,-1],"loss_changes":[6.233406E0,0E0,4.863473E0,5.193705E0,5.7162375E0,5.005332E0,2.1902142E0,6.6087446E0,6.629214E-1,0E0,0E0,0E0,0E0,0E0,0E0,0E0,0E0],"parents":[2147483647,0,0,2,2,3,3,4,4,5,5,6,6,7,7,8,8],"right_children":[2,-1,4,6,8,10,12,14,16,-1,-1,-1,-1,-1,-1,-1,-1],"split_conditions":[3E0,-2.6268912E-2,1.5E1,2.1281376E1,2E-1,-2.2222222E-1,3.1537304E1,-3.0111475E1,8.8E1,-1.1839087E-2,3.5267153E-3,-4.8618284E-3,-1.8950744E-2,6.92321E-2,1.3814377E-2,-2.5375707E-2,1.018669E-2],"split_indices":[2,0,27,21,10,7,32,21,16,0,0,0,0,0,0,0,0],"split_type":[0,0,0,0,0,0,0,0,0,0,0,0,0,0,0,0,0],"sum_hessian":[6.140296E2,2.2280792E1,5.9174884E2,5.492714E2,4.2477398E1,4.336357E2,1.156357E2,3.4542385E1,7.935015E0,6.0762493E1,3.7287323E2,7.0040535E1,4.5595165E1,5.8665013E0,2.8675882E1,6.9282274E0,1.0067878E0],"tree_param":{"num_deleted":"0","num_feature":"40","num_nodes":"17","size_leaf_vector":"1"}},{"base_weights":[3.8363058E-2,-2.492451E-2,1.2324282E0,1.3661008E0,1.0669863E-1,1.4878703E0,-1.0331128E-3,-1.7348582E-2,3.6377236E-2,5.4986984E-2,1.1227267E-1],"categories":[],"categories_nodes":[],"categories_segments":[],"categories_sizes":[],"default_left":[1,0,0,1,0,1,0,0,0,0,0],"id":55,"left_children":[1,-1,3,5,7,9,-1,-1,-1,-1,-1],"loss_changes":[5.672395E1,0E0,3.9827385E0,4.157631E0,1.3781557E0,4.1406097E0,0E0,0E0,0E0,0E0,0E0],"parents":[2147483647,0,0,2,2,3,3,4,4,5,5],"right_children":[2,-1,4,6,8,10,-1,-1,-1,-1,-1],"split_conditions":[5E0,-2.492451E-2,7.727814E1,2.03E2,4.1538462E-1,1.12170845E-1,-1.0331128E-3,-1.7348582E-2,3.6377236E-2,5.4986984E-2,1.1227267E-1],"split_indices":[2,0,20,16,7,10,0,0,0,0,0],"split_type":[0,0,0,0,0,0,0,0,0,0,0],"sum_hessian":[8.652932E1,6.009366E1,2.6435661E1,2.3438925E1,2.9967363E0,2.14799E1,1.9590257E0,1.9863695E0,1.0103669E0,1.5824311E1,5.6555886E0],"tree_param":{"num_deleted":"0","num_feature":"40","num_nodes":"11","size_leaf_vector":"1"}},{"base_weights":[6.137506E-4,6.0702527E-1,-2.7749412E-2,1.7596638E-1,6.304918E-1,-1.9619137E-1,-1.1906847E-3,2.46561E-2,-1.26881255E-2,6.460959E-1,5.4258606E-3,2.592616E-2,-2.8148022E-1,9.464649E-2,-5.3190105E-2,3.3102334E-2,9.979668E-3,-2.1650977E-2,8.188906E-3,-1.9347245E-2,5.910142E-3,-3.7579306E-3,7.685487E-3,3.0696664E-3,-5.4772715E-3],"categories":[0,1,2,3,5,9,10,11,12,13,0,1,2,3,4,6,7,12,13],"categories_nodes":[4,5],"categories_segments":[0,10],"categories_sizes":[10,9],"default_left":[1,0,0,0,1,1,1,0,0,1,0,0,0,0,0,0,0,0,0,0,0,0,0,0,0],"id":56,"left_children":[1,3,5,7,9,11,13,-1,-1,15,-1,17,19,21,23,-1,-1,-1,-1,-1,-1,-1,-1,-1,-1],"loss_changes":[2.1543024E1,4.5517159E-1,5.352769E0,7.079915E-1,3.5903358E-1,3.0945344E0,5.1609898E0,0E0,0E0,2.3078346E-1,0E0,2.9893928E0,5.012788E0,3.664896E0,4.341831E0,0E0,0E0,0E0,0E0,0E0,0E0,0E0,0E0,0E0,0E0],"parents":[2147483647,0,0,1,1,2,2,3,3,4,4,5,5,6,6,9,9,11,11,12,12,13,13,14,14],"right_children":[2,4,6,8,10,12,14,-1,-1,16,-1,18,20,22,24,-1,-1,-1,-1,-1,-1,-1,-1,-1,-1],"split_conditions":[2E0,-9.178514E1,2.530048E1,-2.54E0,1E-45,1E-45,-5.08E0,2.46561E-2,-1.26881255E-2,3.380972E1,5.4258606E-3,-2.54E0,1E0,-1.11028865E-1,-1E0,3.3102334E-2,9.979668E-3,-2.1650977E-2,8.188906E-3,-1.9347245E-2,5.910142E-3,-3.7579306E-3,7.685487E-3,3.0696664E-3,-5.4772715E-3],"split_indices":[2,21,26,23,0,0,24,0,0,26,0,23,30,14,3,0,0,0,0,0,0,0,0,0,0],"split_type":[0,0,0,0,1,1,0,0,0,0,0,0,0,0,0,0,0,0,0,0,0,0,0,0,0],"sum_hessian":[1.2505404E3,5.496536E1,1.1955751E3,3.2765546E0,5.16888E1,1.6196516E2,1.0336099E3,1.800328E0,1.4762266E0,4.995756E1,1.7312398E0,4.512979E1,1.1683537E2,3.632691E2,6.7034076E2,4.7768353E1,2.189211E0,9.929769E0,3.5200024E1,9.246771E1,2.4367655E1,9.367725E1,2.6959183E2,2.2096939E2,4.493714E2],"tree_param":{"num_deleted":"0","num_feature":"40","num_nodes":"25","size_leaf_vector":"1"}},{"base_weights":[1.1814403E-2,2.6003003E-2,-5.1808083E-1,7.6057255E-1,1.6968584E-2,1.6230595E-1,-2.9350433E-2,-1.8462595E-2,9.133034E-1,4.9772955E-2,-1.02318324E-1,2.9347796E-2,-1.6444184E-2,5.4662477E-2,1.2797183E-2,5.0190915E-3,-2.5531363E-3,-1.9708641E-3,-1.8756E-2],"categories":[8,11,2,4,5,13],"categories_nodes":[0,9],"categories_segments":[0,2],"categories_sizes":[2,4],"default_left":[0,0,0,1,0,0,0,0,0,1,0,0,0,0,0,0,0,0,0],"id":57,"left_children":[1,3,5,7,9,11,-1,-1,13,15,17,-1,-1,-1,-1,-1,-1,-1,-1],"loss_changes":[7.8068833E0,6.6931148E0,1.3652353E0,2.4517994E0,3.9152322E0,8.7602043E-1,0E0,0E0,1.0311623E0,4.00798E0,3.6891112E0,0E0,0E0,0E0,0E0,0E0,0E0,0E0,0E0],"parents":[2147483647,0,0,1,1,2,2,3,3,4,4,5,5,8,8,9,9,10,10],"right_children":[2,4,6,8,10,12,-1,-1,14,16,18,-1,-1,-1,-1,-1,-1,-1,-1],"split_conditions":[1E-45,-1.8379325E0,2.6995209E1,-3.5017111E0,4.4462695E0,2.956879E0,-2.9350433E-2,-1.8462595E-2,-7.7042603E-1,1E-45,3.0346338E1,2.9347796E-2,-1.6444184E-2,5.4662477E-2,1.2797183E-2,5.0190915E-3,-2.5531363E-3,-1.9708641E-3,-1.8756E-2],"split_indices":[0,14,32,25,25,25,0,0,12,0,32,0,0,0,0,0,0,0,0],"split_type":[1,0,0,0,0,0,0,0,0,1,0,0,0,0,0,0,0,0,0],"sum_hessian":[1.0355687E3,1.0094893E3,2.60794E1,1.1254125E1,9.982352E2,2.274371E0,2.3805027E1,1.1713574E0,1.0082767E1,7.833842E2,2.1485101E2,1.1152402E0,1.1591307E0,7.3952837E0,2.6874833E0,5.2160034E2,2.6178387E2,1.7552415E2,3.932686E1],"tree_param":{"num_deleted":"0","num_feature":"40","num_nodes":"19","size_leaf_vector":"1"}},{"base_weights":[1.0339919E-2,-2.6069734E-2,2.973593E-2,6.1925423E-1,1.7707452E-2,-1.318391E-1,1.1164762E0,1.0133368E-1,-4.020798E-2,1.6197499E-2,-2.1756276E-2,6.075445E-3,8.173986E-2,3.6589787E-3,6.07708E-2,5.406667E-4,-9.309042E-3],"categories":[3,4,5,11],"categories_nodes":[8],"categories_segments":[0],"categories_sizes":[4],"default_left":[1,0,0,1,0,0,0,0,1,0,0,0,0,0,0,0,0],"id":58,"left_children":[1,-1,3,5,7,9,11,13,15,-1,-1,-1,-1,-1,-1,-1,-1],"loss_changes":[6.401423E0,0E0,4.2318254E0,4.604366E0,2.8489945E0,9.2173415E-1,3.5591516E0,7.4587684E0,2.5920758E0,0E0,0E0,0E0,0E0,0E0,0E0,0E0,0E0],"parents":[2147483647,0,0,2,2,3,3,4,4,5,5,6,6,7,7,8,8],"right_children":[2,-1,4,6,8,10,12,14,16,-1,-1,-1,-1,-1,-1,-1,-1],"split_conditions":[3E0,-2.6069734E-2,-1.2145106E1,-9.855072E-2,-1.1471595E0,2.3570158E1,9.803922E-3,1.9E1,1E-45,1.6197499E-2,-2.1756276E-2,6.075445E-3,8.173986E-2,3.6589787E-3,6.07708E-2,5.406667E-4,-9.309042E-3],"split_indices":[2,0,25,10,25,26,6,27,0,0,0,0,0,0,0,0,0],"split_type":[0,0,0,0,0,0,0,0,1,0,0,0,0,0,0,0,0],"sum_hessian":[6.181788E2,2.0844793E1,5.97334E2,1.0934799E1,5.863992E2,4.6481886E0,6.2866106E0,2.3963364E2,3.4676553E2,1.8299484E0,2.8182402E0,2.5760536E0,3.7105567E0,2.3476651E2,4.867127E0,2.5763968E2,8.912585E1],"tree_param":{"num_deleted":"0","num_feature":"40","num_nodes":"17","size_leaf_vector":"1"}},{"base_weights":[3.1227458E-2,-2.4910651E-2,1.1239374E0,-1.9323157E-1,1.3129742E0,1.1505671E-2,-1.8970294E-2,1.4022722E0,-1.4198606E-2,1.1554378E-2,7.569369E-2],"categories":[],"categories_nodes":[],"categories_segments":[],"categories_sizes":[],"default_left":[1,0,1,0,0,0,0,1,0,0,0],"id":59,"left_children":[1,-1,3,5,7,-1,-1,9,-1,-1,-1],"loss_changes":[5.1746426E1,0E0,7.520481E0,4.4469985E-1,4.056019E0,0E0,0E0,2.847248E0,0E0,0E0,0E0],"parents":[2147483647,0,0,2,2,3,3,4,4,7,7],"right_children":[2,-1,4,6,8,-1,-1,10,-1,-1,-1],"split_conditions":[5E0,-2.4910651E-2,-4.2857143E-1,-6.2E1,8.934727E1,1.1505671E-2,-1.8970294E-2,-4.6666667E-1,-1.4198606E-2,1.1554378E-2,7.569369E-2],"split_indices":[2,0,10,16,21,0,0,6,0,0,0],"split_type":[0,0,0,0,0,0,0,0,0,0,0],"sum_hessian":[8.747756E1,5.9292957E1,2.8184603E1,3.5345328E0,2.465007E1,1.0075152E0,2.5270176E0,2.346013E1,1.1899403E0,2.30816E0,2.115197E1],"tree_param":{"num_deleted":"0","num_feature":"40","num_nodes":"11","size_leaf_vector":"1"}},{"base_weights":[1.6108532E-3,5.9298205E-1,-2.4559658E-2,6.081075E-1,2.0562139E-4,-1.3142331E-1,1.9828327E-2,7.4930134E-4,6.231592E-1,-5.4106295E-2,-3.113202E-1,-6.191143E-1,2.6301004E-2,3.1932857E-2,1.2635788E-3,-3.1196693E-4,-2.1375015E-2,-2.9229466E-2,-1.0458677E-2,-4.02696E-2,-6.058639E-3,-8.059445E-3,2.4453213E-3],"categories":[0,1,2,3,5,9,10,11,12,13,0,3,7,10,12],"categories_nodes":[1,5],"categories_segments":[0,10],"categories_sizes":[10,5],"default_left":[1,1,0,0,0,1,0,0,1,0,0,0,0,0,0,0,0,0,0,0,0,0,0],"id":60,"left_children":[1,3,5,7,-1,9,11,-1,13,15,17,19,21,-1,-1,-1,-1,-1,-1,-1,-1,-1,-1],"loss_changes":[1.921503E1,4.6614075E-1,5.642613E0,4.4856262E-1,0E0,4.8384013E0,3.4941168E0,0E0,4.471302E-1,4.3825665E0,2.8007717E0,6.8844104E-1,3.5403352E0,0E0,0E0,0E0,0E0,0E0,0E0,0E0,0E0,0E0,0E0],"parents":[2147483647,0,0,1,1,2,2,3,3,5,5,6,6,8,8,9,9,10,10,11,11,12,12],"right_children":[2,4,6,8,-1,10,12,-1,14,16,18,20,22,-1,-1,-1,-1,-1,-1,-1,-1,-1,-1],"split_conditions":[2E0,1E-45,0E0,-9.5894394E1,2.0562139E-4,1E-45,-1.8379325E0,7.4930134E-4,5.3846157E-1,-5.3030305E-2,-3.4442163E0,-7.7042603E-1,2.4761122E1,3.1932857E-2,1.2635788E-3,-3.1196693E-4,-2.1375015E-2,-2.9229466E-2,-1.0458677E-2,-4.02696E-2,-6.058639E-3,-8.059445E-3,2.4453213E-3],"split_indices":[2,0,11,20,0,0,14,0,11,11,25,12,26,0,0,0,0,0,0,0,0,0,0],"split_type":[0,1,0,0,0,1,0,0,0,0,0,0,0,0,0,0,0,0,0,0,0,0,0],"sum_hessian":[1.2396218E3,5.16155E1,1.1880063E3,5.0291077E1,1.3244264E0,3.480701E2,8.399363E2,1.2940469E0,4.899703E1,2.4435197E2,1.0371812E2,7.4742475E0,8.3246204E2,4.7692604E1,1.3044263E0,2.1748798E2,2.6863995E1,2.6935507E1,7.678261E1,4.990049E0,2.4841986E0,8.890998E1,7.4355206E2],"tree_param":{"num_deleted":"0","num_feature":"40","num_nodes":"23","size_leaf_vector":"1"}},{"base_weights":[1.0368947E-3,-5.088863E-1,2.080134E-2,7.1083615E-3,-5.311456E-1,7.4378043E-1,1.2734128E-2,1.8321939E-3,-5.533662E-1,5.57217E-2,2.2634582E-1,1.156183E-1,-3.0835833E-2,-2.8851125E-2,-3.207025E-3,-2.4766846E-2,3.865919E-2,3.2015003E-2,4.2645503E-3,-4.7022705E-3,1.8185423E-3],"categories":[0,1,2,3,4,6,7,8,9,10,11,12,13,1,2,4,5,7,8,9,10,11,13],"categories_nodes":[1,6],"categories_segments":[0,13],"categories_sizes":[13,10],"default_left":[1,0,0,0,0,0,1,0,1,0,0,1,1,0,0,0,0,0,0,0,0],"id":61,"left_children":[1,3,5,-1,7,9,11,-1,13,-1,15,17,19,-1,-1,-1,-1,-1,-1,-1,-1],"loss_changes":[1.0449267E1,6.361599E-1,5.8116765E0,0E0,4.949007E-1,1.856741E0,4.432747E0,0E0,3.8268566E-1,0E0,2.6894171E0,4.6261215E0,2.95547E0,0E0,0E0,0E0,0E0,0E0,0E0,0E0,0E0],"parents":[2147483647,0,0,1,1,2,2,4,4,5,5,6,6,8,8,10,10,11,11,12,12],"right_children":[2,4,6,-1,8,10,12,-1,14,-1,16,18,20,-1,-1,-1,-1,-1,-1,-1,-1],"split_conditions":[2E0,1E-45,-1.8379325E0,7.1083615E-3,-6E0,-2.4545455E0,1E-45,1.8321939E-3,5.026694E0,5.57217E-2,0E0,2.33128E1,-4.9E1,-2.8851125E-2,-3.207025E-3,-2.4766846E-2,3.865919E-2,3.2015003E-2,